-2838
2325
-4093
-1937
-4660
-5273
-5673
-4060
-1903
2090
-2170
-3387
-3560
-5735
-3891
-3895
-5708
-3815
-4321
-6092
-5665
-4139
-2150
-5336
-3368
-4913
-5624
-4110
-5917
-4971
-4929
-4069
-4597
-3964
-5006
-4444
-4669
-3572
-3241
-3041
300
-1878
788
-3939
165
-6328
-5225
-4855
-3870
-4221
-5862
-2159
-5156
-2653
-5374
-725
-5204
-4821
-4523
-2677
-3969
-5026
-5105
-5860
-6111
-4843
-3133
-2588
-5292
-4667
-5531
-5807
-3359
-4135
-4577
-5146
-710
-4184
1411
-4481
-4582
-4519
-1488
-120
-2453
-3137
-776
-786
-2164
-3844
-3758
-4931
-2733
-4610
-3213
-6561
453
747
631
901
600
849
859
698
748
884
852
538
773
885
951
569
802
811
836
514
838
723
715
756
696
846
525
758
982
836
681
428
729
590
710
651
896
774
462
731
745
771
696
621
886
771
876
957
611
979
580
937
669
737
577
841
991
819
718
571
749
685
751
686
666
594
746
740
575
776
680
849
549
666
711
762
782
549
417
883
807
597
786
603
723
564
756
1037
802
824
733
851
654
492
570
841
965
684
887
798
1001
941
832
648
679
399
690
800
813
736
695
1010
819
465
773
972
540
637
879
763
913
979
672
680
812
741
781
666
790
638
601
768
893
811
846
988
818
703
705
779
811
819
644
886
874
961
900
717
905
622
948
869
751
729
768
595
657
744
767
778
871
779
794
757
667
828
783
790
795
687
842
929
462
779
1090
1025
717
516
923
875
921
684
984
928
633
922
815
855
595
838
733
607
777
781
876
872
882
631
722
666
605
744
643
948
873
734
912
864
537
665
787
625
819
814
634
593
702
640
826
916
849
727
579
755
874
854
810
586
1048
780
849
748
909
919
759
719
921
779
782
749
863
718
886
903
831
855
738
952
843
855
631
1125
402
512
657
837
-42
305
-334
276
-234
-42
-182
-545
178
-41
101
-60
-16
-164
-133
-33
-2
-167
-208
-368
-266
257
-125
481
173
-2
-268
-90
150
79
-118
-85
142
172
39
84
-31
-75
-23
-100
-374
-98
-75
-130
208
-121
-12
128
258
230
114
-436
83
130
-63
-49
225
-136
-199
-124
46
317
-321
-109
302
-64
-96
-235
259
-185
-224
-49
103
-180
116
-124
158
-19
37
13
32
-120
-80
-207
-130
-269
-100
-200
-231
-88
-100
66
-35
-96
-12
145
-10
203
195
-50
-286
63
-188
4
-57
467
-11
-95
65
-182
393
234
82
150
484
41
-4
474
-129
-140
-179
-38
249
-288
386
-2
-174
12
118
60
-26
37
-23
-242
-103
149
-233
-43
-402
-133
62
-38
117
-209
-12
492
-162
-69
46
57
28
287
-76
-57
78
-100
-263
-100
-56
86
-28
-236
21
40
203
-62
-97
122
-315
22
-121
-442
-131
191
-149
80
-47
-108
127
-57
378
-112
104
25
-140
-299
-176
33
204
-395
217
24
-23
-66
173
424
133
356
-140
-107
-88
45
0
-12
413
89
-107
-177
-286
-209
-76
-6
-65
-43
-99
-126
-132
42
-161
135
241
-112
103
-100
-193
-517
170
159
-174
-145
-77
0
-62
255
340
20
-199
-86
88
122
287
194
37
64
-502
-70
-106
395
119
-408
-187
-224
118
-258
63
-118
-326
43
-366
-106
380
-124
562
-342
-325
-133
123
-396
-120
213
113
89
-33
-274
-8
112
-12
-125
-184
-400
226
-104
-413
-567
59
27
235
-649
-166
-231
88
-103
250
118
62
470
274
383
-588
177
-119
-73
-67
-146
223
-170
-273
-237
443
137
160
45
-436
-30
-81
-178
-204
-157
225
-125
-411
132
90
-164
-210
-135
-242
-130
-191
108
-69
217
184
242
-274
488
-55
43
-60
-364
-111
447
-65
355
72
31
171
-82
7
49
244
-255
48
128
43
-34
-239
-251
40
-80
261
321
500
-410
178
-189
234
-107
190
-30
-11
-99
-113
-77
-112
334
-22
316
-689
129
-11
-286
-116
-245
-112
1631
849
658
1394
1133
584
215
1374
1036
735
0
998
1362
1104
349
521
2292
578
-167
293
1909
728
1737
906
982
1342
2006
1285
1728
1364
449
1363
1821
724
1571
2305
2224
-83
1815
1551
1251
-527
-160
363
1274
518
1467
477
747
875
741
358
1826
2192
545
251
1336
1858
1264
1236
1291
1471
577
1611
1622
964
1154
989
-154
1394
877
690
1348
146
929
1519
1507
841
174
374
1344
1069
920
407
34
854
1783
1719
561
1398
596
1183
1440
512
787
721
914
889
641
748
1382
417
1717
462
671
969
666
595
1863
1961
218
956
1463
421
1316
1690
1379
1635
763
854
1235
713
208
864
2209
-675
323
1472
942
751
578
1595
-320
321
-63
998
1565
457
2156
420
946
449
1387
1332
2006
647
1082
1399
2000
63
2005
1626
421
771
644
1260
1218
16
1487
1019
1487
871
2331
107
2178
-210
475
967
1291
302
1566
554
1833
1340
1009
777
1195
1714
1377
1025
-314
604
1786
704
-324
2125
499
826
1166
497
178
710
1586
702
1574
1944
1494
1107
942
1284
1145
461
814
773
903
1501
1120
1438
1224
874
1053
1426
1319
337
918
1530
1891
1296
821
1294
1349
1150
1273
1290
990
-110
1072
1150
1172
794
1287
1054
904
1454
1300
1050
1662
1109
1189
1562
1634
1888
286
858
1708
1507
1507
1206
910
625
1097
979
692
611
1833
768
1687
1187
1208
804
734
756
988
1481
674
789
2523
1543
1029
116
1922
1399
1855
202
922
1819
767
577
963
1637
1506
-89
1752
1157
304
-78
925
449
-55
1751
994
946
1246
379
1744
1753
568
1401
768
1228
53
1457
1521
1193
469
1195
968
391
-700
475
610
1270
48
959
977
1284
471
-125
-614
762
1403
1274
1176
1362
1134
-302
2202
263
521
260
709
770
1226
1463
826
754
933
476
1434
6
703
140
483
541
811
351
1410
897
1271
1252
1298
572
594
1812
-72
452
1523
597
924
1423
1033
1910
669
1257
656
609
1168
1407
738
1399
996
538
650
2200
764
971
1156
872
1423
912
1453
10
751
2380
-29
2077
2974
622
1798
3254
2889
4408
641
3195
720
3294
507
1515
-873
2878
-681
4895
2058
1915
10740
4352
3055
-516
1986
2098
1172
-917
2946
2659
4588
4060
993
2161
4388
469
2276
4176
2021
-1332
4347
4334
386
-174
-2150
8067
3206
-1139
1788
708
981
3310
4804
618
4424
5012
4713
-416
777
-1424
1137
-1276
458
2046
2142
2455
5636
105
2106
2610
284
-220
2397
2441
3483
-508
4833
-1536
910
898
467
3249
1142
-329
1947
-1770
-504
3577
7054
2855
1140
-2054
474
2381
-1057
-1171
1493
-1733
2542
11
5075
6921
1864
727
5420
1105
5363
2509
924
-36
1456
2184
1656
2272
1060
8401
-2374
1454
709
-56
4673
2658
3584
1752
3142
-869
2993
-1246
-1026
2145
6103
2396
2403
3354
1622
310
1970
2746
763
972
-148
1392
3158
1080
1041
1424
1088
-557
377
8455
2105
2194
-1600
4105
1283
3472
4843
4355
3684
960
745
-1196
3557
-728
2614
3688
5045
-993
2054
895
784
652
1660
2664
-933
6511
5316
3103
-2321
895
765
1088
-1064
2109
931
1551
3684
3101
1264
1728
980
2309
-77
-728
2090
1655
2138
2471
2081
3796
7038
2049
-438
6440
1894
602
2861
6685
742
1710
3198
1049
1972
2202
-1159
-999
324
4546
-571
2283
1985
3310
86
671
-385
-1029
-482
1062
-3960
266
1627
1986
5696
4870
1556
-34
1026
5080
3234
625
-440
-164
1862
2720
676
-227
-512
-500
1733
4855
1168
330
3495
127
825
