-11351
9301
-16374
-7749
-18641
-21092
-22691
-16238
-7611
8360
-8679
-13548
-14241
-22941
-15564
-15581
-22833
-15261
-17282
-24366
-22660
-16556
-8602
-21343
-13472
-19652
-22497
-16439
-23669
-19885
-19717
-16275
-18387
-15856
-20024
-17774
-18675
-14287
-12964
-12163
1200
-7513
3151
-15755
661
-25310
-20900
-19420
-15480
-16882
-23448
-8636
-20624
-10610
-21494
-2901
-20816
-19284
-18092
-10709
-15877
-20103
-20421
-23442
-24445
-19370
-12531
-10351
-21170
-18668
-22124
-23229
-13435
-16540
-18308
-20584
-2840
-16738
5645
-17926
-18329
-18076
-5952
-481
-9811
-12546
-3103
-3145
-8655
-15375
-15031
-19724
-10930
-18440
-12853
-26245
1814
2989
2526
3605
2400
3395
3436
2790
2991
3537
3407
2153
3092
3540
3802
2276
3207
3245
3345
2058
3351
2891
2859
3026
2784
3386
2101
3030
3929
3343
2724
1710
2917
2359
2839
2603
3586
3095
1848
2923
2982
3083
2782
2484
3544
3084
3505
3828
2444
3915
2319
3749
2677
2950
2306
3365
3965
3277
2871
2285
2998
2739
3005
2745
2666
2375
2985
2959
2302
3105
2719
3398
2197
2662
2845
3049
3130
2197
1667
3531
3229
2389
3143
2412
2891
2256
3024
4149
3207
3297
2934
3404
2616
1969
2278
3364
3859
2736
3546
3193
4005
3762
3329
2591
2715
1595
2762
3199
3252
2944
2780
4039
3275
1861
3092
3887
2160
2546
3515
3052
3650
3917
2689
2720
3250
2966
3123
2663
3159
2553
2404
3072
3574
3245
3384
3954
3273
2811
2820
3116
3243
3278
2577
3545
3496
3844
3599
2869
3619
2487
3792
3477
3004
2918
3071
2380
2626
2975
3068
3111
3485
3117
3176
3026
2668
3312
3134
3160
3178
2746
3367
3718
1849
3116
4360
4101
2867
2066
3691
3499
3685
2737
3935
3713
2530
3686
3260
3418
2380
3354
2934
2426
3108
3123
3505
3488
3529
2524
2889
2664
2421
2974
2572
3794
3491
2937
3646
3456
2148
2660
3148
2501
3275
3257
2536
2370
2807
2560
3303
3663
3397
2910
2315
3020
3495
3416
3241
2343
4192
3121
3395
2990
3635
3675
3037
2877
3682
3115
3127
2996
3453
2872
3545
3610
3325
3420
2951
3810
3373
3420
2523
4502
1610
2048
2627
3348
-169
1221
-1334
1104
-936
-166
-729
-2182
710
-165
403
-240
-66
-656
-531
-131
-6
-670
-832
-1473
-1064
1027
-500
1924
693
-8
-1073
-358
601
315
-473
-339
568
687
154
336
-124
-299
-91
-398
-1495
-393
-299
-521
833
-483
-49
512
1031
922
456
-1744
331
519
-250
-195
901
-545
-798
-495
184
1267
-1286
-434
1207
-255
-386
-939
1037
-742
-896
-197
411
-719
465
-496
630
-76
149
53
130
-479
-320
-827
-518
-1077
-402
-798
-924
-353
-402
265
-138
-383
-46
580
-40
812
780
-200
-1144
254
-752
15
-230
1870
-45
-381
259
-727
1571
936
329
598
1937
165
-17
1896
-515
-560
-717
-152
996
-1153
1546
-9
-698
49
473
242
-104
148
-91
-968
-413
597
-931
-173
-1609
-531
248
-152
466
-837
-49
1968
-648
-275
183
228
113
1149
-303
-227
313
-402
-1052
-398
-222
345
-110
-945
86
158
813
-248
-388
487
-1259
89
-485
-1768
-525
763
-597
321
-189
-434
509
-229
1514
-449
417
98
-560
-1195
-705
131
814
-1581
868
96
-92
-266
691
1696
533
1426
-558
-430
-352
180
1
-47
1653
355
-429
-708
-1143
-836
-303
-25
-260
-171
-397
-502
-528
168
-642
541
964
-449
410
-401
-773
-2068
679
634
-696
-579
-306
0
-247
1019
1362
82
-797
-345
350
486
1147
777
150
258
-2010
-278
-423
1580
477
-1632
-750
-895
473
-1031
252
-474
-1302
173
-1463
-426
1519
-497
2248
-1367
-1300
-530
493
-1583
-479
850
453
355
-130
-1097
-32
448
-47
-500
-737
-1599
904
-418
-1652
-2270
236
109
941
-2596
-665
-926
352
-412
1000
471
247
1881
1097
1532
-2354
708
-478
-293
-266
-586
891
-681
-1091
-947
1773
548
641
179
-1744
-122
-324
-713
-814
-630
900
-502
-1644
528
362
-657
-841
-541
-966
-520
-762
431
-276
867
738
967
-1096
1952
-221
171
-241
-1455
-444
1787
-258
1419
287
126
685
-328
27
197
975
-1022
190
513
171
-136
-955
-1003
161
-321
1044
1283
1998
-1641
712
-755
938
-428
758
-119
-45
-394
-452
-308
-450
1334
-89
1264
-2757
517
-43
-1144
-464
-981
-448
6524
3396
2632
5577
4530
2338
860
5494
4144
2941
-1
3993
5449
4417
1396
2083
9170
2310
-668
1171
7636
2910
6948
3622
3927
5370
8022
5141
6913
5454
1794
5452
7285
2897
6286
9220
8896
-330
7258
6202
5004
-2110
-641
1452
5094
2074
5869
1910
2990
3502
2962
1432
7303
8767
2178
1006
5344
7431
5057
4946
5163
5884
2309
6443
6490
3857
4616
3957
-617
5576
3509
2760
5391
584
3714
6077
6026
3363
695
1496
5375
4274
3679
1629
135
3417
7134
6876
2242
5592
2386
4733
5760
2049
3146
2884
3657
3556
2564
2990
5526
1666
6866
1848
2686
3878
2665
2379
7454
7843
871
3822
5853
1685
5264
6761
5516
6539
3054
3415
4942
2853
833
3456
8835
-2701
1291
5888
3768
3005
2310
6380
-1280
1282
-251
3990
6261
1830
8622
1678
3784
1795
5549
5330
8024
2587
4327
5595
8000
253
8021
6506
1684
3083
2575
5042
4874
65
5948
4075
5948
3484
9323
430
8712
-841
1901
3866
5162
1209
6262
2215
7332
5360
4036
3108
4781
6855
5508
4101
-1258
2415
7144
2815
-1295
8502
1995
3305
4664
1986
713
2838
6342
2808
6296
7776
5977
4429
3769
5137
4580
1845
3254
3091
3614
6004
4479
5754
4894
3497
4211
5705
5275
1350
3672
6120
7562
5186
3285
5177
5396
4599
5093
5161
3960
-440
4288
4602
4686
3175
5149
4217
3615
5815
5201
4202
6647
4437
4754
6247
6536
7550
1144
3432
6834
6029
6027
4825
3639
2499
4388
3918
2769
2444
7331
3073
6748
4750
4830
3217
2935
3023
3951
5924
2696
3157
10090
6172
4115
464
7689
5597
7421
806
3689
7276
3069
2309
3850
6550
6024
-354
7006
4629
1216
-314
3702
1795
-219
7006
3975
3783
4984
1517
6975
7013
2271
5602
3073
4912
214
5830
6085
4772
1874
4782
3873
1565
-2801
1900
2438
5079
194
3838
3909
5136
1885
-500
-2456
3049
5610
5095
4703
5448
4536
-1207
8809
1053
2085
1040
2837
3080
4906
5853
3304
3015
3730
1903
5738
26
2811
562
1932
2165
3245
1405
5641
3589
5085
5009
5191
2290
2377
7249
-288
1810
6091
2387
3696
5692
4131
7641
2678
5030
2625
2435
4670
5628
2952
5597
3983
2152
2601
8799
3056
3885
4622
3488
5691
3646
5814
41
3005
9521
-115
8308
11896
2488
7192
13017
11558
17631
2566
12780
2880
13177
2027
6058
-3493
11511
-2723
19581
8233
7661
42958
17406
12218
-2064
7945
8392
4690
-3667
11782
10636
18350
16240
3974
8643
17554
1878
9106
16704
8084
-5329
17387
17336
1544
-694
-8600
32269
12822
-4557
7152
2833
3925
13239
19217
2472
17697
20047
18853
-1664
3110
-5695
4549
-5105
1833
8185
8568
9821
22545
418
8424
10442
1137
-879
9589
9763
13931
-2032
19330
-6143
3639
3593
1868
12998
4566
-1314
7789
-7082
-2017
14309
28215
11422
4561
-8214
1897
9525
-4229
-4683
5971
-6933
10169
43
20299
27685
7455
2909
21679
4418
21452
10038
3696
-146
5822
8737
6626
9087
4240
33604
-9496
5815
2835
-224
18692
10631
14337
7006
12568
-3478
11970
-4984
-4106
8579
24410
9585
9612
13415
6488
1241
7881
10984
3050
3889
-592
5567
12631
4322
4163
5695
4354
-2227
1507
33818
8421
8778
-6400
16419
5132
13886
19370
17420
14734
3841
2982
-4783
14228
-2912
10456
14752
20181
-3970
8214
3579
3135
2607
6638
10656
-3731
26044
21264
12411
-9285
3579
3059
4350
-4256
8435
3725
6205
14738
12405
5056
6910
3919
9236
-310
-2911
8360
6622
8553
9882
8325
15183
28153
8195
-1750
25759
7577
2410
11444
26739
2966
6838
12790
4198
7888
8808
-4636
-3997
1294
18185
-2285
9131
7939
13238
342
2686
-1542
-4115
-1926
4250
-15839
1064
6508
7944
22783
19480
6223
-137
4105
20318
12934
2500
-1760
-657
7447
10880
2703
-909
-2046
-1998
6932
19419
4670
1319
13979
507
3301
