-0.346397
0.283837
-0.499682
-0.236491
-0.568887
-0.643664
-0.692477
-0.495555
-0.232274
0.255125
-0.264854
-0.413465
-0.434615
-0.700091
-0.474967
-0.475487
-0.696800
-0.465743
-0.527414
-0.743593
-0.691516
-0.505254
-0.262510
-0.651338
-0.411121
-0.599743
-0.686550
-0.501677
-0.722321
-0.606828
-0.601712
-0.496670
-0.561121
-0.483873
-0.611091
-0.542420
-0.569912
-0.436019
-0.395642
-0.371173
0.036627
-0.229277
0.096172
-0.480799
0.020177
-0.772401
-0.637830
-0.592662
-0.472413
-0.515198
-0.715582
-0.263552
-0.629393
-0.323797
-0.655959
-0.088521
-0.635241
-0.588488
-0.552137
-0.326814
-0.484541
-0.613501
-0.623194
-0.715386
-0.746007
-0.591131
-0.382403
-0.315873
-0.646048
-0.569708
-0.675176
-0.708902
-0.410006
-0.504767
-0.558701
-0.628178
-0.086677
-0.510795
0.172265
-0.547054
-0.559364
-0.551644
-0.181644
-0.014680
-0.299411
-0.382882
-0.094685
-0.095971
-0.264130
-0.469217
-0.458711
-0.601941
-0.333564
-0.562735
-0.392248
-0.800920
0.055344
0.091211
0.077074
0.110001
0.073251
0.103615
0.104865
0.085145
0.091285
0.107940
0.103960
0.065697
0.094369
0.108029
0.116028
0.069444
0.097878
0.099019
0.102093
0.062802
0.102279
0.088240
0.087258
0.092343
0.084964
0.103329
0.064124
0.092482
0.119906
0.102025
0.083139
0.052192
0.089012
0.071999
0.086624
0.079447
0.109433
0.094460
0.056385
0.089193
0.091003
0.094087
0.084914
0.075806
0.108166
0.094104
0.106974
0.116831
0.074585
0.119483
0.070757
0.114416
0.081702
0.090023
0.070382
0.102679
0.120988
0.100021
0.087602
0.069723
0.091483
0.083580
0.091720
0.083776
0.081349
0.072486
0.091089
0.090296
0.070250
0.094749
0.082972
0.103687
0.067056
0.081243
0.086820
0.093047
0.095520
0.067035
0.050885
0.107757
0.098548
0.072911
0.095925
0.073615
0.088237
0.068853
0.092290
0.126603
0.097860
0.100606
0.089524
0.103893
0.079833
0.060094
0.069533
0.102657
0.117766
0.083492
0.108217
0.097437
0.122231
0.114816
0.101603
0.079076
0.082850
0.048686
0.084274
0.097641
0.099247
0.089846
0.084826
0.123257
0.099937
0.056782
0.094353
0.118628
0.065906
0.077699
0.107261
0.093135
0.111393
0.119552
0.082075
0.082996
0.099175
0.090507
0.095301
0.081274
0.096400
0.077910
0.073357
0.093763
0.109063
0.099034
0.103281
0.120655
0.099883
0.085798
0.086056
0.095082
0.098973
0.100022
0.078637
0.108185
0.106699
0.117311
0.109844
0.087549
0.110429
0.075905
0.115717
0.106097
0.091664
0.089047
0.093715
0.072630
0.080143
0.090801
0.093630
0.094931
0.106363
0.095116
0.096934
0.092361
0.081410
0.101072
0.095641
0.096444
0.096991
0.083802
0.102750
0.113459
0.056435
0.095092
0.133048
0.125164
0.087486
0.063037
0.112627
0.106792
0.112457
0.083516
0.120074
0.113326
0.077218
0.112498
0.099479
0.104323
0.072646
0.102354
0.089532
0.074037
0.094856
0.095301
0.106975
0.106432
0.107711
0.077031
0.088151
0.081306
0.073869
0.090765
0.078492
0.115774
0.106544
0.089625
0.111280
0.105477
0.065566
0.081176
0.096066
0.076324
0.099937
0.099386
0.077407
0.072342
0.085677
0.078139
0.100801
0.111799
0.103680
0.088795
0.070661
0.092157
0.106654
0.104253
0.098894
0.071497
0.127929
0.095257
0.103610
0.091259
0.110930
0.112153
0.092686
0.087798
0.112370
0.095060
0.095431
0.091445
0.105386
0.087639
0.108199
0.110183
0.101483
0.104363
0.090057
0.116260
0.102931
0.104370
0.076994
0.137378
0.049132
0.062496
0.080171
0.102171
-0.005163
0.037263
-0.040725
0.033682
-0.028567
-0.005080
-0.022236
-0.066586
0.021672
-0.005045
0.012298
-0.007312
-0.002006
-0.020009
-0.016196
-0.004010
-0.000187
-0.020438
-0.025391
-0.044938
-0.032465
0.031355
-0.015249
0.058712
0.021163
-0.000255
-0.032742
-0.010928
0.018345
0.009608
-0.014449
-0.010359
0.017340
0.020976
0.004704
0.010239
-0.003773
-0.009136
-0.002780
-0.012149
-0.045634
-0.012006
-0.009113
-0.015893
0.025435
-0.014754
-0.001489
0.015636
0.031459
0.028124
0.013911
-0.053227
0.010095
0.015833
-0.007641
-0.005936
0.027508
-0.016628
-0.024349
-0.015114
0.005609
0.038653
-0.039237
-0.013248
0.036834
-0.007795
-0.011773
-0.028670
0.031639
-0.022638
-0.027342
-0.006021
0.012553
-0.021954
0.014185
-0.015140
0.019233
-0.002333
0.004539
0.001629
0.003958
-0.014618
-0.009771
-0.025229
-0.015816
-0.032854
-0.012268
-0.024365
-0.028211
-0.010768
-0.012264
0.008088
-0.004213
-0.011699
-0.001408
0.017697
-0.001218
0.024779
0.023801
-0.006104
-0.034920
0.007742
-0.022954
0.000463
-0.007005
0.057067
-0.001378
-0.011635
0.007919
-0.022180
0.047930
0.028562
0.010047
0.018252
0.059112
0.005043
-0.000528
0.057864
-0.015727
-0.017098
-0.021875
-0.004647
0.030396
-0.035180
0.047177
-0.000273
-0.021291
0.001498
0.014445
0.007382
-0.003160
0.004504
-0.002778
-0.029529
-0.012616
0.018224
-0.028422
-0.005283
-0.049088
-0.016196
0.007553
-0.004640
0.014229
-0.025550
-0.001487
0.060063
-0.019776
-0.008386
0.005586
0.006956
0.003447
0.035056
-0.009241
-0.006926
0.009551
-0.012253
-0.032116
-0.012160
-0.006789
0.010531
-0.003368
-0.028838
0.002612
0.004836
0.024817
-0.007569
-0.011839
0.014872
-0.038412
0.002727
-0.014795
-0.053967
-0.016029
0.023283
-0.018205
0.009784
-0.005762
-0.013239
0.015538
-0.006992
0.046200
-0.013705
0.012716
0.003003
-0.017090
-0.036463
-0.021521
0.003998
0.024846
-0.048262
0.026482
0.002935
-0.002816
-0.008109
0.021081
0.051757
0.016254
0.043505
-0.017031
-0.013120
-0.010745
0.005498
0.000045
-0.001446
0.050457
0.010835
-0.013105
-0.021598
-0.034888
-0.025525
-0.009236
-0.000748
-0.007926
-0.005223
-0.012128
-0.015325
-0.016116
0.005120
-0.019593
0.016520
0.029416
-0.013713
0.012517
-0.012241
-0.023594
-0.063106
0.020718
0.019353
-0.021239
-0.017683
-0.009340
-0.000006
-0.007524
0.031113
0.041557
0.002499
-0.024331
-0.010530
0.010683
0.014835
0.034989
0.023714
0.004565
0.007864
-0.061338
-0.008493
-0.012918
0.048209
0.014557
-0.049806
-0.022878
-0.027312
0.014448
-0.031452
0.007681
-0.014451
-0.039739
0.005280
-0.044642
-0.012994
0.046364
-0.015179
0.068610
-0.041704
-0.039661
-0.016181
0.015041
-0.048303
-0.014632
0.025940
0.013820
0.010844
-0.003972
-0.033485
-0.000978
0.013684
-0.001437
-0.015256
-0.022483
-0.048813
0.027575
-0.012745
-0.050414
-0.069265
0.007197
0.003323
0.028708
-0.079210
-0.020302
-0.028256
0.010750
-0.012565
0.030520
0.014374
0.007526
0.057413
0.033480
0.046760
-0.071834
0.021596
-0.014584
-0.008955
-0.008123
-0.017874
0.027203
-0.020776
-0.033292
-0.028899
0.054115
0.016727
0.019555
0.005461
-0.053217
-0.003723
-0.009890
-0.021751
-0.024846
-0.019223
0.027469
-0.015313
-0.050161
0.016110
0.011043
-0.020036
-0.025675
-0.016515
-0.029491
-0.015875
-0.023268
0.013158
-0.008428
0.026464
0.022510
0.029506
-0.033444
0.059561
-0.006753
0.005216
-0.007365
-0.044389
-0.013559
0.054534
-0.007881
0.043319
0.008751
0.003831
0.020898
-0.010005
0.000821
0.006002
0.029769
-0.031182
0.005799
0.015667
0.005228
-0.004143
-0.029140
-0.030619
0.004913
-0.009803
0.031854
0.039149
0.060984
-0.050068
0.021737
-0.023048
0.028620
-0.013076
0.023147
-0.003622
-0.001381
-0.012029
-0.013786
-0.009404
-0.013720
0.040722
-0.002709
0.038585
-0.084130
0.015786
-0.001325
-0.034922
-0.014173
-0.029935
-0.013683
0.199099
0.103649
0.080323
0.170204
0.138256
0.071343
0.026235
0.167674
0.126469
0.089747
-0.000016
0.121858
0.166282
0.134781
0.042609
0.063553
0.279840
0.070503
-0.020387
0.035748
0.233023
0.088808
0.212045
0.110545
0.119858
0.163874
0.244826
0.156878
0.210979
0.166444
0.054756
0.166390
0.222318
0.088409
0.191822
0.281364
0.271494
-0.010075
0.221502
0.189282
0.152706
-0.064390
-0.019549
0.044317
0.155469
0.063293
0.179118
0.058278
0.091246
0.106864
0.090397
0.043698
0.222873
0.267547
0.066479
0.030699
0.163098
0.226788
0.154328
0.150937
0.157548
0.179554
0.070463
0.196637
0.198053
0.117709
0.140858
0.120756
-0.018840
0.170172
0.107082
0.084237
0.164517
0.017837
0.113355
0.185451
0.183907
0.102629
0.021201
0.045661
0.164025
0.130435
0.112259
0.049707
0.004132
0.104269
0.217698
0.209849
0.068426
0.170641
0.072813
0.144440
0.175784
0.062531
0.096020
0.088028
0.111590
0.108518
0.078253
0.091259
0.168643
0.050844
0.209538
0.056395
0.081965
0.118346
0.081321
0.072594
0.227469
0.239362
0.026588
0.116643
0.178605
0.051427
0.160647
0.206316
0.168330
0.199557
0.093193
0.104221
0.150805
0.087070
0.025414
0.105461
0.269617
-0.082433
0.039385
0.179690
0.115003
0.091704
0.070511
0.194699
-0.039077
0.039138
-0.007650
0.121776
0.191057
0.055832
0.263135
0.051209
0.115482
0.054790
0.169355
0.162645
0.244865
0.078960
0.132053
0.170746
0.244135
0.007709
0.244767
0.198542
0.051389
0.094087
0.078570
0.153864
0.148729
0.001987
0.181505
0.124356
0.181522
0.106327
0.284522
0.013113
0.265863
-0.025675
0.058027
0.117983
0.157540
0.036900
0.191106
0.067603
0.223747
0.163571
0.123161
0.094839
0.145916
0.209205
0.168080
0.125168
-0.038385
0.073691
0.218013
0.085897
-0.039519
0.259458
0.060893
0.100870
0.142332
0.060621
0.021774
0.086613
0.193543
0.085698
0.192140
0.237301
0.182416
0.135174
0.115014
0.156772
0.139765
0.056302
0.099316
0.094330
0.110277
0.183224
0.136679
0.175589
0.149361
0.106724
0.128500
0.174113
0.160980
0.041194
0.112054
0.186756
0.230787
0.158260
0.100236
0.157986
0.164681
0.140344
0.155423
0.157488
0.120839
-0.013428
0.130859
0.140433
0.143010
0.096882
0.157122
0.128691
0.110326
0.177459
0.158714
0.128231
0.202858
0.135392
0.145095
0.190643
0.199472
0.230409
0.034905
0.104735
0.208556
0.183980
0.183941
0.147256
0.111040
0.076253
0.133915
0.119566
0.084493
0.074599
0.223739
0.093770
0.205941
0.144958
0.147404
0.098162
0.089557
0.092265
0.120560
0.180781
0.082276
0.096343
0.307931
0.188351
0.125580
0.014165
0.234654
0.170800
0.226473
0.024607
0.112593
0.222034
0.093648
0.070476
0.117504
0.199881
0.183846
-0.010818
0.213809
0.141279
0.037121
-0.009580
0.112973
0.054787
-0.006697
0.213805
0.121318
0.115443
0.152092
0.046284
0.212853
0.214018
0.069312
0.170971
0.093767
0.149904
0.006521
0.177908
0.185705
0.145641
0.057191
0.145926
0.118187
0.047767
-0.085494
0.057975
0.074407
0.154993
0.005909
0.117117
0.119290
0.156739
0.057530
-0.015264
-0.074937
0.093040
0.171206
0.155489
0.143522
0.166253
0.138423
-0.036823
0.268838
0.032139
0.063644
0.031732
0.086577
0.093986
0.149710
0.178615
0.100819
0.092022
0.113838
0.058085
0.175107
0.000788
0.085780
0.017142
0.058952
0.066079
0.099033
0.042876
0.172139
0.109540
0.155182
0.152861
0.158416
0.069881
0.072547
0.221216
-0.008780
0.055236
0.185880
0.072831
0.112789
0.173706
0.126058
0.233197
0.081720
0.153502
0.080099
0.074303
0.142529
0.171747
0.090094
0.170811
0.121560
0.065682
0.079365
0.268517
0.093273
0.118553
0.141066
0.106432
0.173690
0.111278
0.177428
0.001259
0.091701
0.290568
-0.003503
0.253538
0.363050
0.075933
0.219481
0.397260
0.352719
0.538045
0.078303
0.390017
0.087881
0.402126
0.061845
0.184888
-0.106610
0.351291
-0.083105
0.597550
0.251241
0.233802
1.310984
0.531192
0.372872
-0.062976
0.242467
0.256104
0.143125
-0.111910
0.359564
0.324587
0.560000
0.495609
0.121276
0.263779
0.535701
0.057304
0.277879
0.509757
0.246702
-0.162626
0.530613
0.529044
0.047115
-0.021180
-0.262464
0.984781
0.391298
-0.139065
0.218252
0.086442
0.119790
0.404020
0.586466
0.075431
0.540083
0.611794
0.575339
-0.050777
0.094898
-0.173786
0.138828
-0.155796
0.055931
0.249774
0.261489
0.299722
0.688024
0.012768
0.257068
0.318652
0.034702
-0.026827
0.292624
0.297956
0.425151
-0.062010
0.589912
-0.187455
0.111047
0.109649
0.057017
0.396654
0.139348
-0.040107
0.237701
-0.216115
-0.061557
0.436671
0.861049
0.348558
0.139198
-0.250676
0.057889
0.290670
-0.129054
-0.142928
0.182228
-0.211573
0.310321
0.001301
0.619476
0.844885
0.227502
0.088790
0.661580
0.134827
0.654663
0.306323
0.112802
-0.004443
0.177680
0.266647
0.202208
0.277316
0.129396
1.025503
-0.289802
0.177474
0.086526
-0.006837
0.570439
0.324440
0.437534
0.213816
0.383553
-0.106130
0.365296
-0.152095
-0.125299
0.261804
0.744937
0.292521
0.293338
0.409386
0.198013
0.037858
0.240495
0.335195
0.093094
0.118693
-0.018051
0.169886
0.385471
0.131897
0.127048
0.173803
0.132862
-0.067974
0.046004
1.032047
0.256982
0.267875
-0.195312
0.501082
0.156606
0.423773
0.591131
0.531631
0.449660
0.117220
0.090991
-0.145972
0.434214
-0.088879
0.319082
0.450182
0.615886
-0.121156
0.250672
0.109230
0.095685
0.079560
0.202587
0.325191
-0.113854
0.794790
0.648933
0.378764
-0.283349
0.109209
0.093354
0.132754
-0.129891
0.257419
0.113685
0.189367
0.449768
0.378569
0.154282
0.210878
0.119599
0.281860
-0.009456
-0.088830
0.255118
0.202086
0.261020
0.301582
0.254063
0.463353
0.859147
0.250096
-0.053418
0.786116
0.231219
0.073545
0.349258
0.816006
0.090530
0.208689
0.390328
0.128099
0.240713
0.268810
-0.141468
-0.121982
0.039502
0.554973
-0.069747
0.278644
0.242268
0.404005
0.010449
0.081968
-0.047052
-0.125573
-0.058778
0.129694
-0.483353
0.032477
0.198597
0.242437
0.695291
0.594468
0.189904
-0.004192
0.125273
0.620063
0.394729
0.076304
-0.053722
-0.020065
0.227278
0.332030
0.082481
-0.027732
-0.062443
-0.060978
0.211560
0.592612
0.142525
0.040240
0.426605
0.015457
0.100741
