0.00002707018393266480
-0.00010422063496662304
-0.00004031863136333413
0.00004476194226299413
0.00036390087916515768
-0.00006756807124475017
0.00015585520304739475
0.00041360707837156951
0.00009340884571429342
0.00031069855322130024
0.00007920513598946855
-0.00004825346331926994
0.00021086035121697932
-0.00015886292385403067
-0.00011874180927406996
0.00026494392659515142
-0.00001674241320870351
0.00000755483961256687
0.00017323726206086576
-0.00022686342708766460
-0.00001159182465926278
0.00005875231363461353
0.00007321857265196741
-0.00003239888246753253
-0.00002140854485332966
0.00006124818173702806
-0.00003166989699820988
-0.00001292909655603580
-0.00017193242092616856
-0.00011598053242778406
0.00002407181818853132
0.00012171985872555524
-0.00000462517891719472
0.00011883732804562896
-0.00002751533975242637
-0.00002228623270639218
-0.00043108654790557921
-0.00002650385431479663
0.00024199015751946718
-0.00011449668090790510
0.00014860511873848736
0.00050020427443087101
0.00025987433036789298
-0.00001211954713653540
-0.00032805264345370233
0.00031267691520042717
-0.00012149784743087366
-0.00001660920679569244
0.00047530888696201146
-0.00026661815354600549
-0.00004872258796240203
0.00015490643272642046
-0.00026714467094279826
-0.00010422641935292631
-0.00006774900975869969
-0.00020531327754724771
-0.00016856317233759910
-0.00002865171154553536
0.00003108839155174792
-0.00004237595931044780
0.00006916638085385785
0.00012573508138302714
0.00043250172166153789
-0.00005333061926648952
-0.00015521662135142833
-0.00011866438580909744
0.00016341115406248719
-0.00003189906783518381
0.00014717578596901149
0.00008788405102677643
0.00001752462230797391
0.00002111074536514934
0.00007263827137649059
-0.00003656190165202133
-0.00002556774052209221
0.00007344372716033831
0.00004442959470907226
0.00001039341077557765
-0.00017384921375196427
0.00029217539122328162
-0.00013094175665173680
0.00017885287525132298
-0.00012855039676651359
0.00006383422442013398
-0.00000315988836518954
0.00021968720830045640
0.00023806409444659948
0.00015791082114446908
0.00048108145711012185
-0.00035510456655174494
0.00012478433200158179
-0.00006823889998486266
-0.00009621684148442000
0.00003612794898799621
0.00008229558443417773
0.00016455911099910736
0.00036117833224125206
0.00003215064498363063
-0.00006964160274947062
-0.00012918986612930894
-0.00022638030350208282
0.00011245599307585508
0.00019629884627647698
-0.00002608005343063269
-0.00009298051736550406
-0.00001006332331598969
-0.00009311149187851697
0.00019258967950008810
0.00023638112179469317
0.00010699404811020941
0.00014017954526934773
-0.00011650013766484335
-0.00011242378241149709
-0.00008262222399935126
-0.00024438166292384267
0.00043505948269739747
-0.00011934695066884160
-0.00004282433656044304
0.00025428683147765696
-0.00018275405454915017
-0.00002605922054499388
0.00010967122943839058
0.00007763420580886304
0.00017130257037933916
-0.00021635711891576648
0.00016642776608932763
-0.00001408278421877185
-0.00005224532651482150
0.00020576830138452351
0.00000074293473062426
0.00007512949377996847
0.00003579824260668829
-0.00000337449296239356
-0.00002548963857407216
-0.00003632197331171483
-0.00001697362858976703
-0.00006037538696546108
0.00010568930883891881
-0.00004514304237090983
0.00004347043795860373
0.00029625327442772686
-0.00019357645942363888
0.00001848606734711211
-0.00023438583593815565
-0.00012098799197701737
-0.00002593880890344735
0.00019265474111307412
0.00001537352545710746
0.00008697481825947762
-0.00001646244709263556
-0.00011229975643800572
-0.00004237935354467481
0.00003823773295152932
-0.00006021518493071199
-0.00013286466128192842
-0.00007409605314023793
0.00002513087019906379
-0.00019303658336866647
-0.00021347678557503968
-0.00001393890033796197
0.00008495969086652622
0.00003613221269915812
-0.00004291557343094610
0.00008321877248818055
-0.00013101191143505275
0.00000562649347557453
0.00043709579040296376
0.00012048174539813772
-0.00003585585363907740
-0.00006309808668447658
0.00020487554138526320
-0.00031727162422612309
-0.00003609721170505509
0.00029453236493282020
0.00017786529497243464
-0.00004548762808553875
0.00023253163089975715
-0.00001752171374391764
-0.00014747255772817880
-0.00022462841297965497
0.00015079490549396724
0.00010143634426640347
-0.00017246596689801663
-0.00020760540792252868
-0.00001308946320932591
-0.00005987875192658976
0.00025828956859186292
0.00020151905482634902
0.00013531451986636966
0.00010472381836734712
-0.00001001016516966047
0.00036626055953092873
0.00034829135984182358
-0.00003337251473567449
0.00008678559242980555
0.00000799797635409050
-0.00009672520536696538
-0.00017253030091524124
0.00011742381320800632
-0.00002100464007526171
-0.00007903364894445986
-0.00008577966946177185
0.00017549574840813875
0.00006542043411172926
0.00024091651721391827
-0.00002085678170260508
0.00035238428972661495
0.00049690890591591597
0.00021311533055268228
0.00034604340908117592
-0.00024756646598689258
0.00005257424345472828
0.00011205203918507323
0.00046011948143132031
0.00008546375465812162
0.00008545821037841961
-0.00008205242920666933
0.00001393896945955930
0.00016326642071362585
0.00001782727485988289
-0.00022075058950576931
0.00021207203099038452
-0.00001331043677055277
-0.00016407495422754437
-0.00009303013939643279
0.00000782779898145236
0.00026184212765656412
-0.00013283130829222500
0.00000780691971158376
-0.00013252887583803385
0.00004040505518787541
0.00021182630734983832
-0.00006240493530640379
0.00000648686909698881
-0.00004372676994535141
0.00018085079500451684
0.00005449750824482180
0.00043736517545767128
0.00004761313175549731
0.00036331886076368392
-0.00017436842608731240
-0.00004020445339847356
-0.00001948089266079478
0.00020033611508551985
-0.00000964476839726558
-0.00000341858617503021
-0.00001887870530481450
-0.00015752209583297372
0.00044140755198895931
-0.00010655979713192210
0.00004217616879031993
0.00004787165016750805
-0.00023471286112908274
-0.00006538867455674335
-0.00005425748531706631
-0.00005221876563155092
-0.00010730472422437742
0.00013011520786676556
-0.00012163851351942867
-0.00001970075572899077
0.00031973951263353229
0.00009143850184045732
-0.00022022752091288567
0.00012619598419405520
0.00032758695306256413
0.00016459288599435240
0.00020720505563076586
0.00003974765786551870
-0.00008614490070613101
-0.00006735102215316147
-0.00005754290759796277
-0.00007654980436200276
0.00006385680899256840
0.00021140732860658318
0.00001808017259463668
0.00010493485751794651
-0.00006686754932161421
0.00000017707210986373
-0.00017870726878754795
-0.00013068114640191197
-0.00003932676190743223
-0.00002658057564985938
0.00001738231003400870
-0.00003463647590251640
0.00003740381362149492
0.00005192948083276860
0.00012590199185069650
-0.00015268834249582142
-0.00010423426283523440
-0.00000267041968982085
0.00016145661356858909
-0.00002392310489085503
0.00000232260686061636
0.00005494573997566477
0.00009247314301319420
0.00009479840809945017
0.00033758237259462476
-0.00000669812152409577
0.00004087327033630572
-0.00022632903710473329
0.00050998199731111526
0.00009690435399534181
0.00023850826255511492
-0.00009059350850293413
-0.00001403744954586728
-0.00015288182476069778
0.00053182215197011828
-0.00001459432223782642
0.00006071734242141247
-0.00001153240191342775
0.00009705140109872446
-0.00007955673208925873
0.00016823048645164818
0.00009801905252970755
0.00016148411668837070
-0.00010057134932139888
0.00038643428706564009
0.00004064420863869600
0.00008321627683471888
0.00035731721436604857
-0.00023280965979211032
0.00002017614860960748
-0.00011585975880734622
0.00000094902458158685
0.00009640264761401340
0.00005369274003896862
-0.00012816418893635273
0.00001529891778773163
0.00027419446269050241
-0.00008520529809175059
0.00016397537547163665
0.00020442433014977723
-0.00012416383833624423
-0.00005759328632848337
-0.00018254430324304849
-0.00003983456917922013
-0.00011343373626004905
0.00001364806394121843
-0.00005119299385114573
-0.00008924405847210437
-0.00010985286644427106
-0.00009662135562393814
-0.00000281324309980846
-0.00003142211789963767
-0.00007889739208621904
0.00009320481331087649
-0.00008430903835687786
-0.00008560546848457307
0.00019179585797246546
0.00019097058975603431
0.00009241329826181755
-0.00009944295743480325
0.00010994137846864760
-0.00013514296733774245
-0.00037255816278047860
-0.00027874438092112541
-0.00005582795711234212
-0.00019262627756688744
-0.00021398412354756147
-0.00041692156810313463
-0.00001020078798319446
-0.00030293213785625994
-0.00007155767525546253
0.00019503440125845373
-0.00010023495269706473
0.00004490449282457121
0.00006219320493983105
0.00034086941741406918
0.00010185897554038092
0.00003308217492303811
-0.00012675762991420925
0.00024701940128579736
-0.00019554396567400545
-0.00018812467169482261
-0.00005890536340302788
0.00001085804251488298
-0.00006605181260965765
0.00020056006906088442
0.00009804853470996022
0.00001310086190642323
-0.00016267751925624907
0.00002459014467603993
-0.00011754610750358552
-0.00010392356489319354
0.00050917785847559571
0.00015115144196897745
0.00000164023333582008
0.00007209638715721667
0.00003645953256636858
-0.00014741606719326228
0.00006968791421968490
0.00001104240800486878
0.00051626592176035047
0.00024756780476309359
0.00010458243195898831
0.00005056392183178105
-0.00015022167644929141
-0.00004344275293988176
0.00014518274110741913
0.00007612764602527022
0.00005907983359065838
-0.00007627787999808788
-0.00001216802047565579
-0.00003865594771923497
0.00005412186510511674
0.00004211148552712984
-0.00021369737805798650
0.00012814033834729344
0.00020815590687561780
0.00000432195975008653
0.00008899129170458764
0.00026807983522303402
0.00011380233627278358
-0.00002532104372221511
-0.00003329636092530564
-0.00019236041407566518
0.00015462181181646883
-0.00018588443344924599
0.00008417683420702815
-0.00020585389574989676
0.00019124033860862255
0.00000289309991785558
-0.00010151158494409174
0.00008062331471592188
0.00022119382629171014
0.00013460546324495226
-0.00009893764945445582
0.00040397039265371859
0.00005948137186351232
0.00001428281302651158
-0.00002933127871074248
-0.00022888612875249237
0.00022451170661952347
-0.00026891924790106714
0.00021028108312748373
-0.00017450746963731945
-0.00017925223801285028
0.00000384755003324244
-0.00015854678349569440
0.00012089763185940683
-0.00010641363041941077
0.00005927225356572308
-0.00028121657669544220
-0.00001658347900956869
0.00006704603583784774
-0.00002343320193176623
0.00005256168151390739
0.00008841809176374227
0.00008510211773682386
-0.00002933367613877635
0.00001297775907005416
-0.00021302417735569179
0.00033169306698255241
0.00032035398180596530
0.00021800777176395059
0.00009582915663486347
-0.00008493690984323621
-0.00019146295380778611
0.00007411381375277415
0.00003421854489715770
-0.00009482089808443561
0.00026233587414026260
0.00001338102720183088
-0.00012661695654969662
0.00015435458044521511
-0.00007796067802701145
-0.00014961995475459844
-0.00004471026477403939
0.00026743573835119605
0.00014209965593181551
-0.00010075132013298571
0.00009154443250736222
0.00000226850738727080
-0.00006736323121003807
-0.00032780351466499269
0.00007569720764877275
0.00008288970275316387
-0.00000976658702711575
-0.00002998337185999844
0.00033713286393322051
-0.00022751657525077462
-0.00003670988371595740
-0.00016337557462975383
0.00013212056364864111
0.00004776969944941811
-0.00003009167267009616
0.00027402883279137313
0.00001725910442473833
-0.00013903732178732753
0.00010875951556954533
-0.00002736082024057396
0.00000450850666311453
-0.00002338986632821616
0.00016624294221401215
-0.00002950862653960940
-0.00005690687976311892
0.00001480712671764195
-0.00023421844525728375
-0.00003014305002579931
-0.00002500842492736410
