-0.01430626772344112400
0.00365933566354215150
-0.01498991250991821300
-0.00094055838417261839
0.00659361807629466060
-0.00360835436731576920
0.00267571746371686460
0.01833423785865306900
-0.02530310116708278700
-0.04586993902921676600
-0.01264621783047914500
0.00232727755792438980
0.01212201081216335300
0.01013704575598239900
-0.01726910471916198700
-0.00682842032983899120
-0.00703160418197512630
0.01640780828893184700
0.03093876317143440200
0.02246573939919471700
-0.03307653218507766700
-0.04189997911453247100
-0.00880524981766939160
-0.01870850846171379100
0.01098085381090641000
-0.00022494859877042472
0.02273235656321048700
-0.00095721264369785786
-0.00904785469174385070
-0.00024174377904273570
-0.00258450652472674850
0.00183619116432964800
-0.00123532523866742850
-0.01288735400885343600
0.00038141012191772461
-0.02512035146355629000
-0.01146906521171331400
0.00835266429930925370
0.00418768124654889110
0.01071887835860252400
-0.00523816607892513280
-0.00983118079602718350
-0.00632724072784185410
-0.00317366723902523520
0.01959123276174068500
-0.00469298707321286200
-0.00479598715901374820
-0.01712015643715858500
-0.02110643498599529300
0.00052824377780780196
-0.00518649676814675330
-0.00544576486572623250
0.00830155331641435620
-0.00009053727990249172
0.01235154457390308400
-0.00274874293245375160
0.00898751709610223770
-0.00310947000980377200
0.00014488153101410717
0.00286851241253316400
-0.00484949303790926930
-0.00168929644860327240
0.02318540774285793300
0.00882907398045063020
-0.00465907389298081400
0.00343920430168509480
-0.00416433671489357950
0.00529790669679641720
0.01789643801748752600
-0.01520940754562616300
0.00448330352082848550
0.00996220670640468600
-0.00359172211028635500
0.01223645359277725200
0.00196964386850595470
-0.01828793063759803800
-0.02423419430851936300
-0.00401660753414034840
0.00222353101707994940
0.00583827681839466090
-0.00276132323779165740
-0.00895369704812765120
-0.00715429522097110750
-0.01926579140126705200
-0.00930729694664478300
-0.01084553357213735600
0.00299756973981857300
-0.00174618931487202640
-0.01578020863234996800
-0.00887054204940795900
-0.01362429838627576800
-0.00484248297289013860
0.00767296459525823590
0.00486476952210068700
0.00543637713417410850
-0.00124784244690090420
-0.00504728453233838080
0.00332796061411499980
0.00640951143577694890
0.01152442116290330900
0.00110836257226765160
0.01629863679409027100
0.00649889744818210600
-0.00363324279896914960
0.01674007065594196300
-0.01186095830053091000
0.00164422579109668730
0.00948496069759130480
0.00863278377801179890
0.01966366544365882900
0.00127036613412201400
-0.00248701055534183980
-0.01121860090643167500
0.00401192251592874530
-0.00564420316368341450
-0.00862726476043462750
0.00645787594839930530
-0.00538386823609471320
0.00171332922764122490
0.01896599866449832900
0.00718277134001255040
0.00063210644293576479
0.00561345554888248440
0.00435564480721950530
-0.01344757340848445900
-0.00146990024950355290
0.00910279434174299240
0.00544711947441101070
0.01099866908043623000
-0.01376628316938877100
-0.00347025087103247640
-0.00723730260506272320
-0.01792062073945999100
-0.00194446567911654710
-0.00298354984261095520
-0.00820626597851514820
-0.01564181782305240600
-0.03338865190744400000
-0.04002368822693824800
-0.01841707341372966800
-0.00380559079349040990
-0.02399329096078872700
-0.03030258975923061400
-0.02322390303015708900
-0.03532478213310241700
0.00969610735774040220
0.00724393595010042190
0.00130755547434091570
-0.00066448841243982315
-0.01158996950834989500
-0.01139535475522279700
-0.00138319167308509350
0.00830683577805757520
0.01982104964554309800
0.00035978507366962731
-0.01214567758142948200
-0.00538547942414879800
-0.00390692707151174550
-0.00670993980020284650
-0.00960068032145500180
0.02548428252339363100
-0.02816792018711566900
-0.01148250047117471700
-0.02432961016893386800
-0.01436507701873779300
0.00948998704552650450
-0.00188005226664245130
-0.01092700380831956900
0.00281589943915605550
-0.00443835044279694560
0.01246753521263599400
-0.00437693577259778980
0.00889442674815654750
0.00820886902511119840
0.02364772744476795200
0.01124370843172073400
0.01056581642478704500
0.00294913072139024730
-0.01344874314963817600
-0.00922028534114360810
-0.00708699040114879610
-0.00237648282200098040
0.01347272004932165100
0.00163604249246418480
-0.01133302506059408200
-0.01331489905714988700
-0.00012956195860169828
0.00753117538988590240
0.00484492443501949310
0.01500915363430976900
-0.00964585598558187480
0.00893494579941034320
-0.00636713486164808270
-0.00368008716031908990
-0.00328904273919761180
-0.01745256036520004300
0.00239353906363248830
-0.00082125299377366900
-0.00138779194094240670
-0.01091144792735576600
0.01703431084752082800
0.00171906210016459230
0.01036094222217798200
-0.00116467208135873080
-0.00112557190004736190
0.00350398523733019830
0.00393017474561929700
-0.01224465016275644300
-0.01443967036902904500
-0.00923921726644039150
-0.01569931954145431500
-0.00121820368804037570
-0.00901451613754034040
-0.00660132383927702900
-0.01138146501034498200
0.00677582481876015660
0.00221627624705433850
-0.00499408505856990810
0.00559338787570595740
-0.00843400321900844570
0.00364801054820418360
0.00401369901373982430
0.00474432250484824180
-0.00833579991012811660
0.00347498059272766110
-0.00476837903261184690
-0.01187713351100683200
-0.01240027323365211500
0.01045927032828331000
-0.00873512495309114460
0.00048043922288343310
-0.01703002117574214900
-0.00677177356556057930
-0.03267429396510124200
-0.01464509963989257800
-0.01267395820468664200
-0.01900486275553703300
-0.00971096288412809370
-0.01410180609673261600
0.01388506777584552800
0.00084713561227545142
-0.00679498119279742240
-0.02686881646513938900
-0.01834554970264434800
-0.02704963833093643200
0.00349793117493391040
0.00592725910246372220
0.00309105915948748590
-0.00932856369763612750
-0.02004780061542987800
0.01658807136118412000
0.02373758889734745000
-0.00124751206021755930
-0.00422914000228047370
0.01670065708458423600
-0.00226639024913311000
-0.00926829967647790910
0.00450428389012813570
-0.01494314987212419500
-0.01911128684878349300
0.00950334873050451280
0.00134737044572830200
-0.00412671640515327450
-0.00368256424553692340
0.00305072241462767120
0.01549012027680873900
-0.00991359725594520570
0.00509411701932549480
-0.00054430810268968344
-0.01845301687717437700
-0.01021765265613794300
0.00220728782005608080
-0.00272981380112469200
0.00404529226943850520
-0.00426399707794189450
-0.01391887385398149500
0.00258215912617743020
0.00290728523395955560
0.01541167404502630200
0.00937342178076505660
0.00927607715129852290
-0.01147869881242513700
-0.01102368440479040100
-0.01007461175322532700
0.01130389701575040800
0.03035420179367065400
0.00670128921046853070
-0.01276611723005771600
-0.00172267877496778960
-0.01589559204876422900
-0.00936724152415990830
0.00928635429590940480
-0.00454801274463534360
0.00299893738701939580
0.00904150493443012240
0.01005562487989664100
0.01401302497833967200
-0.01058262027800083200
0.01115717459470033600
0.01668235473334789300
0.00311245280317962170
-0.01726955361664295200
-0.00095339753897860646
-0.00127473473548889160
0.00871217995882034300
0.00136242655571550130
-0.00133256858680397270
-0.00700129475444555280
-0.00510356761515140530
-0.00060106470482423902
0.01258308812975883500
-0.01345394272357225400
-0.00233389483764767650
-0.00295778387226164340
-0.01877640560269355800
0.00464569730684161190
0.00617320602759718890
-0.00158607866615056990
0.00943680852651596070
-0.00376730761490762230
-0.00428852858021855350
-0.00462073460221290590
0.00768184475600719450
-0.00746001210063695910
0.00078734406270086765
-0.00435363687574863430
-0.00729788374155759810
0.00721932761371135710
-0.00725288596004247670
0.00176028616260737180
0.00829964876174926760
0.00095332536147907376
0.00648502353578805920
0.01140742469578981400
-0.00102966080885380510
-0.00229499931447207930
-0.01246660575270652800
0.01052118465304374700
-0.00128554040566086770
-0.00860616564750671390
0.00856951903551816940
-0.00319955707527697090
-0.00205662567168474200
-0.00695580895990133290
-0.00387429795227944850
-0.03115252219140529600
0.00429242011159658430
-0.00293649686500430110
-0.00658439844846725460
0.00215662666596472260
-0.01150908041745424300
-0.00821517873555421830
0.01038011908531189000
0.00727464444935321810
-0.00971106905490159990
-0.02012840285897254900
-0.00718778744339942930
0.00076885812450200319
0.00541716301813721660
0.00045436059008352458
-0.00905424915254116060
0.00358186103403568270
-0.00896051619201898570
-0.00944374967366456990
-0.01142326835542917300
-0.01112583465874195100
-0.00209916406311094760
-0.00560651673004031180
0.00230520311743021010
-0.00240169162862002850
-0.00459954049438238140
-0.00514300446957349780
0.01171565707772970200
0.00746152922511100770
0.00424659764394164090
-0.01493205875158309900
-0.02107604220509529100
-0.01648502610623836500
0.03047873266041278800
0.01290475204586982700
-0.00236286362633109090
-0.01946644857525825500
-0.01493590045720338800
0.00118439598008990290
0.02185746654868125900
-0.01545672677457332600
0.00037430331576615572
-0.00175985007081180810
-0.02727790921926498400
-0.00755923753604292870
-0.00870885979384183880
0.01893247663974762000
0.00562941562384366990
0.01339192315936088600
-0.00777117535471916200
-0.01303382497280836100
-0.01118595618754625300
0.01040988042950630200
0.02144449576735496500
0.00080946908565238118
0.00482840929180383680
-0.00633098511025309560
0.00003171600474161096
0.01196116302162408800
0.00053286639740690589
-0.00800917297601699830
-0.01062246598303318000
-0.00477036554366350170
-0.00384186697192490100
-0.01074905879795551300
0.00412946427240967750
0.00798939075320959090
-0.00576211418956518170
-0.00615322776138782500
-0.02502039447426796000
-0.00223920238204300400
-0.01565594784915447200
-0.00954747106879949570
0.00017757865134626627
0.00766400760039687160
0.02068880572915077200
-0.00084159342804923654
-0.00290075154043734070
0.00749664567410945890
0.00328149483539164070
0.00411968072876334190
0.00826921686530113220
-0.01356020849198103000
0.00458447448909282680
0.00526800518855452540
-0.00873650331050157550
-0.00629999721422791480
0.00629212195053696630
-0.01358374860137701000
-0.01205325219780206700
0.00578221073374152180
0.02359725907444953900
0.00556534109637141230
0.00236977776512503620
-0.01642857491970062300
0.01896719634532928500
0.00545945158228278160
0.01161749009042978300
0.00074202084215357900
0.01288301404565572700
0.00037513763527385890
-0.00803508143872022630
0.00269720470532774930
0.00250216107815504070
0.01730425469577312500
-0.00283098220825195310
-0.00506428396329283710
-0.01212914567440748200
-0.00495948875322937970
0.00447933003306388850
0.02118747122585773500
-0.00854988954961299900
0.02618198283016681700
0.01790723204612731900
-0.00376291573047637940
-0.00614063860848546030
-0.00959914363920688630
0.01103200484067201600
-0.00179141922853887080
0.00401424337178468700
0.00765481824055314060
0.00210616202093660830
-0.00041885278187692165
-0.00589996809139847760
-0.00672613084316253660
-0.00422093225643038750
0.00447574490681290630
-0.00549738993868231770
0.00657532317563891410
0.00137456378433853390
0.00346074090339243410
-0.00224899337626993660
-0.00158209516666829590
0.03668038547039032000
0.00867622997611761090
-0.01142684742808342000
0.01581325754523277300
-0.00411959225311875340
-0.01410167757421731900
0.02262706123292446100
0.01815410703420639000
0.00654724612832069400
-0.00096526794368401170
-0.00747134909033775330
-0.03243013843894004800
0.00684119993820786480
-0.00694026937708258630
0.01382213830947876000
0.01114866975694894800
0.01738939248025417300
0.01278762426227331200
-0.00070736085763201118
-0.00111891666892915960
0.02027055434882640800
0.00546521646901965140
0.00469150394201278690
-0.01917718164622783700
-0.02255208976566791500
-0.00897540058940649030
0.00004951222581439652
-0.03211987391114234900
-0.02962312288582325000
0.02463724277913570400
0.01243354193866252900
-0.01387306675314903300
-0.00596751226112246510
0.03162983804941177400
0.01244391966611146900
0.00109619915019720790
-0.01508598960936069500
0.04219333454966545100
0.03105141967535018900
-0.01268714945763349500
-0.01869110763072967500
-0.01412422955036163300
0.00580875901505351070
-0.03854275494813919100
-0.01496484875679016100
0.01588080264627933500
-0.00892744958400726320
0.00541928503662347790
0.02219191193580627400
-0.01673755608499050100
-0.00659186206758022310
-0.02101783826947212200
0.00619049603119492530
0.00275578931905329230
-0.03102911636233329800
0.01391201000660657900
-0.01279559545218944500
-0.01045274455100297900
-0.01335041690617799800
-0.02009266987442970300
0.02263473160564899400
0.02962838672101497700
-0.01953448913991451300
-0.02442496083676815000
-0.00939089525490999220
-0.01147626712918281600
-0.00834312196820974350
-0.01945665292441844900
0.00275081465952098370
0.01470476854592561700
-0.01560456678271293600
-0.00005843168401042931
0.00620696879923343660
0.00401754956692457200
0.00731781125068664550
0.01357003767043352100
0.01063105091452598600
-0.00961775798350572590
0.01272765081375837300
0.01141128782182931900
-0.00109572813380509610
0.00380133418366312980
0.01259069982916116700
0.01416880730539560300
0.00573598267510533330
0.00343700358644127850
0.00045841914834454656
0.01456459145992994300
0.00469281896948814390
-0.00239259190857410430
-0.00665796268731355670
0.00336157577112317090
0.00685473810881376270
-0.00386912398971617220
0.02727605588734149900
-0.00030906553729437292
-0.00595109630376100540
-0.00759769603610038760
-0.00387502415105700490
-0.01315722428262233700
0.00323294335976243020
0.01399934664368629500
0.00202382472343742850
0.00096791557734832168
0.01108370628207922000
-0.01415942143648862800
0.00192602549213916060
-0.00556521164253354070
0.01096710376441478700
0.00161802407819777730
0.00007172290497692302
0.00449435459449887280
0.01039231196045875500
0.02435190044343471500
-0.00131121929734945300
-0.02202702499926090200
-0.00112393964082002640
0.02809948101639747600
0.01482144184410572100
-0.02531795389950275400
-0.01541170850396156300
-0.01623914763331413300
-0.00613362155854702000
-0.01058251969516277300
0.00365655799396336080
-0.01142044086009264000
-0.01117520499974489200
-0.00155133323278278110
0.00084253400564193726
-0.01477174274623394000
-0.00037136382889002562
0.00253029633313417430
-0.02229380421340465500
0.00121174822561442850
0.01076689269393682500
0.00061521085444837809
-0.01927672699093818700
-0.00732642970979213710
0.00520186917856335640
0.01521533448249101600
0.00189392664469778540
0.00051697919843718410
0.01613996550440788300
-0.01238014269620180100
-0.00916814617812633510
0.01458736788481473900
0.01595001854002475700
-0.00184763956349343060
0.00630548736080527310
-0.01006976235657930400
0.00434349244460463520
-0.01174302771687507600
0.00096571428002789617
0.00173421530053019520
-0.00570360338315367700
-0.02110089175403118100
0.00103399832732975480
-0.00884338933974504470
-0.02638792060315609000
-0.02204500325024128000
-0.00222450774163007740
-0.00842703413218259810
-0.03199129179120063800
-0.00955396424978971480
-0.00375883001834154130
-0.00006343243876472116
-0.00946721993386745450
-0.00920753739774227140
0.01305487100034952200
0.02006316184997558600
-0.00495845405384898190
0.00003255741467000917
-0.02774616703391075100
-0.00890764873474836350
0.00184702023398131130
-0.01050476729869842500
-0.01599518582224845900
-0.00504543026909232140
0.00130445882678031920
-0.00520019326359033580
-0.00797126814723014830
-0.01356532890349626500
-0.01392900478094816200
-0.01710648462176322900
-0.01937709003686904900
-0.00663176085799932480
0.01802628301084041600
-0.01785527728497982000
-0.01287005282938480400
-0.01340896915644407300
0.01341138500720262500
-0.01369679253548383700
-0.00829031877219676970
-0.01122972182929515800
0.01062114723026752500
-0.00233262148685753350
-0.01029639784246683100
0.02127342484891414600
-0.00757613033056259160
-0.00698474003002047540
0.02078476175665855400
-0.01404306665062904400
-0.00234021805226802830
-0.01660567894577980000
-0.00119046005420386790
0.00109196326229721310
0.00699322437867522240
-0.00964209996163845060
-0.00512119755148887630
-0.00239170412532985210
-0.02901119552552700000
-0.01646745577454567000
-0.00818846561014652250
-0.01296652201563119900
-0.01409931387752294500
-0.02354237996041774700
-0.00605641072615981100
-0.01402144134044647200
-0.01322598569095134700
-0.01510146632790565500
-0.00576129369437694550
-0.00376240466721355920
0.01195421721786260600
-0.00875029247254133220
0.01828233152627944900
-0.00249862484633922580
-0.01232259254902601200
-0.00510853901505470280
0.00617428822442889210
0.00842622853815555570
0.00184311100747436290
0.00232420582324266430
0.00168835849035531280
-0.01800710894167423200
-0.00866567716002464290
-0.01441515050828456900
-0.00024182598281186074
0.00520483357831835750
0.00698879081755876540
0.02502576448023319200
0.00365872215479612350
-0.02121724933385849000
0.01626738719642162300
0.01440249849110841800
-0.00342739885672926900
0.00079107563942670822
0.00563935190439224240
-0.00363073917105793950
0.00339198787696659560
0.00296723004430532460
0.00497673638164997100
0.00324476044625043870
-0.00953153055161237720
0.02094499021768569900
0.00647999765351414680
0.00358006451278924940
-0.01550461631268262900
-0.00657514762133359910
0.00512598501518368720
-0.00949659012258052830
-0.00231872894801199440
0.00198322464711964130
-0.00176993547938764100
-0.02559732459485530900
-0.01443662587553262700
-0.00326285557821393010
-0.01061165984719991700
0.00306878727860748770
0.01391916815191507300
0.00674849888309836390
0.00978952087461948390
0.00509457010775804520
-0.00351381720975041390
0.00072161620482802391
0.01277478970587253600
0.00964542105793952940
0.01280625723302364300
-0.00942070875316858290
0.00079577561700716615
0.01470862329006195100
-0.00018087968055624515
-0.01350327115505933800
0.01735159195959568000
0.00836641713976860050
0.02078861556947231300
-0.01560380496084690100
-0.00131663051433861260
0.01467736903578043000
0.01040796283632516900
-0.00823468808084726330
-0.00585086038336157800
0.00325839291326701640
-0.02297030016779899600
-0.01315585523843765300
0.00967399869114160540
0.01836244948208332100
0.00815989170223474500
-0.00004721613004221581
0.00722315674647688870
-0.00665108766406774520
0.00219207769259810450
0.01694650016725063300
-0.00052796769887208939
-0.00458460859954357150
-0.01258805766701698300
0.00316191045567393300
0.01697799190878868100
0.00924517121165990830
-0.00825938954949378970
-0.00073662737850099802
-0.01012295763939619100
0.01322235539555549600
-0.00402411771938204770
-0.00209660106338560580
0.02446720190346241000
0.00839468557387590410
0.00440655648708343510
-0.00982934795320034030
0.00206126016564667220
0.00053215649677440524
-0.01848165318369865400
-0.00641949987038969990
0.00065711903152987361
0.00765439542010426520
-0.00881195627152919770
0.01148099731653928800
0.02016178146004676800
-0.00346262566745281220
0.00116107135545462370
0.00088609731756150723
0.01338111981749534600
0.01323045603930950200
-0.00289915967732667920
-0.00681599928066134450
0.01052636932581663100
0.01667491719126701400
0.01360707264393568000
0.01177702378481626500
0.00524889118969440460
0.01987380161881446800
0.00175908592063933610
-0.00766537245362997060
0.01022313348948955500
-0.00352682545781135560
-0.00477459002286195760
-0.01379467733204364800
-0.00789527595043182370
-0.00224913377314805980
0.00140033580828458070
-0.00428012153133749960
-0.00151434552390128370
-0.00253883632831275460
0.00257155229337513450
0.00901063345372676850
0.00121269584633409980
-0.00369346514344215390
0.00549227232113480570
-0.00761743634939193730
-0.02663403004407882700
-0.03423271328210830700
-0.02101338282227516200
-0.00101325241848826410
-0.01938820630311965900
-0.01564176194369792900
-0.00835425872355699540
-0.01114517357200384100
-0.00282114534638822080
-0.00481289112940430640
0.00350054539740085600
0.02151257358491420700
0.00238494016230106350
0.00360547285526990890
-0.00917137321084737780
-0.00148664903827011590
-0.00023280610912479460
-0.01730556413531303400
-0.00322018587030470370
0.00475735403597354890
-0.00540538318455219270
0.00383885996416211130
0.00809127278625965120
0.01260075438767671600
0.00342443399131298070
-0.02687522955238819100
-0.00770914508029818530
0.01120542455464601500
0.00354383303783833980
-0.00213175103999674320
0.00345406797714531420
0.01349760498851537700
0.00487504061311483380
-0.00736795319244265560
-0.00440112268552184100
0.00270548998378217220
0.01072895247489213900
0.00216846936382353310
0.00174510141368955370
0.00328964390791952610
-0.00019505151431076229
0.00339820492081344130
0.00228321133181452750
-0.00795606523752212520
0.00244578998535871510
0.01641827821731567400
-0.00359502271749079230
0.02029876410961151100
0.02392957918345928200
-0.01125445496290922200
-0.00263913138769567010
0.01215673331171274200
0.02030197344720363600
0.01198674645274877500
0.00222879438661038880
0.03299053758382797200
0.04238484427332878100
0.01788007654249668100
0.00338124297559261320
0.00490956148132681850
0.01748799718916416200
0.00247687660157680510
-0.01478795986622571900
-0.02288065664470195800
-0.01874759607017040300
0.00765528809279203410
-0.00573382107540965080
0.01968878507614135700
-0.02219407446682453200
0.00351048028096556660
0.00262634921818971630
-0.00714516965672373770
-0.00247912062332034110
-0.01247009355574846300
0.00899337325245141980
-0.00225871591828763480
-0.02267012186348438300
-0.03028054162859916700
-0.00598252890631556510
0.00489709898829460140
-0.00587124982848763470
-0.00118557189125567670
0.00593634787946939470
-0.01454235613346099900
0.00770548544824123380
-0.01016887370496988300
0.00707085803151130680
-0.00394879886880517010
-0.00366922421380877490
-0.01775937713682651500
0.01410713978111743900
0.00297535583376884460
0.01723202131688594800
0.01019544806331396100
0.00139986176509410140
-0.01675556600093841600
-0.01969315297901630400
-0.00879404414445161820
-0.00537679856643080710
0.00318964873440563680
-0.02508990839123725900
0.00019683627760969102
0.00417223526164889340
-0.00442343158647418020
0.00490413000807166100
-0.00854174233973026280
-0.00352776958607137200
0.02399061433970928200
0.00898108258843421940
0.00025001916219480336
-0.00014169220230542123
-0.00064110767561942339
0.00379139999859035020
0.00465844478458166120
-0.01078560855239629700
-0.00994705967605113980
0.00949328020215034480
0.02614100091159343700
0.00111417728476226330
-0.01263326033949852000
0.00845643784850835800
0.00877146050333976750
0.00648412480950355530
0.00519510265439748760
0.00879221875220537190
0.00829078443348407750
-0.00626701908186078070
-0.02073303237557411200
-0.00791443884372711180
-0.01975908875465393100
-0.01288595609366893800
-0.01780796237289905500
-0.01162389665842056300
-0.00466855010017752650
-0.02326745912432670600
0.00110167823731899260
0.01783132739365100900
0.00078852073056623340
0.01004228647798299800
-0.01994949020445346800
-0.01204424723982811000
-0.01876367628574371300
-0.00946898572146892550
-0.02349202893674373600
-0.01964128017425537100
-0.01723087579011917100
-0.01761503703892231000
-0.03524632379412651100
-0.00587381515651941300
0.00719494372606277470
0.00042401286191307008
-0.01536187529563903800
-0.00526833068579435350
-0.00954038277268409730
-0.00851058494299650190
-0.03120668418705463400
-0.02409663051366806000
0.00345532828941941260
-0.01141317375004291500
-0.03013921901583671600
0.00889958534389734270
0.00224223337136209010
0.00401934888213872910
0.00060124607989564538
-0.02257497236132621800
0.00560737028717994690
0.00982583872973918910
-0.02058451250195503200
-0.02644637227058410600
-0.03293602913618087800
0.02374257892370224000
-0.00328342523425817490
-0.03103039227426052100
0.00086375535465776920
0.02514420263469219200
0.02817475050687789900
-0.03068484179675579100
-0.02343202196061611200
-0.01495267823338508600
0.04317208006978035000
-0.00037414074176922441
-0.04067860543727874800
-0.01238514762371778500
-0.00958858709782361980
0.03551789000630378700
-0.02896150760352611500
-0.00976164732128381730
-0.00513760279864072800
-0.01336580235511064500
-0.00968007929623126980
-0.01080811023712158200
0.00291575025767087940
0.00711108744144439700
0.00044145219726487994
-0.00932889990508556370
-0.00609343172982335090
0.01001968700438737900
0.00266224774532020090
-0.01415627077221870400
-0.00643398705869913100
0.03007949143648147600
0.04931847006082534800
0.01345263421535491900
0.00740391854196786880
-0.01409481652081012700
0.01043932233005762100
0.00110706314444541930
0.00201611290685832500
0.00482492614537477490
0.01225496362894773500
0.01074712071567773800
-0.00726604741066694260
-0.00921083893626928330
0.00938147213310003280
0.00116554112173616890
0.00445829518139362340
0.00330393854528665540
-0.00282917846925556660
-0.01618731953203678100
0.00402304390445351600
0.01050077285617590000
-0.02149411290884017900
-0.01635103859007358600
-0.00985280424356460570
0.02210420183837413800
0.00682961056008934970
-0.00191554846242070200
-0.01038469001650810200
-0.02062608487904071800
0.01922392286360263800
-0.00988029129803180690
0.01713750697672367100
0.02327202260494232200
-0.00265584094449877740
0.01068281754851341200
0.01546354684978723500
-0.00821260549128055570
-0.00013743454474024475
0.00181773176882416010
0.00657574879005551340
0.00697312736883759500
0.00734488200396299360
-0.00073483353480696678
-0.01428244542330503500
-0.00047104904660955071
-0.02241815999150276200
-0.00303601543419063090
0.00357281439937651160
-0.01273450348526239400
-0.00324841565452516080
0.02651740051805973100
-0.00269332947209477420
-0.01890533603727817500
-0.01310824975371360800
0.01471639517694711700
0.00795906875282526020
-0.01715965196490287800
-0.02409967593848705300
-0.01006923336535692200
0.01131971925497055100
-0.00449553830549120900
-0.00714753475040197370
-0.01334645226597785900
-0.00184495106805115940
-0.01615568064153194400
0.00058110494865104556
0.01589493639767170000
-0.00383765390142798420
-0.00387257686816155910
0.01160837616771459600
-0.00130363460630178450
0.02006412483751773800
0.00857124757021665570
-0.00743265450000762940
0.01003032550215721100
0.03211726993322372400
0.01849485561251640300
0.00200269185006618500
-0.00749545637518167500
0.01557117700576782200
0.00870876386761665340
0.02267982810735702500
0.00603131717070937160
0.00432321848347783090
0.01067700050771236400
-0.02134039998054504400
-0.00970514956861734390
0.00740270595997571950
0.01836924254894256600
0.00402754312381148340
-0.00553596904501318930
-0.01189049519598484000
0.00292582157999277110
0.00197137938812375070
-0.00158244429621845480
0.00950189959257841110
-0.02765151299536228200
-0.00871948432177305220
-0.00359184201806783680
-0.01870633661746978800
-0.01247419230639934500
-0.01096338871866464600
0.00611532898619771000
0.00384293706156313420
-0.00681234523653984070
-0.00966389477252960210
-0.00029493169859051704
0.00167929427698254590
-0.00990228727459907530
-0.03473276644945144700
-0.01965969428420066800
-0.01158777251839637800
-0.00744113326072692870
0.00969581957906484600
0.00572471972554922100
-0.00193506630603224040
-0.01020690705627203000
0.01726354472339153300
0.02717665582895278900
0.00512881437316536900
0.00179560051765292880
-0.01609741896390914900
0.01292861066758632700
0.00402070395648479460
0.01721616834402084400
-0.00962366536259651180
0.00233137444593012330
-0.00444243755191564560
0.01332888286560773800
-0.00450553651899099350
-0.00647085905075073240
0.00095890456577762961
0.01520692277699708900
0.00066860223887488246
-0.01666413247585296600
-0.00911762751638889310
-0.01525536552071571400
0.00398551998659968380
0.00205419259145855900
-0.01628700084984302500
-0.02328488603234291100
-0.00031443178886547685
0.01261430326849222200
0.00176199199631810190
-0.01410220190882682800
-0.02217358350753784200
0.01263167057186365100
0.00245891534723341460
-0.00733776250854134560
0.01100374571979045900
-0.01474908739328384400
0.00235332665033638480
0.00479978136718273160
0.00842352211475372310
-0.00894011557102203370
0.00614974321797490120
0.02740494720637798300
-0.01923493295907974200
0.00437666242942214010
-0.00227659638039767740
-0.00322718755342066290
-0.00584684778004884720
-0.00287089543417096140
0.01560741476714611100
-0.00714468955993652340
0.00406787078827619550
-0.00276279146783053870
0.01888293027877807600
0.00387828121893107890
-0.00136638735421001910
0.00598732428625226020
0.00281333923339843750
0.01055047381669282900
-0.00472200755029916760
-0.01166883204132318500
0.00242914562113583090
0.01599014177918434100
-0.01027663983404636400
-0.00372915342450141910
0.00900392141193151470
-0.01797042414546012900
0.00816896650940179820
0.00578631879761815070
0.00060918839881196618
-0.00987087562680244450
-0.00060090556507930160
0.00022410578094422817
0.00505902292206883430
0.00492979725822806360
-0.00524617638438940050
0.01703225634992122700
-0.00459926994517445560
-0.00838512647897005080
0.00198666797950863840
0.00996390264481306080
0.00571692641824483870
0.00068788527278229594
-0.00651943683624267580
0.01699451543390750900
-0.01046708226203918500
-0.00117079447954893110
-0.01393394172191619900
0.00003892555469064973
0.01996621116995811500
0.00231048697605729100
-0.01614444889128208200
-0.00014714253484271467
0.01321828458458185200
-0.00738622061908245090
-0.01318369992077350600
-0.02149689570069313000
-0.00217800308018922810
-0.01245283428579568900
-0.01379244308918714500
0.00158209248911589380
-0.00430660927668213840
-0.00501036085188388820
-0.02004986815154552500
-0.02004875242710113500
0.00191232294309884310
0.03092344291508197800
0.00146095722448080780
-0.00112949439790099860
-0.01031768042594194400
0.03238809481263160700
0.01778861880302429200
0.01198148634284734700
0.00553513085469603540
-0.00111559149809181690
0.02808455750346183800
0.01006754860281944300
0.00911262072622776030
0.01912662386894226100
0.01813404075801372500
-0.00157592352479696270
-0.00492317602038383480
0.00969539955258369450
0.00578793231397867200
0.00764820910990238190
-0.00436504185199737550
0.00155959546100348230
0.00361947994679212570
-0.00314658042043447490
-0.00357649940997362140
-0.01676485687494278000
-0.01848888210952282000
-0.02316830307245254500
-0.01099748536944389300
-0.00108677847310900690
-0.02307025529444217700
0.01183282025158405300
0.00256579625420272350
-0.02362820319831371300
-0.01463016215711832000
-0.00911936163902282710
-0.01940690912306308700
-0.00895387399941682820
0.00648421188816428180
-0.00577588519081473350
-0.00516726961359381680
-0.01618313975632190700
-0.01104978844523429900
-0.01006193459033966100
0.00413336372002959250
-0.00420235982164740560
0.00981013663113117220
0.00737885246053338050
0.00073637982131913304
-0.01422641985118389100
-0.00883031915873289110
-0.01234374381601810500
-0.00404262216761708260
0.00009461515583097935
-0.00737209478393197060
-0.01061184518039226500
0.00421108631417155270
0.00744794495403766630
-0.02185879275202751200
-0.00137755693867802620
-0.00136913673486560580
-0.00038915395271033049
0.00149725459050387140
-0.01296022254973650000
-0.01524699013680219700
0.00464530568569898610
-0.00043657663627527654
-0.01139880623668432200
0.00682876538485288620
-0.01385525800287723500
-0.01080359518527984600
-0.03194723278284072900
0.00549525348469614980
-0.00414955709129571910
-0.00113178428728133440
0.01055642589926719700
-0.00454876106232404710
0.00052631454309448600
-0.00629150867462158200
-0.00596845243126153950
0.00352052762173116210
-0.01957925967872142800
-0.00002930158552771900
0.01011885516345500900
-0.01350732985883951200
0.00361075950786471370
0.00430048489943146710
-0.00768761616200208660
-0.01527689676731824900
0.00399759365245699880
0.00462201377376914020
0.00706306425854563710
0.00809453148394823070
-0.01747651025652885400
0.00281857373192906380
-0.00563615420833230020
-0.00438616285100579260
-0.01589116267859935800
0.01089766994118690500
-0.00121718843001872300
0.01226915325969457600
0.01667792350053787200
-0.01102393306791782400
0.00840756017714738850
-0.00054162548622116446
0.01289605908095836600
0.00733146863058209420
0.01168920937925577200
-0.00326886237598955630
-0.00268534314818680290
0.00221543456427752970
0.02989475429058075000
0.01651437580585479700
0.02290839515626430500
0.00290025211870670320
0.00227891374379396440
0.00953448005020618440
-0.00668161408975720410
0.01072320714592933700
0.00063016678905114532
-0.01152072846889495800
0.01000711135566234600
-0.02055625803768634800
-0.02415967732667923000
-0.01571842096745967900
-0.00910845585167407990
-0.01459484174847602800
-0.00655248248949646950
-0.00926399417221546170
-0.01025952678173780400
-0.00132227037101984020
-0.02077085897326469400
-0.00224579195491969590
-0.02341677062213420900
-0.01315874233841896100
-0.00141288491431623700
0.00129965960513800380
0.00789216067641973500
-0.00596201745793223380
0.00134112418163567780
0.01061496790498495100
-0.00441085500642657280
-0.01907778345048427600
-0.00006591995770577341
-0.00335659808479249480
0.01316311303526163100
0.01311631500720977800
-0.00205273483879864220
-0.00360898487269878390
0.00691019743680953980
-0.00423913262784481050
-0.00012805110600311309
-0.00929908361285924910
-0.00030604083440266550
0.01178085617721080800
0.00978059135377407070
0.01191432960331440000
-0.01423538010567426700
0.00267237029038369660
-0.00696895644068717960
0.00404634000733494760
-0.00135056651197373870
0.01233635749667882900
0.01385618466883897800
0.00577207095921039580
-0.01358404103666544000
-0.00733473338186740880
-0.02119083330035209700
-0.00623299973085522650
-0.01697090268135070800
0.00981346145272254940
0.01098291669040918400
0.00608851620927453040
-0.00306247547268867490
-0.00320444186218082900
0.01173140387982130100
0.01634437032043933900
-0.00518157007172703740
0.00028177938656881452
-0.01064081862568855300
-0.00212817452847957610
0.00777931511402130130
0.01020610332489013700
-0.01315137278288602800
0.00465066730976104740
-0.00819161441177129750
-0.00342375785112380980
0.00675819348543882370
-0.00051304069347679615
-0.00393466465175151820
0.00773419579491019250
0.01423219218850135800
-0.01514423079788684800
-0.02172135561704635600
-0.00969525892287492750
-0.01341362949460744900
-0.00892053730785846710
-0.00245064892806112770
-0.02488081157207489000
0.00848126038908958440
-0.00901034008711576460
0.01157490350306034100
-0.01592156291007995600
-0.01217730250209569900
-0.02298670075833797500
-0.00936903711408376690
-0.01096030790358781800
-0.02113164030015468600
-0.01301786582916975000
0.01342447102069854700
0.00134114606771618130
0.00159863044973462820
-0.01455143466591835000
0.00894206296652555470
-0.02119930274784565000
-0.00941253546625375750
-0.00432623410597443580
-0.00720320129767060280
-0.00206849165260791780
-0.00291241263039410110
0.00412287982180714610
0.01268209330737590800
0.00601278897374868390
-0.00194926687981933360
-0.01083212345838546800
-0.00002575899816292804
0.01399145089089870500
0.00617409357801079750
-0.00265720277093350890
0.00045325740939006209
0.03394172713160514800
-0.00567963160574436190
0.01398146152496337900
0.01209355425089597700
-0.00436347816139459610
0.00424825819209218030
-0.01132877822965383500
0.00354273733682930470
0.01085261814296245600
-0.01790677383542060900
0.01386973075568676000
0.00534106232225894930
-0.02065499871969223000
-0.00920545402914285660
0.00522079830989241600
0.01341338735073804900
0.00149933586362749340
-0.00244968733750283720
-0.01576575823128223400
-0.01329251844435930300
0.00160169205628335480
-0.02536975033581256900
0.01043649204075336500
-0.01578693650662899000
-0.01441686972975730900
-0.01972177624702453600
-0.00019451034313533455
-0.00651455344632267950
-0.02858987823128700300
0.00538461515679955480
-0.03862227126955986000
0.02316396869719028500
0.00964945740997791290
-0.04307204484939575200
0.04055005684494972200
-0.01116155087947845500
0.01301508024334907500
-0.05516500025987625100
-0.00290120020508766170
0.03598111867904663100
-0.01578408852219581600
0.00146635842975229020
-0.00253739883191883560
-0.00363430357538163660
0.01080007851123809800
0.01198551245033741000
-0.00616804044693708420
-0.01296179089695215200
0.00846839975565671920
-0.00912724155932664870
0.02210154943168163300
0.01665397360920906100
0.00222766702063381670
0.01508373674005270000
-0.01374673563987016700
0.00468462426215410230
0.01353733520954847300
0.01794949173927307100
0.02291153557598590900
-0.00544048938900232320
-0.01240395940840244300
0.01035661157220602000
0.03474127873778343200
-0.01198214478790760000
-0.00361835863441228870
0.02631421200931072200
-0.00622140150517225270
0.00976360216736793520
0.00532510969787836070
0.01205612719058990500
0.00841798260807991030
-0.02624236233532428700
0.00006213720189407468
-0.00098564324434846640
0.00439347745850682260
0.01119231898337602600
0.02189462631940841700
0.01226404868066310900
-0.00339887407608330250
-0.00287037366069853310
0.02273097261786460900
0.01553515251725912100
-0.02495417371392250100
0.01409120298922061900
0.01285966485738754300
0.00124331424012780190
-0.00318533368408679960
-0.00051419337978586555
-0.00038521212991327047
-0.01507296040654182400
-0.00223502423614263530
-0.00221320404671132560
-0.00268829194828867910
-0.01974773406982421900
-0.00748520717024803160
-0.01417644880712032300
0.01266437396407127400
-0.00481840828433632850
0.01171021349728107500
-0.00180486950557678940
0.00856183096766471860
-0.02453249134123325300
0.01677687466144561800
0.01606805622577667200
-0.02937671542167663600
-0.01097123604267835600
-0.00296157388947904110
0.01203320827335119200
-0.01955642364919185600
0.00221750023774802680
-0.00363261322490870950
0.00963063165545463560
-0.00518737407401204110
-0.02683475241065025300
0.00715281115844845770
-0.00887169130146503450
-0.00858446303755044940
-0.00180454808287322520
0.00378622510470449920
0.00298284157179296020
0.01519619673490524300
0.01307179313153028500
0.00510255666449666020
0.00537750823423266410
-0.00955078005790710450
0.00489700399339199070
0.01482125464826822300
0.03116838075220584900
0.01243086438626050900
-0.01116232946515083300
-0.02035187929868698100
0.01131028961390256900
0.02756575495004653900
-0.01047782879322767300
-0.00753452070057392120
-0.02084477804601192500
0.01539709512144327200
0.00617261417210102080
0.00951053574681282040
-0.00188280001748353240
0.00751468585804104800
-0.01029365416616201400
-0.00558533519506454470
-0.00357858370989561080
0.00987324770539999010
-0.01812057383358478500
0.00185926840640604500
-0.01446394622325897200
-0.02070559188723564100
-0.00864005368202924730
-0.00153827737085521220
-0.01828117296099662800
-0.00890523940324783330
-0.00067113939439877868
-0.00239431904628872870
-0.00149972049985080960
-0.03463782370090484600
0.00226019532419741150
0.00876733381301164630
0.00161165266763418910
-0.01789238117635250100
-0.01670791767537593800
0.01214148756116628600
0.01068022008985281000
-0.01940985582768917100
-0.01338711846619844400
-0.01878379844129085500
0.00370600097812712190
0.00275576906278729440
0.00369610008783638480
-0.00700788944959640500
0.02304572053253650700
0.00857523642480373380
-0.00173968041781336070
0.00241452339105308060
-0.01405954547226429000
0.01299305353313684500
0.01216692384332418400
0.01830686815083026900
0.00166184990666806700
-0.00923223607242107390
0.01911218278110027300
-0.00209979061037302020
0.00349822267889976500
0.00166783726308494810
0.00065505673410370946
0.00689593795686960220
0.00686681410297751430
0.01248890161514282200
0.00091007811715826392
-0.01135089248418808000
0.01001778431236743900
0.00581411225721240040
-0.00374463689513504510
0.00346742197871208190
-0.00077919062459841371
-0.01146328728646040000
-0.00064136338187381625
0.01658370159566402400
0.02424537017941474900
0.00895232986658811570
-0.00923403445631265640
-0.00359646230936050420
-0.00262490590102970600
-0.01202454138547182100
-0.00929151382297277450
-0.01083027943968772900
0.01265827938914299000
-0.00856211781501770020
-0.00170011457521468400
0.00394776603206992150
0.00308004603721201420
0.01579373143613338500
0.00677057262510061260
0.01012182142585516000
-0.00215525086969137190
-0.00039066237513907254
0.01553202234208583800
-0.02250814065337181100
-0.00599865103140473370
0.02384299226105213200
-0.00312911812216043470
-0.00612903991714119910
-0.00958367250859737400
0.00463621411472558980
-0.01905331946909427600
-0.00551208574324846270
0.00586062762886285780
0.00150544615462422370
0.00344116403721272950
0.00098594825249165297
0.00807530805468559270
-0.01161724328994751000
0.00275827059522271160
-0.01622414030134677900
0.00705799227580428120
-0.00194153282791376110
0.00868523959070444110
-0.00562292803078889850
0.00133271038066595790
0.01147406361997127500
-0.02094497904181480400
-0.01959009282290935500
-0.02079703472554683700
0.00530292326584458350
0.00302818883210420610
-0.01620208844542503400
0.01107017323374748200
-0.00364640564657747750
-0.01506045460700988800
-0.01325064618140459100
-0.01383768953382968900
0.00858750008046627040
-0.01115682814270257900
-0.00452091218903660770
-0.00694551272317767140
-0.01085841562598943700
-0.00914739631116390230
0.01002127863466739700
0.00806920416653156280
0.00514763500541448590
-0.01567798852920532200
-0.01086677797138690900
0.01535954046994447700
-0.01221486739814281500
-0.00511473556980490680
-0.01379196438938379300
0.00914489384740591050
0.00937123876065015790
-0.02044003270566463500
0.00526786223053932190
-0.00348799722269177440
0.00387310492806136610
0.00208624778315424920
0.00701144197955727580
-0.01093072537332773200
0.00804307870566844940
0.02103616110980510700
-0.00098495522979646921
0.02184480428695678700
-0.00061261584050953388
0.02760431542992591900
-0.01660920679569244400
0.01447550766170024900
0.02937452308833599100
0.01401842571794986700
-0.00604729168117046360
0.01502667367458343500
0.01608034223318100000
0.00975041463971138000
-0.00969176180660724640
-0.00171935872640460730
0.00211599026806652550
-0.00211023306474089620
0.00133402424398809670
0.01334073580801487000
-0.01329939533025026300
-0.00138078921008855100
-0.02308041788637638100
-0.00082884071161970496
0.01705644465982914000
0.00202293857000768180
-0.00570295378565788270
-0.00758863659575581550
-0.00132965843658894300
0.00731087662279605870
-0.00583985634148120880
0.01699131168425083200
-0.00630631018429994580
-0.02518068812787532800
-0.00940291956067085270
-0.00376837002113461490
-0.01047445088624954200
-0.01267338730394840200
0.01497306674718856800
-0.01249020546674728400
-0.00577167747542262080
-0.01048370450735092200
-0.00656006904318928720
-0.00847692042589187620
0.00643528532236814500
-0.00791507121175527570
-0.00741329696029424670
-0.00440586823970079420
0.00987406354397535320
-0.01547298580408096300
0.01317037642002105700
-0.01282966602593660400
0.00331008736975491050
0.00433840276673436160
0.01156770251691341400
-0.00918605178594589230
0.00088330503785982728
-0.00387802626937627790
-0.00877885799854993820
0.00058176077436655760
0.00364089733920991420
-0.01253961585462093400
-0.01212112046778202100
0.03065264225006103500
-0.00303938519209623340
0.00761154480278491970
-0.00385444588027894500
-0.00559866940602660180
-0.00091890466865152121
0.00316852796822786330
-0.00867521669715642930
-0.02168012224137783100
0.00298065668903291230
-0.00438169436529278760
0.00651225494220852850
0.00144156883470714090
0.00350561854429543020
0.01337814051657915100
-0.01735610328614711800
-0.01597619988024234800
0.00517078069970011710
0.00684639578685164450
-0.00865551270544528960
0.00515585904940962790
-0.00262503838166594510
-0.00185574393253773450
0.01309753209352493300
0.00798519328236579900
0.00808046851307153700
0.00081244623288512230
-0.01696033030748367300
0.01040529645979404400
-0.01071834750473499300
0.01301608700305223500
-0.00759572023525834080
0.01917826384305954000
-0.00276313140057027340
-0.01239271834492683400
0.01209544483572244600
-0.01173000130802393000
0.00960426870733499530
0.00239372579380869870
0.00365859665907919410
0.00115660333540290590
0.02678461372852325400
-0.00279063219204545020
-0.00111940386705100540
-0.00093868852127343416
-0.00706827081739902500
-0.00335780112072825430
0.01580763421952724500
0.00307389232330024240
-0.00562667148187756540
-0.00829740241169929500
0.00948004797101020810
-0.01170947309583425500
0.00562003953382372860
-0.01734937354922294600
-0.00179954478517174720
-0.01850085332989692700
0.01384036056697368600
0.00766672147437930110
-0.00916296802461147310
0.00438656425103545190
0.00751007720828056340
0.01075507048517465600
-0.01175707392394542700
0.01531720720231533100
-0.00622861040756106380
0.00153287453576922420
-0.01308139134198427200
0.00376173900440335270
0.01631072908639907800
-0.01229749061167240100
-0.01248388178646564500
-0.00703228870406746860
0.01108080893754959100
-0.02236169204115867600
-0.00770771084353327750
0.01047201454639434800
-0.00057953305076807737
-0.00522885518148541450
-0.00890468992292881010
-0.01594895310699939700
0.00052069406956434250
-0.00819031801074743270
0.00258640153333544730
-0.01649857684969902000
0.01234403438866138500
0.00426650559529662130
-0.01585448719561100000
0.00879761762917041780
-0.00818058662116527560
0.00600725458934903140
0.00076060282299295068
-0.01026379410177469300
-0.03394604474306106600
0.00889913551509380340
-0.00061507552163675427
-0.00549798458814620970
-0.00275635556317865850
-0.00920177251100540160
0.01096286438405513800
-0.00215443456545472150
-0.00845922436565160750
0.01046443451195955300
-0.00083784543676301837
0.01650454662740230600
-0.00727797066792845730
-0.00808759592473506930
0.00509524950757622720
0.00988411251455545430
0.00934340432286262510
-0.00755302282050251960
-0.00365493050776422020
0.00451875431463122370
0.02737119607627391800
0.00788164697587490080
-0.00284572271630167960
0.00048781742225401103
0.01135084591805934900
-0.00645720819011330600
0.00067193113500252366
0.01023035496473312400
0.00922072492539882660
0.02109659463167190600
0.01646487601101398500
0.01026734523475170100
-0.01799700409173965500
-0.01673183590173721300
-0.00873071886599063870
-0.01329602301120758100
-0.00263362657278776170
-0.00202160328626632690
-0.00139787490479648110
-0.00732801808044314380
-0.01025450881570577600
-0.01475855149328708600
0.00487275980412960050
-0.00166840956080704930
-0.01031584013253450400
-0.00552658410742878910
-0.00935528147965669630
-0.00350642413832247260
0.00159766525030136110
-0.00348362326622009280
-0.02303593792021274600
-0.00814318750053644180
0.00309892231598496440
-0.00590900611132383350
-0.02754671126604080200
-0.00506962230429053310
0.00834337621927261350
-0.00132544594816863540
0.00717387720942497250
-0.01076900772750377700
0.00731533346697688100
-0.00306390575133264060
0.00779085326939821240
-0.00534308189526200290
0.00469011720269918440
0.00967377610504627230
-0.02329505607485771200
-0.00391850434243679050
-0.01215718872845172900
0.02817774750292301200
0.00052329414756968617
0.00646359287202358250
0.01536454912275075900
0.02886596322059631300
0.01870938204228878000
-0.02758185192942619300
0.01080279890447855000
0.01850569434463977800
0.01285271253436803800
0.02410135418176651000
-0.00570816081017255780
-0.01301313750445842700
0.00027679558843374252
-0.01975571177899837500
0.01307378336787223800
0.00025601481320336461
-0.02420918643474578900
-0.00417954381555318830
-0.00760369794443249700
-0.00847123563289642330
-0.02711190097033977500
-0.04320533573627471900
0.02311997115612030000
0.00186627660878002640
-0.02248722128570079800
-0.03821627050638198900
-0.00395017303526401520
0.00790786463767290120
-0.01548379380255937600
0.00436854641884565350
-0.02614021115005016300
0.00047713075764477253
-0.01292293146252632100
-0.01221346389502286900
0.00061886268667876720
0.00375339156016707420
-0.00785582046955823900
-0.00867295917123556140
-0.00278546032495796680
-0.01213660836219787600
0.02041799947619438200
-0.00309532182291150090
-0.00426461873576045040
0.01572263613343238800
-0.02158321440219879200
0.02900438569486141200
-0.00961821153759956360
0.00847257301211357120
0.02474894188344478600
-0.00807597301900386810
0.01063382439315319100
0.02837751246988773300
-0.00414700666442513470
0.00875857099890708920
0.00628241756930947300
0.02232632972300052600
0.01126258168369531600
-0.01056231372058391600
-0.00544417090713977810
0.00415814295411109920
0.00791935063898563390
0.02756250835955143000
0.00706375436857342720
0.00220018345862627030
-0.00967963319271802900
-0.01683717779815197000
0.00464207865297794340
0.00297523522749543190
0.00101338175591081380
-0.01390673685818910600
0.00582439918071031570
-0.01558054890483617800
0.02172728627920150800
0.00673438329249620440
-0.00467472430318593980
-0.01125917956233024600
-0.00022414592967834324
0.00395625364035367970
0.00958802457898855210
-0.01011791918426752100
0.01271512266248464600
0.02647400461137294800
-0.00267611513845622540
0.00452319998294115070
-0.00478043314069509510
-0.01715662889182567600
0.02035278268158435800
0.00949035305529832840
-0.01320896763354539900
0.00203620782122015950
-0.00154669035691767930
-0.02000496909022331200
-0.03471456840634346000
-0.00119545031338930130
-0.00364851439371705060
-0.00859447848051786420
-0.01663530245423317000
-0.01476210542023181900
-0.00733012938871979710
-0.00318834744393825530
-0.01941077969968318900
-0.00133605988230556250
0.00247877486981451510
-0.00239158654585480690
-0.01409282162785530100
-0.01002969127148389800
0.00074679631507024169
-0.00708047207444906230
-0.00229122093878686430
0.01647715456783771500
0.00728462077677249910
0.00769884325563907620
0.01900910958647728000
0.01093547046184539800
-0.00224899221211671830
0.02311832644045352900
-0.01051991991698741900
-0.01072854083031415900
0.02297184802591800700
0.00418120063841342930
0.00319078797474503520
-0.00239477679133415220
-0.00362395332194864750
-0.00299546960741281510
-0.00166711339261382820
-0.00156618375331163410
-0.00808062590658664700
0.00268080667592585090
-0.00388204166665673260
0.01230866555124521300
0.00525339972227811810
0.01592907123267650600
0.00006758372182957828
0.00180729990825057030
0.00952279102057218550
0.01709718629717826800
0.00137415796052664520
0.02138897217810154000
0.00169459253083914520
-0.00322246667928993700
0.02132463268935680400
0.02361148223280906700
0.01207897998392581900
-0.00077207665890455246
-0.00732186436653137210
0.00350520131178200240
0.02574877068400383000
-0.02731726691126823400
-0.01683411188423633600
-0.00754727702587842940
0.00308372545987367630
-0.01454574801027774800
0.00030633158166892827
-0.00430395035073161130
-0.02015553042292594900
-0.01510410476475954100
-0.00630907947197556500
0.01820505969226360300
-0.00606274977326393130
-0.02097118645906448400
-0.01919458433985710100
0.00659423880279064180
0.01186961587518453600
0.00380142312496900560
0.00567390583455562590
-0.01485507655888795900
0.00690451590344309810
0.01019227039068937300
-0.01432174164801836000
0.01453754585236311000
0.02426411211490631100
-0.00638902653008699420
-0.01766625978052616100
-0.00219757249578833580
0.00857204012572765350
0.00011879462545039132
0.00594361918047070500
-0.00086593441665172577
-0.01079798769205808600
-0.01550256740301847500
0.01356469187885522800
0.00576702551916241650
-0.00832543335855007170
0.01057183742523193400
-0.01498323865234851800
-0.00520419050008058550
0.01028792746365070300
-0.00742374267429113390
-0.00358122307807207110
-0.00606410577893257140
0.02308101579546928400
0.00442639412358403210
-0.00651916069909930230
0.00241136713884770870
-0.00367415673099458220
0.01509219966828823100
-0.00618074135854840280
-0.01223744638264179200
0.01007394772022962600
0.00403115013614296910
0.01579414121806621600
0.00726731354370713230
0.00603755190968513490
0.00916077755391597750
0.01070559676736593200
0.02457126602530479400
-0.00826018024235963820
-0.00389363663271069530
-0.01269962079823017100
0.00989315751940011980
0.00251767854206264020
0.00132695678621530530
-0.01447116490453481700
0.00196553766727447510
-0.00339573458768427370
-0.00966672040522098540
-0.01048031821846962000
-0.00826757587492465970
-0.00283036357723176480
-0.01423070114105939900
0.00082875939551740885
0.00540663674473762510
-0.00412558484822511670
-0.00511892791837453840
0.00335648469626903530
0.01194104086607694600
-0.00469360314309597020
-0.00453741149976849560
-0.01425212249159812900
-0.01046541053801775000
0.00780736096203327180
-0.00084352033445611596
0.00728173134848475460
0.00496828043833374980
0.00261833891272544860
0.00896120909601449970
0.01522664539515972100
0.00741958804428577420
0.00130548595916479830
-0.00560218840837478640
-0.01771612279117107400
0.00259163766168057920
0.01240565441548824300
-0.01704122871160507200
0.00165339594241231680
-0.00049998488975688815
0.00814348831772804260
0.00721494015306234360
-0.00553720211610198020
-0.00472178263589739800
-0.00146966113243252040
0.01330636814236640900
-0.00194358848966658120
-0.03313891962170600900
-0.00873025972396135330
-0.00235988758504390720
0.00827593542635440830
0.01639320515096187600
-0.01591908559203147900
0.00004853963037021458
-0.00734830508008599280
0.00171904324088245630
0.00410169269889593120
-0.00318330293521285060
0.00518546253442764280
-0.00674871169030666350
-0.00730369426310062410
-0.00310110999271273610
0.00326728937216103080
-0.00228214496746659280
0.00819693412631750110
-0.00523440772667527200
0.00448206951841712000
0.00947230216115713120
0.00992613006383180620
-0.01029936596751213100
0.01121034659445285800
0.01826544292271137200
0.01023082900792360300
-0.01226307079195976300
0.01504822261631488800
0.00910654570907354350
0.00692574167624115940
-0.00317435362376272680
-0.00487305084243416790
0.00010024810035247356
0.00090140703832730651
0.02666953951120376600
0.00074182264506816864
-0.00292549910955131050
-0.00321486359462141990
-0.00659341365098953250
0.01686927489936351800
0.00604863977059721950
0.00212675612419843670
0.01157040335237979900
-0.00229729805141687390
-0.00619147531688213350
-0.00782352127134799960
-0.00625283643603324890
0.01260644197463989300
0.00827310420572757720
0.00000760631019147695
0.01374897826462984100
-0.00417616358026862140
-0.00081443012459203601
-0.01093324646353721600
0.00434967176988720890
-0.01820345595479011500
-0.01266692392528057100
0.00823371391743421550
0.00211218767799437050
-0.00737355602905154230
-0.01019574422389268900
0.00176826829556375740
-0.00369840208441019060
-0.02200021781027317000
-0.01665207929909229300
-0.01765313744544982900
0.00156011467333883050
-0.01862324960529804200
-0.00118272856343537570
-0.01257907971739769000
-0.01257617212831974000
0.01427096314728260000
0.01300940103828907000
-0.01263607293367385900
0.00150681531522423030
0.01865158043801784500
-0.00665536755695939060
0.01014728844165802000
0.00644721649587154390
0.00159008405171334740
-0.00523878447711467740
0.01621920801699161500
0.00507909059524536130
-0.00755997048690915110
0.00232555367983877660
-0.00915786065161228180
-0.00394447986036539080
0.01846713386476039900
0.00584939029067754750
-0.00807864218950271610
0.00587384495884180070
-0.00784510187804698940
0.02132550999522209200
-0.01879582926630973800
-0.00936714839190244670
0.01279747951775789300
-0.00416995910927653310
0.00545649556443095210
0.00471411412581801410
0.00842599105089902880
-0.00705009372904896740
-0.00017637260316405445
0.00069496151991188526
-0.00026802430511452258
0.00219588633626699450
-0.00460142316296696660
0.00701376283541321750
0.00595187861472368240
-0.00134399253875017170
0.00469669606536626820
0.00749359978362917900
0.00723258359357714650
0.00648617185652256010
-0.00041204565786756575
-0.00686037354171276090
0.00039110070792958140
-0.00691416906192898750
-0.00109026802238076930
0.01120170857757329900
0.01181029342114925400
0.00743492692708969120
0.01819642819464206700
-0.01431279815733432800
-0.00088739645434543490
0.00003466324415057898
0.01712469011545181300
0.00543733825907111170
-0.00407969858497381210
0.00590842170640826230
0.00698312744498252870
0.00330967316403985020
-0.02060257457196712500
0.00856466218829154970
-0.03150568529963493300
-0.00067821732955053449
-0.02325452677905559500
-0.00923426728695631030
0.01065538916736841200
-0.01020741462707519500
0.01099823042750358600
0.00586744351312518120
-0.00416612299159169200
-0.00593437906354665760
-0.00966498535126447680
-0.00646709557622671130
-0.02572605572640895800
0.00074158387724310160
-0.00341245532035827640
-0.00090438878396525979
0.01592715829610824600
-0.00438943784683942790
-0.01198963355273008300
0.00712732691317796710
0.00799789093434810640
-0.00378265930339694020
-0.01184066850692033800
-0.00014925916912034154
-0.00852873269468545910
0.00199981313198804860
-0.00885734427720308300
-0.00973128527402877810
0.00723360991105437280
-0.00269469851627945900
0.01759974472224712400
-0.00626402022317051890
-0.00141173496376723050
-0.01012379210442304600
0.00404971232637763020
0.01712853275239467600
0.01070767268538475000
-0.02433616854250431100
0.00509268697351217270
0.00011327568063279614
0.00635698717087507250
-0.00664570787921547890
-0.02101002074778080000
0.00682923430576920510
-0.00745572103187441830
-0.00309383147396147250
0.00396786117926239970
0.02078229188919067400
0.01952910237014293700
-0.01730148680508136700
-0.00349181448109447960
0.01071822550147771800
-0.02191598713397979700
0.01562846079468727100
-0.00311125139705836770
0.00903326459228992460
-0.01304582133889198300
-0.01459024753421545000
0.02645138837397098500
0.00578603846952319150
-0.00437140744179487230
-0.01364263333380222300
0.01046559493988752400
0.00594457006081938740
-0.02041271328926086400
-0.01380352489650249500
0.03202796354889869700
0.00473029259592294690
-0.01225762255489826200
-0.00701711094006896020
-0.00871666520833969120
0.01079498324543237700
0.00067917973501607776
0.00438003009185194970
0.00299041392281651500
-0.01031319331377744700
0.00944342277944087980
-0.00461835693567991260
-0.01229045260697603200
-0.00703762937337160110
0.00074972701258957386
0.00304413237608969210
-0.00219599576666951180
0.01425525639206171000
-0.00109937915112823250
-0.00749723147600889210
-0.00843636039644479750
-0.00053366762585937977
-0.01432371418923139600
0.01691487431526184100
0.00220388453453779220
-0.01724416390061378500
-0.00514014158397912980
-0.01627685688436031300
0.00352691113948822020
-0.00345688383094966410
-0.00125514902174472810
-0.00195097236428409810
0.00320891826413571830
-0.01464925333857536300
-0.00883411616086959840
0.00331937964074313640
-0.01001000124961137800
0.01051910500973463100
-0.02648711018264293700
0.00622356310486793520
0.00456822989508509640
-0.01471631322056055100
0.00249257218092679980
0.00173017790075391530
0.02691554278135299700
0.00217042909935116770
0.01239392533898353600
-0.00756749650463461880
-0.00184560485649853940
-0.00259628053754568100
0.00527344178408384320
-0.00357709010131657120
-0.00681879417970776560
-0.00508441217243671420
-0.00098255393095314503
-0.00154804438352584840
-0.00219774781726300720
0.00960885826498270030
0.00221986183896660800
-0.01106073614209890400
-0.00555219966918230060
0.02480949088931083700
0.00286545185372233390
-0.02682366780936718000
0.01685804687440395400
-0.01853320747613906900
0.01296958699822425800
-0.03310691565275192300
-0.02897833473980426800
-0.02336598373949527700
-0.02859359234571456900
-0.02177666686475276900
-0.03676762059330940200
0.02410170622169971500
0.00822361372411251070
-0.00509234378114342690
-0.02572759613394737200
0.00847163144499063490
0.01319836080074310300
0.00430413382127881050
0.00909124501049518590
-0.02557503432035446200
0.01888801530003547700
-0.01655133441090583800
-0.00828810688108205800
0.00707567017525434490
-0.00594294909387826920
-0.01724497601389884900
0.00178963853977620600
-0.01391421258449554400
-0.00556386820971965790
0.00006616643076995388
0.00460215890780091290
0.00951127242296934130
-0.01029457431286573400
-0.00513339182361960410
-0.00569408619776368140
-0.02065868489444255800
-0.00432625645771622660
-0.02860755845904350300
-0.00655991258099675180
-0.00560782849788665770
-0.00447966624051332470
-0.03740216419100761400
0.00077458290616050363
-0.00619736034423112870
-0.02648530527949333200
-0.00851219240576028820
-0.00516971293836832050
-0.00669048214331269260
-0.02090344950556755100
0.01719962619245052300
-0.00395414466038346290
-0.00590950623154640200
0.00708921626210212710
-0.00531645305454730990
-0.01181563362479209900
-0.00226088496856391430
-0.02352102100849151600
-0.01985714770853519400
-0.00387003319337964060
-0.00135211378801614050
0.00482738809660077100
-0.01539467275142669700
0.00709363957867026330
0.00700538326054811480
0.01344563718885183300
-0.00304687558673322200
-0.00185911299195140600
-0.01253849733620882000
-0.00522419530898332600
0.00391747849062085150
-0.00913802348077297210
0.01124115847051143600
0.00297150202095508580
0.00502612674608826640
-0.00520065007731318470
-0.00824913289397954940
0.00334847299382090570
0.01502342335879802700
-0.00512227555736899380
-0.01149978116154670700
0.01223217509686946900
-0.00866718124598264690
0.00660895323380827900
0.00165911065414547920
-0.00136344134807586670
-0.00943599268794059750
-0.01533267088234424600
-0.00488402368500828740
0.00518361339345574380
-0.00806743372231721880
-0.02019322477281093600
0.01470564771443605400
-0.00034772569779306650
-0.00295785046182572840
-0.02888950146734714500
0.00511424522846937180
0.00582185341045260430
0.00141986133530735970
-0.01337716635316610300
-0.00832113251090049740
-0.00547118671238422390
0.00709659466519951820
-0.01716262288391590100
-0.00384278269484639170
-0.00551561871543526650
0.00879382342100143430
-0.00763933919370174410
-0.00568031333386898040
-0.00002544764174672309
0.00570768397301435470
-0.00399276753887534140
-0.02339542470872402200
-0.00376061839051544670
0.00243712682276964190
-0.00551692023873329160
0.00527143338695168500
0.01715792343020439100
0.00984315294772386550
-0.01495689991861581800
-0.01727394387125968900
-0.00044301801244728267
-0.00474894884973764420
-0.00152234768029302360
0.00663509359583258630
-0.01132593862712383300
-0.00549812568351626400
-0.00062713539227843285
0.00080837350105866790
0.00516159972175955770
-0.00938616786152124400
0.00289637316018342970
0.01944457739591598500
0.01388953533023595800
0.01115927100181579600
0.03411132469773292500
0.00814380776137113570
0.00883309543132781980
-0.00511439424008131030
-0.00619601272046566010
0.01002835761755704900
0.01286965608596801800
0.00942634139209985730
-0.01318243704736232800
-0.01300271879881620400
0.00537581881508231160
-0.00312562752515077590
-0.01977915503084659600
-0.00644573383033275600
-0.01532937586307525600
0.00555875431746244430
-0.00985345430672168730
-0.00043323400313965976
0.01277066022157669100
-0.02473888546228408800
-0.01001258008182048800
-0.01867197453975677500
-0.00593667989596724510
0.00050611601909622550
0.00293441140092909340
-0.01493873540312051800
0.00361794559285044670
0.00987649336457252500
-0.01175489649176597600
-0.01801428757607936900
0.00372301740571856500
0.00483984826132655140
-0.00529484683647751810
-0.01053111907094717000
-0.00125633121933788060
0.00848674122244119640
-0.00645085237920284270
-0.01338104996830225000
0.00228065066039562230
0.00243250536732375620
-0.00468075461685657500
-0.01008626352995634100
-0.01159557420760393100
-0.02152678556740284000
-0.01636958494782447800
0.01000156812369823500
-0.00643938407301902770
-0.02705642022192478200
-0.01555468607693910600
0.00763976946473121640
-0.01103562023490667300
0.00840066652745008470
-0.01375128328800201400
-0.00979867763817310330
-0.00827692728489637370
0.00570824882015585900
-0.01727220602333545700
-0.00338982557877898220
-0.02066644094884395600
-0.00863701850175857540
-0.00525994086638092990
-0.02006342075765132900
-0.00049015780678018928
0.00524729257449507710
0.01319691166281700100
0.00344967702403664590
0.00817669834941625600
-0.00387510913424193860
-0.00790825951844453810
-0.00042043326538987458
-0.01077423244714736900
0.01128230523318052300
0.00780458934605121610
0.00828889571130275730
0.01148410979658365200
-0.00150270049925893550
-0.00537868170067667960
0.00266996561549603940
0.00674538500607013700
0.00682257628068327900
0.00913585908710956570
0.01280230935662984800
-0.00107252772431820630
0.00924100726842880250
-0.00085648475214838982
0.00637795682996511460
-0.01459484081715345400
0.01345469616353511800
-0.01592388935387134600
0.00117201148532330990
-0.00601188000291585920
-0.01684807054698467300
0.00210497924126684670
-0.00318887317553162570
0.00244086654856801030
-0.00169498880859464410
0.00379478046670556070
0.00439135544002056120
0.01613490283489227300
0.01131634600460529300
-0.00688481004908680920
0.00936701614409685130
0.02550081722438335400
0.00522808264940977100
0.00774081284180283550
-0.00177572108805179600
-0.00023169671476352960
0.00677250511944293980
-0.00173197383992373940
-0.00414492841809988020
0.00198012217879295350
0.01338430587202310600
0.00180743238888680930
-0.00612306036055088040
0.01375196129083633400
0.01569702848792076100
-0.03305895626544952400
-0.00596900749951601030
-0.01058496162295341500
-0.01709744147956371300
-0.01502472907304763800
0.00227692257612943650
0.00918971095234155650
0.00088855880312621593
-0.00327941123396158220
-0.01264661923050880400
0.00542004872113466260
0.00367956026457250120
-0.00688648363575339320
-0.00784028228372335430
-0.00408448418602347370
-0.00240242341533303260
-0.00215372140519320960
-0.00443251803517341610
-0.01011017244309186900
0.02764388918876647900
-0.01236639264971017800
-0.00888031255453825000
-0.00178894877899438140
0.00116701773367822170
-0.00779851432889699940
0.00315609271638095380
0.00856706779450178150
-0.00733377039432525630
-0.00106366397812962530
-0.01414992380887270000
-0.00075508700683712959
0.00294762221165001390
0.00889231078326702120
-0.01072776224464178100
0.00464413454756140710
-0.00397329032421112060
0.00570228928700089450
-0.00480986293405294420
-0.01445712614804506300
-0.00345245748758316040
-0.00943148788064718250
0.00932855345308780670
-0.00515923928469419480
-0.01505344826728105500
-0.00080354209057986736
0.01021361909806728400
0.00266637001186609270
0.00074821512680500746
0.01423119381070137000
-0.00621183216571807860
0.00235780770890414710
-0.00768120354041457180
-0.00232433318160474300
0.00295594078488647940
0.00849363766610622410
0.02040688507258892100
0.00637351861223578450
-0.00942924432456493380
-0.00352842034772038460
0.00535632623359560970
-0.00419845851138234140
0.00258635077625513080
-0.00518533680588006970
0.00030481230351142585
0.00284359045326709750
-0.01484284363687038400
0.01005699764937162400
-0.00931847561150789260
0.01155417412519455000
0.00416082516312599180
0.00973650161176919940
-0.01030371524393558500
0.00099039077758789063
-0.00004317205821280368
-0.00381082715466618540
0.00345131871290504930
0.00088378170039504766
-0.00329612358473241330
-0.00287253200076520440
0.01090942788869142500
-0.00650524720549583440
-0.00305424001999199390
-0.00948943383991718290
-0.00201925518922507760
0.00067514687543734908
-0.01579002663493156400
-0.00074276275699958205
-0.00723504181951284410
0.00910141691565513610
-0.02120256796479225200
-0.02641583792865276300
0.00995139963924884800
-0.00555557478219270710
-0.02075367607176303900
-0.02148131467401981400
-0.00759053044021129610
0.00003201314757461660
0.00310442759655416010
0.00674129882827401160
0.00099145283456891775
-0.00337487063370645050
0.01227410044521093400
0.01921061798930168200
-0.00097348995041102171
-0.00570288067683577540
0.00943224225193262100
-0.00633769854903221130
-0.01664516888558864600
-0.00298284855671226980
0.00401144986972212790
0.00181036116555333140
-0.01460351981222629500
-0.01095602102577686300
-0.01122427359223365800
0.01020092424005270000
-0.00553188379853963850
0.00427092146128416060
0.00371395493857562540
-0.00231236312538385390
-0.01857963576912879900
0.00118332833517342810
0.00655947905033826830
-0.00619734451174736020
-0.00006956604192964733
-0.00323646073229610920
0.02108121663331985500
0.00573107879608869550
0.00487483292818069460
-0.00024859220138750970
-0.00476296758279204370
-0.00273009040392935280
0.00813093036413192750
0.00429730396717786790
-0.00722527923062443730
0.04683162271976470900
0.01712101697921752900
-0.00434868177399039270
0.00456630717962980270
-0.03842000290751457200
-0.00013699843839276582
-0.01121450960636138900
0.00622205296531319620
-0.00846197456121444700
0.00901712384074926380
-0.02368650026619434400
-0.00148199463728815320
0.00572188291698694230
0.00365446391515433790
0.00212693982757627960
-0.00860787462443113330
0.00119997258298099040
-0.00398336397483944890
-0.01716272532939910900
-0.00737346429377794270
-0.01133725885301828400
-0.01017013005912303900
0.00645882543176412580
0.00166635389905422930
-0.00357636390253901480
-0.00994053110480308530
0.01922538504004478500
0.01373272668570280100
-0.00020524613501038402
-0.00363850384019315240
0.01659088209271431000
0.01846909523010253900
0.00721957674250006680
-0.00514948181807994840
-0.01093803718686103800
0.01138383056968450500
-0.00727033521980047230
-0.01145032607018947600
-0.00645365193486213680
0.00732333771884441380
-0.00227292533963918690
-0.00162315985653549430
0.00318876793608069420
-0.00270674074999988080
-0.01254656352102756500
0.00207152939401566980
-0.00353454402647912500
-0.00860046781599521640
-0.00634453678503632550
-0.00344056845642626290
-0.00205450854264199730
-0.01294706203043460800
-0.01568916253745555900
-0.02245734632015228300
-0.01036047656089067500
-0.01099084131419658700
-0.00263909669592976570
0.00513356737792491910
0.00437809154391288760
0.01216030586510896700
0.00093161012046039104
0.00159800366964191200
0.00625045690685510640
-0.00630286196246743200
0.01500113587826490400
-0.01240458618849515900
0.00117842678446322680
-0.00941685214638710020
-0.01853234134614467600
-0.01551855634897947300
-0.01102089881896972700
-0.00144862022716552020
0.00892417319118976590
-0.00290015200152993200
0.00857524201273918150
-0.00643017608672380450
0.01529212016612291300
0.00745826354250311850
0.01733811385929584500
0.03371828421950340300
0.01184870954602956800
-0.00652990676462650300
0.00979700125753879550
-0.01528981607407331500
-0.00828326586633920670
0.00361611321568489070
0.00751885538920760150
-0.00344512681476771830
0.00243474566377699380
0.01605591364204883600
-0.02461240440607070900
-0.02717006579041481000
0.00657869316637516020
-0.00297200586646795270
-0.01123842969536781300
-0.00930676236748695370
0.00403221603482961650
-0.02265651896595954900
-0.01456428132951259600
-0.01046158000826835600
-0.01045672502368688600
-0.00571807567030191420
-0.01117248646914959000
0.00647615594789385800
-0.01585825905203819300
-0.00044823955977335572
0.00224508205428719520
-0.00026917629293166101
0.00060098490212112665
0.00591153046116232870
-0.00140991457737982270
-0.01328213699162006400
0.01248596701771020900
-0.00127220293506979940
0.00311634503304958340
0.00757515616714954380
0.02437169663608074200
-0.00751193892210721970
-0.00865775067359209060
0.01415241509675979600
-0.02303674258291721300
-0.03371065109968185400
-0.01800243556499481200
0.00608559325337409970
0.00605748640373349190
-0.04513483121991157500
-0.01503740530461072900
0.00297044240869581700
0.01723936386406421700
-0.00841817725449800490
0.01598100923001766200
0.03359444066882133500
0.01161424722522497200
-0.01026365347206592600
-0.02140535041689872700
0.02557345107197761500
0.01219016499817371400
-0.01579526253044605300
-0.01198806148022413300
-0.00711442297324538230
-0.01066286489367485000
0.00032785983057692647
0.00339441001415252690
0.00462282309308648110
-0.01417432073503732700
-0.01059852819889783900
-0.01100607588887214700
-0.02485309168696403500
0.01534925960004329700
0.00174576335120946170
-0.00661347387358546260
-0.00390978716313838960
-0.01602021232247352600
-0.00738551001995801930
-0.00121808401308953760
-0.02513679303228855100
-0.02064690738916397100
-0.01630080491304397600
0.00549723906442523000
0.01037171855568885800
-0.01672768034040927900
0.00902600400149822240
0.00434269988909363750
0.00277310796082019810
-0.01170259900391101800
0.01125024352222681000
-0.00509179523214697840
-0.01235893368721008300
-0.00309125520288944240
0.00244026910513639450
-0.02528518624603748300
0.00165261933580040930
-0.02392099425196647600
-0.01924121007323265100
0.01044904254376888300
-0.00229187239892780780
0.00014634804392699152
-0.00115011015441268680
0.00075700250454246998
-0.01662817597389221200
0.01876067556440830200
0.01336226612329483000
-0.00597080541774630550
-0.00111709220800548790
-0.00837100949138402940
-0.00395362591370940210
-0.00689211348071694370
0.00623413315042853360
-0.00837266165763139720
-0.00665490655228495600
-0.00739202369004487990
-0.00259219063445925710
0.00385182164609432220
0.01579850353300571400
0.01832775399088859600
0.00829544942826032640
0.00083426118362694979
-0.00713619589805603030
-0.00092102494090795517
0.01019658055156469300
0.00118690228555351500
-0.03935343772172927900
-0.00885818339884281160
-0.00798262096941471100
-0.00287112826481461520
0.01064492110162973400
-0.00295825838111341000
-0.01188394799828529400
0.00342118786647915840
-0.00653848890215158460
0.00674937525764107700
0.01964511163532733900
0.00553860375657677650
0.00093226856552064419
-0.00083064916543662548
-0.00316896941512823100
-0.01422005333006382000
-0.01113441865891218200
-0.00273473700508475300
-0.00084815220907330513
-0.00921361986547708510
-0.01394641306251287500
-0.03056588582694530500
0.00428408430889248850
0.00242122937925159930
-0.00754169328138232230
-0.00452154083177447320
-0.01196900662034750000
0.00350473355501890180
0.01057781651616096500
0.00351829617284238340
0.00386854656971991060
-0.00364091130904853340
0.01175770442932844200
-0.00913840346038341520
0.00540062272921204570
0.00760516570881009100
0.00543620251119136810
0.00151619268581271170
0.00097826425917446613
-0.00700025353580713270
0.01617056131362915000
-0.00010331150406273082
-0.01643118262290954600
-0.01322645507752895400
-0.01560545247048139600
0.03019108623266220100
0.00313123757950961590
0.00836524460464715960
0.00510382791981101040
0.00207324419170618060
0.03892622515559196500
0.00755880028009414670
0.01135691348463296900
0.00051685597281903028
-0.00011676980648189783
-0.01275631226599216500
-0.00304143293760716920
-0.00557616725564002990
-0.02524346113204956100
-0.01431760098785162000
-0.00071916868910193443
-0.01377426739782095000
-0.00680695241317152980
-0.02160109765827655800
-0.00968158710747957230
-0.01464482210576534300
-0.01315819099545478800
0.00072916480712592602
-0.00373097718693315980
-0.02066849917173385600
0.00243787397630512710
0.00752936117351055150
0.00233023473992943760
0.00611407449468970300
0.00151555973570793870
0.00738873332738876340
0.00130897597409784790
-0.01195535808801651000
-0.00342220626771450040
0.00505981920287013050
-0.01973706856369972200
-0.00488043669611215590
0.00700142187997698780
0.00369880395010113720
-0.00937415007501840590
-0.00728780729696154590
0.00018599366012495011
-0.00284361746162176130
-0.02623173780739307400
-0.01052161306142807000
-0.00182242761366069320
0.01954327709972858400
-0.02235237509012222300
-0.01024804729968309400
-0.01290733087807893800
-0.02372095920145511600
-0.02361756376922130600
-0.02776421047747135200
-0.00169828825164586310
-0.00893971975892782210
0.00245294137857854370
-0.01169361360371112800
0.00747809093445539470
0.01652340032160282100
-0.00104651856236159800
-0.01012012455612421000
-0.00539137842133641240
0.01369755156338214900
-0.00092654355103150010
-0.00389191391877830030
-0.00894487742334604260
0.01188172493129968600
0.00370729784481227400
-0.00246713613159954550
-0.01937548257410526300
-0.01152222510427236600
-0.01346973888576030700
-0.00642733275890350340
0.00033964170143008232
0.00729237077757716180
0.00009067458449862897
0.00208746944554150100
0.00493971863761544230
0.02406110987067222600
0.00383859919384121890
0.00019425550999585539
0.01396088674664497400
-0.00193992140702903270
-0.00640922272577881810
0.00591563899070024490
-0.00794139225035905840
-0.00073774496559053659
0.00933578703552484510
0.00791071169078350070
-0.01610522158443927800
-0.02203629724681377400
-0.00515255937352776530
0.01527598313987255100
0.00058941094903275371
0.00167959369719028470
-0.00847580842673778530
0.00464022578671574590
-0.00047824805369600654
0.00098883523605763912
-0.02816298790276050600
-0.00416475720703601840
0.00502780312672257420
-0.00866671279072761540
-0.00250460696406662460
0.00156480632722377780
0.02641431055963039400
0.00862519256770610810
0.00981640722602605820
-0.00133783475030213590
0.01675122976303100600
0.02673295140266418500
-0.00009594257426215336
0.00853947643190622330
-0.01739131286740303000
0.01466162223368883100
-0.01559134293347597100
-0.00025062586064450443
-0.00965806283056735990
-0.01745709218084812200
-0.01188714336603879900
-0.00833782926201820370
-0.02538381516933441200
-0.01818819344043731700
0.00631239917129278180
-0.01506746374070644400
-0.01402368396520614600
-0.00972768664360046390
-0.00116950389929115770
0.00281496648676693440
-0.01249851658940315200
0.01324412226676940900
-0.00447175279259681700
-0.00761368405073881150
0.00213854643516242500
0.00939244311302900310
-0.01834854856133461000
-0.01003757491707801800
-0.01662023738026619000
-0.00610444368794560430
0.00571183906868100170
-0.00572055205702781680
0.01342218369245529200
0.00094328803243115544
0.00078605971066281199
0.00674325088039040570
0.00037529089604504406
-0.01442349888384342200
-0.00019789593352470547
-0.01790841668844223000
0.01710080169141292600
-0.01170766167342662800
-0.00274300784803926940
-0.00264249579049646850
-0.00006773912900825962
0.01646784134209156000
-0.00225288700312376020
-0.00921016279608011250
0.00350629398599267010
-0.01542044244706630700
-0.00342504982836544510
0.00182517257053405050
-0.00312594650313258170
-0.00867389142513275150
-0.01371494680643081700
-0.02114308811724185900
-0.00606338214129209520
0.00574564980342984200
-0.00797353591769933700
0.01310897711664438200
-0.00747012160718441010
0.02122409269213676500
-0.00400520721450448040
0.00384165160357952120
0.01674809493124485000
0.01858928427100181600
0.00567561574280261990
0.01430525537580251700
-0.01332322694361209900
-0.01490718033164739600
0.00287667941302061080
-0.02879142947494983700
-0.02927267178893089300
-0.00030598245211876929
0.01359737105667591100
0.00110944639891386030
-0.01515484042465686800
0.00424183905124664310
0.00913752522319555280
0.00673974398523569110
0.02138643898069858600
0.02093550004065036800
0.00967408996075391770
-0.01463251467794179900
0.00327489036135375500
-0.02024251967668533300
0.00670707505196332930
0.01291636843234300600
-0.02485881559550762200
0.00283528259024024010
-0.01068449765443801900
-0.01511734351515770000
-0.01771681755781173700
0.00998100172728300090
0.00200895057059824470
-0.00145898864138871430
0.00383105338551104070
0.00446606706827878950
-0.00790414772927761080
-0.00599293131381273270
0.00456306850537657740
0.01371426694095134700
0.00557296909391880040
-0.00129650416783988480
-0.01289701927453279500
-0.03093883022665977500
-0.01106543000787496600
0.00708655687049031260
-0.00600866461172699930
0.00299140997231006620
-0.00230216374620795250
-0.02288166433572769200
0.01230427157133817700
0.01622487232089042700
-0.00103167677298188210
0.00617342768236994740
-0.00933569017797708510
0.00797900184988975520
0.01832781545817852000
0.00957139674574136730
-0.00889624655246734620
-0.01349601615220308300
-0.00629272265359759330
-0.00662590283900499340
-0.00228501367382705210
0.00889016315340995790
-0.00482538109645247460
0.01300039328634738900
-0.00121520354878157380
-0.00296153407543897630
0.00515314005315303800
0.00402605533599853520
-0.00250872317701578140
-0.01356459967792034100
-0.01153296697884798000
0.00452138483524322510
0.00930553860962390900
-0.00704310042783617970
0.00105066900141537190
0.00702032260596752170
-0.00171914568636566400
0.00955843087285757060
0.02529384382069110900
-0.01721544191241264300
-0.00065141299273818731
0.00851915311068296430
-0.02265975996851921100
-0.01604089699685573600
-0.01537848170846700700
-0.00001519647230452392
-0.01284641772508621200
-0.01552645023912191400
0.01302744913846254300
0.00468912906944751740
-0.00729211047291755680
0.01064944826066494000
-0.00133419432677328590
-0.00842965953052043910
-0.01428026333451271100
-0.00390147138386964800
-0.00506610237061977390
0.01213734131306409800
-0.00412290077656507490
0.00369517039507627490
0.00283690774813294410
-0.00149130553472787140
0.00110166100785136220
0.01245279051363468200
-0.01331933587789535500
0.01297574583441019100
0.00835452787578105930
-0.00317380577325820920
0.01593387871980667100
0.00745871756225824360
0.01667547039687633500
-0.00107591610867530110
0.01544618699699640300
0.00200599431991577150
-0.01703841425478458400
-0.00962109211832284930
0.00658971117809414860
0.01308986730873584700
-0.01208944059908390000
-0.00490046571940183640
-0.01062631513923406600
0.01438994612544775000
-0.00981319136917591090
0.00593091873452067380
-0.01254040654748678200
0.00156827841419726610
-0.02011713758111000100
0.00848973542451858520
-0.02017094753682613400
0.00499340565875172620
-0.00162864883895963430
-0.01613344252109527600
-0.02391223795711994200
-0.00681417761370539670
-0.01613129489123821300
-0.00398809416219592090
-0.03455402329564094500
-0.03882182389497757000
-0.00674186972901225090
0.01096451748162508000
-0.01230660919100046200
0.00482851639389991760
0.00137541838921606540
-0.00395778240635991100
0.00154763064347207550
0.02589849568903446200
-0.01198624633252620700
0.00535255158320069310
0.00127321039326488970
-0.00160036946181207900
-0.00562153337523341180
-0.00770911946892738340
-0.01424536015838384600
-0.01822625659406185200
-0.00812797062098979950
-0.00217607337981462480
0.01139556802809238400
0.02497951872646808600
0.03469488769769668600
-0.01093706861138343800
0.00682283146306872370
0.01600239425897598300
0.01148871798068285000
-0.00544914975762367250
-0.00395721942186355590
0.00263086822815239430
0.00162099010776728390
-0.01765138842165470100
0.00963056739419698720
-0.00205851602368056770
0.01601559855043888100
-0.01114253886044025400
-0.01499082427471876100
-0.02389349415898323100
-0.00342846778221428390
0.00866532698273658750
-0.02545883692800998700
-0.01801279373466968500
-0.00288037210702896120
-0.00198182160966098310
0.00497146556153893470
-0.01883856020867824600
-0.01741450652480125400
-0.00082425959408283234
-0.01819571480154991100
0.00383579917252063750
-0.00856323353946208950
0.00777578586712479590
-0.00483168754726648330
0.00370398233644664290
-0.00029264664044603705
-0.01116196066141128500
0.00013975237379781902
-0.01612582616508007000
-0.01338474079966545100
-0.00878475420176982880
0.00999862235039472580
0.01780239678919315300
-0.03174164146184921300
-0.01423548627644777300
-0.00930396560579538350
0.00210938439704477790
0.01326262857764959300
-0.02683821506798267400
-0.01405295263975858700
-0.01943746767938137100
-0.03036706708371639300
0.01051095034927129700
0.02224749885499477400
-0.01098784431815147400
-0.03430172055959701500
-0.01974722184240818000
-0.02175471745431423200
0.00395803432911634450
0.00099454307928681374
-0.00758267194032669070
0.00373368873260915280
-0.03020123392343521100
-0.00784730724990367890
0.01036308892071247100
0.00553005374968051910
-0.00734693370759487150
-0.00636730249971151350
-0.00665378477424383160
-0.01138286013156175600
0.00304814265109598640
-0.00917493086308240890
0.00938757788389921190
0.01590703614056110400
0.00184365967288613320
-0.01475824881345033600
-0.00764374528080224990
-0.00915837660431861880
0.00741269951686263080
0.02173990942537784600
-0.02399801649153232600
0.00854767020791769030
-0.00468230340629816060
-0.00542548159137368200
0.01481729559600353200
0.00937227439135313030
-0.00964287761598825450
0.02038010209798812900
-0.00218498893082141880
-0.01272126566618681000
0.00133934454061090950
0.00099157798103988171
0.00659424019977450370
0.00310479546897113320
0.00291719008237123490
0.00520379282534122470
0.01660755276679992700
-0.01993047073483467100
0.00670321937650442120
-0.00432986253872513770
-0.00963448453694581990
0.00829277094453573230
0.00292712985537946220
0.01475269068032503100
-0.01006823685020208400
-0.00627943733707070350
0.00480626616626977920
-0.00997930020093917850
-0.00156273762695491310
-0.00086475594434887171
0.01427872758358717000
0.00656912010163068770
-0.00530252465978264810
-0.01169423107057809800
-0.00347826280631124970
0.02772939577698707600
-0.00689485250040888790
0.00132033461704850200
-0.00067987048532813787
0.01185424719005823100
-0.01508429180830717100
0.00889691151678562160
-0.00639796117320656780
-0.01116563659161329300
0.00063005217816680670
-0.01748663373291492500
0.00001919309579534456
-0.00824460200965404510
-0.01045839488506317100
-0.00275576882995665070
-0.00508178630843758580
0.00166175444610416890
-0.00937568116933107380
-0.00079792027827352285
0.00941225606948137280
0.00632275920361280440
-0.00215049576945602890
-0.01981003955006599400
-0.00711354007944464680
0.00082284142263233662
0.01594162546098232300
-0.01309526991099119200
0.00322834122925996780
0.01152447424829006200
-0.00567276729270815850
0.01879278570413589500
-0.00585530744865536690
-0.02463087625801563300
0.01077918615192174900
-0.00192428217269480230
0.01065433770418167100
0.00591689441353082660
-0.00849456712603569030
-0.01179782953113317500
0.02692320197820663500
0.01141787972301244700
0.00202969415113329890
-0.00155308144167065620
-0.00497900834307074550
0.00920572318136692050
0.02518458105623722100
0.00372605794109404090
0.00549319805577397350
0.00979183241724967960
-0.01846578344702720600
0.00158364814706146720
-0.00517099723219871520
-0.01150886435061693200
-0.00478566158562898640
-0.02468109875917434700
-0.01595945842564106000
0.00708866119384765630
-0.01183468662202358200
-0.01159086730331182500
-0.00014508345338981599
-0.00888325832784175870
-0.00449311314150691030
-0.01779977791011333500
-0.02335958741605281800
-0.00590733019635081290
0.00268381740897893910
0.00077468686504289508
-0.01372910290956497200
-0.00761940376833081250
-0.01797433756291866300
-0.00733217131346464160
-0.00049828144256025553
0.00119757209904491900
0.01179694384336471600
-0.00986788794398307800
-0.01087240967899560900
0.01144018396735191300
-0.00551912561058998110
0.01646721735596656800
-0.00401094509288668630
-0.00439477246254682540
0.00569948786869645120
-0.00162258034106343980
-0.01263085473328828800
-0.00026632481603883207
0.01353577710688114200
0.00303730554878711700
-0.00336409104056656360
0.01223239861428737600
0.00173428619746118780
0.02102708257734775500
-0.00379783171229064460
0.01971271447837352800
0.01289988588541746100
-0.01935477554798126200
-0.01599248126149177600
0.00696238270029425620
-0.00422530621290206910
-0.00042908967589028180
0.01997000724077224700
0.01060680486261844600
0.00428483588621020320
-0.00161668763030320410
0.02206902019679546400
-0.00913582649081945420
-0.00676943920552730560
-0.00762580055743455890
-0.00744001846760511400
0.01541749667376279800
-0.00100571534130722280
-0.02537759393453598000
-0.01326785981655120800
-0.00339964334852993490
0.01701138541102409400
0.03033566661179065700
0.02968123927712440500
-0.00325826485641300680
0.01450491975992918000
-0.00986988190561532970
0.00174261594656854870
0.00731640541926026340
0.01501286961138248400
0.01440512295812368400
-0.00994770880788564680
-0.00061215175082907081
0.01077453698962926900
-0.00334012531675398350
-0.00773176364600658420
-0.00611221883445978160
-0.01127561274915933600
-0.00015789955796208233
-0.00610407721251249310
-0.00267907418310642240
0.00508677074685692790
-0.00210344535298645500
-0.01689404994249343900
-0.00472830422222614290
-0.00804818514734506610
-0.01677526719868183100
0.01019912119954824400
-0.02164017967879772200
0.00423106551170349120
-0.00334333139471709730
-0.00605388404801487920
0.00620024278759956360
-0.00097716285381466150
-0.00220839655958116050
-0.00653075706213712690
0.00998112838715314870
0.00769793707877397540
0.00844669155776500700
0.00982288923114538190
0.00134642422199249270
-0.00295751634985208510
0.00005380515358410776
0.00063317385502159595
-0.00768550951033830640
-0.00244702980853617190
-0.00006912153185112402
-0.00627683987841010090
0.00044567600707523525
0.00019941944628953934
0.00573018053546547890
-0.00207721395418047900
0.00012733077164739370
0.00431100558489561080
0.00804907828569412230
-0.00289550237357616420
-0.00863085500895977020
-0.01726680994033813500
-0.00179558002855628730
0.02612795680761337300
-0.00108466809615492820
-0.00847109965980052950
0.00164090946782380340
-0.02602124214172363300
0.01776656135916709900
-0.00744433654472231860
0.00043091879342682660
0.00473854038864374160
-0.00121601112186908720
-0.00296543817967176440
-0.00087475054897367954
0.00556448986753821370
0.00501038460060954090
0.01787394285202026400
-0.00781118357554078100
0.00405145902186632160
-0.01969053782522678400
-0.00663940189406275750
0.01023581903427839300
-0.00928794033825397490
0.01753270626068115200
-0.00245493138208985330
0.00008831397281028330
-0.00396346487104892730
-0.01275840029120445300
-0.01198145747184753400
-0.00851599592715501790
0.02328769490122795100
-0.02504538930952549000
-0.01331636868417263000
-0.01897234283387661000
-0.00838596746325492860
-0.02289541624486446400
0.00515973288565874100
0.00316864927299320700
-0.01262686494737863500
-0.01565681025385856600
-0.00972961168736219410
-0.00001020681065710960
-0.01460720319300890000
0.00761213805526494980
-0.00505334837362170220
-0.00316251441836357120
0.00913663860410451890
0.00513869617134332660
0.00178327469620853660
0.00475336937233805660
-0.00811042822897434230
-0.00952040124684572220
0.00813317485153675080
0.01346415560692548800
0.00652616610750555990
-0.00672371173277497290
-0.01728591509163379700
-0.00147139478940516710
-0.00275776465423405170
-0.00265268655493855480
0.00614022882655262950
-0.00834636949002742770
0.00782127864658832550
-0.01303152088075876200
-0.02731052972376346600
-0.00448266323655843730
-0.00760568771511316300
0.01821824535727500900
0.01553598511964082700
-0.00355677446350455280
-0.01299246679991483700
-0.00413937680423259740
-0.00343296257779002190
0.02276408486068248700
0.00501889036968350410
0.01338840276002883900
0.00529393739998340610
0.02198215946555137600
-0.00767011055722832680
-0.00239951163530349730
0.01959138549864292100
-0.00791040621697902680
-0.01704555749893188500
-0.00186787417624145750
0.00491824839264154430
-0.00777505571022629740
-0.00423623248934745790
-0.01499807368963956800
0.01693755574524402600
0.01216043066233396500
0.00016206674627028406
0.00114737288095057010
0.00719407619908452030
-0.01458336506038904200
0.00944179389625787730
0.00637416355311870570
0.01846658438444137600
0.00810238998383283620
-0.00873415078967809680
-0.00676068058237433430
0.01087894011288881300
0.02617021463811397600
0.00479716155678033830
0.01115868613123893700
0.01451673079282045400
-0.00287610758095979690
-0.00536950072273612020
-0.00070427544414997101
-0.00793548207730054860
0.00739016523584723470
0.01759272627532482100
0.00156278291251510380
0.01204884238541126300
-0.00643218122422695160
-0.00062238017562776804
-0.00405692914500832560
0.01838598959147930100
0.00312687316909432410
0.01178517285734415100
0.00007711572834523395
-0.00784443784505128860
0.00347383157350122930
-0.00770676741376519200
-0.01385119557380676300
0.00335581903345882890
0.02320903353393077900
-0.00586462626233696940
0.00495842937380075450
-0.00673161540180444720
-0.01998934708535671200
0.00501362094655632970
0.01963089406490325900
-0.01039876323193311700
-0.01708836108446121200
-0.00016494496958330274
0.00954608060419559480
-0.00392353255301713940
0.01246299874037504200
-0.00344593403860926630
-0.02178573794662952400
-0.01361105963587760900
0.00917751062661409380
0.01418699696660041800
0.01502145919948816300
0.01003468688577413600
0.00950029864907264710
0.01493408996611833600
0.01430200599133968400
0.00395450461655855180
0.00305411289446055890
0.00427661417052149770
0.00269744405522942540
0.01047397870570421200
-0.00974304974079132080
0.01200030930340290100
-0.00527722109109163280
0.00027407269226387143
-0.00160864926874637600
-0.00843920744955539700
0.00386638543568551540
-0.00357337668538093570
0.01537184324115514800
0.00040442726458422840
0.01712869107723236100
-0.02694270201027393300
0.00261435727588832380
0.00375625258311629300
0.01933119073510170000
0.00112189282663166520
0.01318872068077325800
0.01124222483485937100
-0.00651571759954094890
-0.01249621994793415100
0.00750986719503998760
-0.01177302375435829200
-0.00716363359242677690
-0.00826744921505451200
-0.00048081838758662343
0.00570789352059364320
0.00439531262964010240
0.00046295253559947014
-0.01361406035721302000
-0.01032851729542017000
0.00113393284846097230
-0.02681460231542587300
-0.00600053137168288230
-0.00848842505365610120
-0.00476223416626453400
0.01138980314135551500
0.01963493414223194100
-0.00380237679928541180
-0.00504724588245153430
-0.00593842426314949990
0.01396825630217790600
0.01852143928408622700
-0.01132174115628004100
-0.00442121736705303190
0.00614574644714593890
0.00050516630290076137
0.01980696804821491200
0.01564016751945018800
-0.00879184436053037640
0.01059068180620670300
-0.00789805594831705090
-0.00242901407182216640
0.00726136239245533940
0.01846809871494770100
0.00677719246596097950
0.00153754185885190960
-0.00930733326822519300
-0.01761871948838233900
-0.01094383560121059400
-0.01588964089751243600
-0.00060143973678350449
0.02797592431306839000
0.01829032972455024700
0.00305306329391896720
0.00541021581739187240
0.00461984053254127500
0.00808374583721160890
0.01722281239926815000
0.01138746179640293100
-0.00514539703726768490
-0.00400526169687509540
-0.01436951383948326100
-0.00900595169514417650
-0.00653109094128012660
0.01086064986884594000
0.01064411830157041500
-0.01042225770652294200
-0.02457533217966556500
-0.00600677542388439180
-0.00278711877763271330
-0.01765600964426994300
-0.00943809654563665390
-0.00068703509168699384
0.01709229685366153700
0.02408947981894016300
-0.00820796657353639600
-0.00262572546489536760
-0.00009813642827793956
0.00263004307635128500
0.00961813423782587050
0.00953528285026550290
-0.00092651607701554894
-0.02304910309612751000
0.00770925544202327730
-0.00607598200440406800
0.01459486316889524500
0.02889950759708881400
0.03315527737140655500
-0.02796688675880432100
0.00023796372988726944
-0.01344559527933597600
0.00209699501283466820
0.03194076195359230000
-0.00188565044663846490
0.00243714917451143260
-0.03096987307071685800
-0.02614088356494903600
0.00810121372342109680
-0.02721573971211910200
0.00947367399930953980
-0.00044296451960690320
0.01864276640117168400
-0.01260186918079853100
-0.01635780185461044300
0.01323909778147935900
0.04671873524785041800
0.01737298816442489600
-0.02161623910069465600
-0.02641443908214569100
0.05067525058984756500
0.00586527865380048750
-0.04102023690938949600
-0.00080564478412270546
-0.01347773149609565700
0.00772960297763347630
-0.02174838632345199600
-0.00742413895204663280
-0.02374695613980293300
-0.01889890246093273200
-0.00388952274806797500
-0.00370073597878217700
-0.00004174829882686026
-0.00353769538924098010
-0.01662211865186691300
0.00779001787304878230
-0.00266924593597650530
-0.00379815930500626560
-0.01596853137016296400
-0.00595998857170343400
-0.00451431889086961750
-0.00846839696168899540
-0.00831359438598155980
0.01324399467557668700
0.01528663933277130100
0.01363285165280103700
-0.00205728714354336260
0.00141184218227863310
0.00000936123524297727
-0.00794820580631494520
0.00511759333312511440
0.00132135662715882060
-0.00247808475978672500
0.00637656217440962790
-0.00379315484315156940
-0.00517615349963307380
0.00846994854509830470
0.00869122985750436780
-0.00491079734638333320
-0.01229900307953357700
0.01507549826055765200
0.00353677710518240930
0.01023006625473499300
-0.00163226539734750990
-0.01307597849518060700
0.01624746806919574700
0.02941049449145793900
-0.02982561290264129600
0.00227113044820725920
0.00586055684834718700
-0.00182779168244451280
-0.00489350035786628720
0.00242391484789550300
-0.00547678256407380100
0.00554830161854624750
0.00791538972407579420
0.00231795478612184520
0.00093155854847282171
-0.01160756591707468000
0.00320658413693308830
-0.00314618903212249280
-0.00062046787934377789
0.00478171370923519130
-0.00188171421177685260
0.00295275473035871980
0.00071762135485187173
-0.00714014004915952680
-0.01072592288255691500
0.00768160168081521990
-0.01903796009719371800
-0.00264767906628549100
-0.00774611392989754680
0.02260770462453365300
0.00504317879676818850
-0.00076420535333454609
0.01271133311092853500
0.02971972897648811300
-0.00125124433543533090
0.00514388643205165860
0.00702217733487486840
0.00788134802132844920
-0.00008250541577581316
-0.00881051830947399140
0.01746780611574649800
-0.01459279004484415100
-0.01640096865594387100
0.00665315426886081700
-0.00803498364984989170
-0.00201046094298362730
0.00226276949979364870
-0.01281270664185285600
0.00468798307701945300
0.00467769196256995200
0.02160049602389335600
-0.00285060005262494090
0.01064414624124765400
-0.00562925776466727260
0.00347065855748951440
0.00810870155692100520
-0.00673318980261683460
0.00603873748332262040
0.02150662429630756400
-0.01176967378705740000
-0.01429066155105829200
0.00695645250380039220
0.00571990618482232090
-0.01252962462604045900
-0.01031051110476255400
0.00084369070827960968
-0.00151030428241938350
-0.01089095324277877800
-0.00762475328519940380
0.00327516580000519750
-0.00925343949347734450
-0.01172853913158178300
-0.01838276721537113200
-0.00467408075928688050
-0.02477411925792694100
0.01340453233569860500
-0.00437194341793656350
-0.01908773742616176600
-0.00565052125602960590
0.00779507076367735860
-0.00313071231357753280
0.00867440272122621540
-0.03253440186381340000
0.00770368753001093860
0.01385800540447235100
0.00222707726061344150
-0.00130309327505528930
-0.00358338467776775360
-0.00405901484191417690
0.01324310060590505600
0.01196585316210985200
0.00422410853207111360
-0.01771470718085765800
-0.01020654942840337800
-0.01980523392558097800
-0.00507392128929495810
-0.00813615601509809490
-0.00238184304907917980
-0.00339408940635621550
-0.00179184880107641220
-0.00418856600299477580
-0.00222738971933722500
0.00502633955329656600
0.00406641932204365730
-0.00477775419130921360
0.00711755780503153800
-0.00709452666342258450
0.00734717352315783500
-0.01659468933939933800
-0.00828781444579362870
0.00487900571897625920
0.00079796905629336834
-0.02255458012223243700
0.00609125243499875070
0.00707769906148314480
0.01658000051975250200
0.00011235311103519052
0.00816752854734659190
-0.00482073705643415450
0.01789679564535617800
0.01660680584609508500
-0.00974826049059629440
-0.01148176100105047200
0.01133174635469913500
-0.00812341831624507900
0.00347773428075015540
-0.00314337247982621190
0.00662044249475002290
-0.01961497217416763300
-0.00584749644622206690
-0.00092485826462507248
-0.01548555865883827200
-0.00586473895236849780
0.00834432803094387050
-0.02110491506755352000
-0.00944292638450860980
-0.00087251822696998715
-0.00656900042667984960
0.01647917181253433200
0.00002135939394065645
-0.01119390223175287200
-0.00270741479471325870
0.01069600135087966900
0.00227555632591247560
0.00610478827729821210
0.00540735479444265370
0.00670904340222477910
-0.01401881687343120600
-0.00874590221792459490
-0.00466991961002349850
-0.01545296423137188000
-0.01318500377237796800
0.00131686776876449580
0.00225943536497652530
0.00697128009051084520
0.00446300441399216650
-0.00822879280894994740
-0.00097138993442058563
-0.00679451785981655120
0.01079914905130863200
-0.01293223444372415500
0.00668351491913199420
0.00532767130061984060
0.00923111476004123690
-0.00321134622208774090
0.00007137168722692877
-0.00014542657299898565
-0.01546659413725137700
0.00320683768950402740
0.00408356124535202980
-0.00815556384623050690
0.00586504209786653520
-0.01867991499602794600
-0.00605561863631010060
-0.00189711514394730330
-0.01120044197887182200
-0.01117514912039041500
0.00199018511921167370
-0.01417747046798467600
-0.00853956490755081180
-0.00382773834280669690
0.00137790257576853040
0.01017598528414964700
-0.01262793876230716700
0.01286401040852069900
0.00055296602658927441
-0.00084071041783317924
-0.03005222231149673500
0.00599972577765583990
