0.00392579985782504080
0.01693162322044372600
0.01467015873640775700
-0.01424756739288568500
0.02613640949130058300
0.01231888867914676700
0.00793767068535089490
0.01704390160739421800
-0.03075918927788734400
-0.02306742221117019700
-0.00382220349274575710
-0.00261738197878003120
0.01497926656156778300
-0.00059201690601184964
0.03523580357432365400
0.02847423963248729700
0.00192025618162006140
0.02850425615906715400
0.00223093433305621150
0.02933699823915958400
-0.03009654767811298400
0.01218372490257024800
0.00813653133809566500
0.01174055133014917400
0.01548191532492637600
0.02109569869935512500
0.02583637647330761000
-0.01397820096462965000
-0.01148145645856857300
-0.02428213693201541900
-0.04786280170083046000
-0.01447034906595945400
-0.01766425184905529000
-0.04537957906723022500
0.01837124489247798900
0.01142131444066762900
0.01167968008667230600
-0.01901464536786079400
0.00664613582193851470
-0.02505097351968288400
0.01944395899772644000
-0.00701543502509593960
0.00244872039183974270
0.03748400509357452400
-0.01603556983172893500
-0.02369069121778011300
0.03383499756455421400
0.00677364505827426910
-0.04033934697508812000
0.00350530073046684270
-0.00576820736750960350
0.01626768335700035100
0.02849472500383853900
0.01162613462656736400
-0.01876085437834262800
-0.00638302229344844820
0.05158989503979682900
0.00339832622557878490
0.01261141151189804100
-0.02782290056347847000
-0.02302725613117218000
0.01547935232520103500
-0.01834511570632457700
-0.01878908649086952200
0.02441978268325328800
0.00027483652229420841
-0.00125520559959113600
-0.00720425881445407870
-0.04031925648450851400
0.03136675804853439300
0.01254727318882942200
0.01994833350181579600
0.02235447987914085400
0.00841417163610458370
0.02324091084301471700
-0.00044508697465062141
0.00983031559735536580
0.00367836956866085530
0.00492609664797782900
-0.00396703043952584270
-0.00041743097244761884
-0.00328501104377210140
-0.00491462787613272670
-0.01087439339607954000
0.00293136015534400940
-0.00995642133057117460
-0.02462536469101905800
0.01516131497919559500
-0.03881733119487762500
-0.03114873915910720800
-0.00692025618627667430
-0.00140744308009743690
-0.00101720588281750680
0.01088781841099262200
-0.00401713792234659190
0.00907730404287576680
-0.00152813701424747710
-0.03072261437773704500
-0.03950512781739234900
0.02786924876272678400
-0.00609341263771057130
0.01432953961193561600
0.01069328375160694100
-0.01978877373039722400
0.00688738329336047170
-0.00539967371150851250
0.00295066996477544310
-0.05234819278120994600
-0.01547737792134285000
0.01408169977366924300
-0.02682477049529552500
0.00082140800077468157
0.01682316511869430500
-0.01501142699271440500
-0.00722335092723369600
0.02754145674407482100
0.00434632739052176480
-0.00492356903851032260
-0.04766321554780006400
0.00074420293094590306
-0.00438568042591214180
-0.00272736023180186750
0.00574304303154349330
0.02452694065868854500
0.01523213833570480300
0.01208280492573976500
-0.00120797601994127040
0.01468432974070310600
0.02094871178269386300
-0.01523813977837562600
-0.00264575378969311710
-0.02029440365731716200
0.01318285800516605400
-0.00229233573190867900
-0.01406565867364406600
-0.00864347536116838460
-0.00144988985266536470
-0.00113723194226622580
-0.00484136119484901430
-0.00714243436232209210
-0.02413654141128063200
-0.00995653495192527770
0.02773748710751533500
-0.01495949085801839800
0.00260595325380563740
-0.00546870706602931020
-0.02201729826629161800
0.00061195692978799343
0.02049619518220424700
0.00329141970723867420
0.02474591322243213700
0.00257137091830372810
0.04622904583811759900
0.00466633168980479240
-0.02206290140748024000
-0.00266710505820810790
-0.01198227796703577000
-0.01651223190128803300
0.00887003075331449510
0.01582705043256282800
-0.01489264238625764800
-0.01060862746089696900
0.01076832413673400900
-0.00476689543575048450
0.03421749547123909000
-0.03779683634638786300
-0.00806562881916761400
0.01125039160251617400
0.01271521952003240600
-0.01975159347057342500
0.02936528809368610400
0.00226487102918326850
0.02148874290287494700
-0.01914625428617000600
-0.02998403646051883700
0.01918429695069789900
-0.01926873438060283700
-0.01943685114383697500
-0.01258555427193641700
0.00186103978194296360
-0.01266277395188808400
-0.02969898283481597900
0.01725939102470874800
-0.02262616902589798000
-0.01525815483182668700
0.01593773998320102700
-0.00313638849183917050
-0.03329516574740409900
0.01203450746834278100
0.01229755766689777400
0.00774271460250020030
0.02157508209347724900
0.00459130015224218370
0.01531429216265678400
-0.00596505030989646910
-0.00974606443196535110
-0.00073648773832246661
-0.00691817468032240870
-0.02070773392915725700
-0.00519288377836346630
-0.01414083037525415400
-0.01262718997895717600
-0.01076353248208761200
0.00151018612086772920
0.02869855798780918100
-0.02757586538791656500
0.01656070537865161900
-0.00851871073246002200
-0.00813048612326383590
0.00334312464110553260
-0.01574999839067459100
0.02337551116943359400
0.03513460978865623500
-0.02956808544695377300
0.00131490640342235570
0.00211360771209001540
-0.00695892469957470890
-0.01126510463654995000
-0.03785801306366920500
0.01042779162526130700
-0.01001006923615932500
0.00986314564943313600
-0.00730671035125851630
-0.01959314383566379500
0.00342307053506374360
0.03447146341204643200
-0.02562445588409900700
0.00867914315313100810
0.01398552395403385200
0.01505337189882993700
-0.02905690856277942700
-0.01422925759106874500
0.01096802484244108200
-0.01901906169950962100
-0.00071627937722951174
-0.04897510260343551600
0.00144337234087288380
0.03628280758857727100
0.03871959447860717800
-0.01245495397597551300
-0.00796036887913942340
0.02140600234270095800
0.00311100482940673830
-0.03226915746927261400
-0.01006689388304948800
-0.01771129667758941700
-0.00181676179636269810
-0.00086068490054458380
0.03125952556729316700
-0.01428167894482612600
0.00362375774420797820
-0.00225278921425342560
0.02121839672327041600
-0.02236203476786613500
-0.01118562184274196600
-0.01526588294655084600
0.00380944740027189250
-0.00836951751261949540
0.01083333045244216900
0.01031642407178878800
0.01886795088648796100
0.01390348188579082500
0.02560184150934219400
-0.03058329038321971900
-0.01188380736857652700
0.03623266145586967500
0.00722207501530647280
-0.00806946121156215670
-0.01273595076054334600
-0.00944927148520946500
-0.01255410537123680100
0.00444844691082835200
-0.00112347060348838570
0.01736277714371681200
0.00893028546124696730
0.02843998186290264100
0.02261979505419731100
-0.00699798157438635830
-0.02724253758788108800
0.01337889488786459000
0.01246018055826425600
-0.01553554181009531000
-0.02812099456787109400
-0.00866234023123979570
0.01505473256111145000
-0.00923229567706584930
0.01082481816411018400
0.00610428443178534510
0.02669607661664485900
0.00230920291505753990
-0.00404752325266599660
0.00929752830415964130
0.01220823451876640300
0.01336372178047895400
0.00836734380573034290
0.04400976747274398800
-0.01699684187769889800
-0.01048206258565187500
0.00996892713010311130
-0.01025134883821010600
0.01637238822877407100
0.02687261067330837200
0.01373723614960908900
0.00167902070097625260
-0.00362602248787879940
0.01772502250969409900
-0.01479463465511798900
0.01310196798294782600
-0.00115581555292010310
0.01887238770723342900
-0.00530247157439589500
0.02456317469477653500
-0.01455484610050916700
-0.01548855751752853400
-0.03155520558357238800
-0.00416966434568166730
0.00001383232392981881
0.01434841938316822100
0.01726064085960388200
-0.00484996614977717400
-0.00975948665291070940
0.00342908478341996670
-0.00887330807745456700
-0.02439823932945728300
0.00054862251272425056
0.02558133006095886200
-0.02664782851934433000
0.00238958839327096940
0.02487033419311046600
0.00399931194260716440
-0.03268451243638992300
-0.00225650821812450890
0.00441264687106013300
-0.00212940620258450510
0.00441900733858346940
0.00178132043220102790
-0.01529523450881242800
-0.01302600279450416600
0.01392679102718830100
0.03211487829685211200
0.00554450182244181630
0.04160523787140846300
-0.01210060343146324200
-0.00590825779363512990
-0.00003323823693790473
0.04485873505473136900
0.00908022187650203700
0.00553606403991580010
0.02288884855806827500
-0.01718112640082836200
-0.01149115897715091700
0.03830001503229141200
-0.00083107169484719634
0.03283948823809623700
0.03622560203075408900
0.01579417288303375200
-0.01537000946700573000
-0.01884122937917709400
0.00957785081118345260
-0.00766907632350921630
0.02067183330655098000
0.00702182529494166370
-0.00705627445131540300
0.03571370989084243800
0.01391230989247560500
-0.01900216937065124500
-0.01212767418473959000
-0.00924233254045248030
0.00955374259501695630
-0.02552777342498302500
-0.02897917479276657100
-0.00146881234832108020
-0.03307158127427101100
0.00268012797459959980
-0.01422319374978542300
-0.01600400358438491800
-0.00730273732915520670
0.00851256400346755980
0.00156022887676954270
0.00582288159057497980
-0.00489029567688703540
0.01011699903756380100
0.02033362537622451800
-0.01984031312167644500
-0.06344299763441085800
-0.02745300345122814200
0.00607611332088708880
-0.00132042414043098690
0.02871376276016235400
-0.00617265980690717700
0.00161888403818011280
0.00486468710005283360
-0.00084065512055531144
-0.03783646970987319900
-0.00533348834142088890
-0.01413102727383375200
-0.01879539526998996700
0.01822615787386894200
-0.00204289844259619710
0.01277135033160448100
0.02036185748875141100
0.01397843658924102800
0.00410161400213837620
0.01249747723340988200
0.00610000779852271080
0.00706519745290279390
0.02821047045290470100
0.01343627180904150000
0.00324032898060977460
0.02453446015715599100
0.00722547434270381930
0.01263407245278358500
-0.03218232095241546600
0.00254200026392936710
-0.02376128919422626500
0.03769271448254585300
-0.03163175284862518300
-0.01820258609950542400
-0.01896281540393829300
0.00211603916250169280
0.00767392246052622800
-0.02854716405272483800
-0.02438759617507457700
-0.02043896168470382700
-0.01349524781107902500
-0.02294512838125228900
-0.01190579496324062300
-0.03302562981843948400
-0.02285143919289112100
0.02913776226341724400
-0.00871950201690196990
-0.02493592724204063400
-0.04390064999461174000
0.00754211423918604850
0.01095414534211158800
-0.00951188523322343830
0.02073739841580390900
-0.00511693768203258510
-0.00773138552904129030
-0.01153141167014837300
-0.01476257573813200000
-0.01597617194056510900
-0.01973530836403369900
0.00991280935704708100
0.01332321576774120300
-0.01446025632321834600
0.01604970917105674700
-0.00817086733877658840
-0.02031170018017292000
-0.01535241212695837000
-0.00844004284590482710
-0.00748747913166880610
-0.01188265439122915300
-0.01896607689559459700
-0.00951416231691837310
-0.00633003748953342440
0.00891960039734840390
-0.01312980148941278500
0.01114364992827177000
0.02281580679118633300
-0.00991285406053066250
0.01262368727475404700
-0.01214656978845596300
-0.00239359494298696520
0.03565034270286560100
-0.00296643492765724660
-0.02022588998079299900
0.01450030039995908700
-0.00919726211577653880
-0.01698134280741214800
-0.00632560532540082930
-0.00738158077001571660
0.00813918001949787140
0.01823605597019195600
-0.01760481670498848000
-0.00630424031987786290
0.02506331354379653900
0.04658552259206771900
0.02642709948122501400
0.00528171053156256680
0.03014613129198551200
-0.00812608469277620320
0.03778252378106117200
-0.03277991712093353300
0.00331640709191560750
-0.00394063303247094150
0.00410253368318080900
-0.02591009810566902200
-0.01842890866100788100
-0.03867823630571365400
0.00929833110421895980
0.01835084334015846300
-0.00506947981193661690
-0.00829653441905975340
0.01011238060891628300
0.02414270117878913900
0.04102287441492080700
0.00225121411494910720
-0.00575538165867328640
0.01675777882337570200
-0.01479547563940286600
0.00601078663021326070
-0.00480574043467640880
0.04449113830924034100
0.01258495356887579000
-0.03462469577789306600
-0.01429231185466051100
-0.00264246878214180470
0.00595514941960573200
-0.00158520427066832780
-0.00873507186770439150
0.00545687880367040630
-0.01804107241332531000
0.02877368405461311300
-0.00361152365803718570
0.02228753827512264300
-0.00326462602242827420
-0.00658280635252594950
0.03296037763357162500
0.00430695060640573500
-0.03524701669812202500
-0.01599802821874618500
0.00475865835323929790
-0.01644432917237281800
0.02570131234824657400
-0.01281115878373384500
-0.01841934770345687900
-0.00100196001585572960
0.02820865064859390300
0.00091983057791367173
-0.01056121289730072000
0.00280564278364181520
0.00999841839075088500
0.03050992265343666100
0.01000598724931478500
0.01301944721490144700
0.00000030190003030839
0.00150130060501396660
0.00350070116110146050
0.02006556652486324300
-0.01952055282890796700
0.02035054564476013200
-0.03425225615501403800
-0.00067677930928766727
0.04486800357699394200
0.00755944289267063140
-0.02406579628586769100
0.03682444617152214100
0.00956150237470865250
0.00668344320729374890
0.00575190316885709760
-0.02886210568249225600
0.03133073449134826700
0.01354750804603099800
-0.01173751335591077800
-0.00916532147675752640
0.02924394235014915500
0.02570278570055961600
0.04357734322547912600
0.00611206563189625740
-0.02143721282482147200
-0.01378768961876630800
-0.01872536353766918200
-0.00269722077064216140
0.01090297289192676500
-0.02026228420436382300
0.01904905959963798500
-0.02448341250419616700
0.00604909146204590800
-0.00712526636198163030
-0.01120011322200298300
-0.02046664431691169700
0.00988038163632154460
-0.02278787642717361500
0.01498724706470966300
0.00166242523118853570
0.00965477339923381810
-0.01345064491033554100
0.00123318866826593880
-0.00748637877404689790
-0.01640315912663936600
-0.02063745446503162400
0.02546274848282337200
-0.00491458084434270860
-0.01573139429092407200
0.00856302119791507720
0.01715195365250110600
-0.00354928779415786270
0.01612749695777893100
0.00034254716592840850
-0.00785093009471893310
-0.00245769624598324300
0.01141029037535190600
0.01538024377077817900
0.02330098301172256500
-0.01967927068471908600
0.01055283099412918100
0.02804782800376415300
0.01508181355893611900
-0.00179582799319177870
0.01666847243905067400
-0.01739620231091976200
-0.01359167508780956300
-0.00876272656023502350
0.02156221680343151100
-0.00350878247991204260
0.00114287447649985550
0.00134506425820291040
-0.00984538346529006960
-0.03034989163279533400
0.01367736607789993300
-0.01191592589020729100
0.01632401160895824400
-0.01320050656795501700
0.01619656942784786200
-0.03465842083096504200
0.01091082673519849800
-0.01156347896903753300
0.00424563558772206310
0.04695374146103858900
0.00125950714573264120
0.01566466875374317200
-0.02463795989751815800
0.00511095626279711720
0.01356633938848972300
-0.00796651653945446010
0.03055792115628719300
0.02545263245701789900
0.01929995045065879800
0.00762708159163594250
0.01878469251096248600
0.02855904214084148400
-0.00910830870270729060
0.00504017109051346780
0.00498176133260130880
0.00433554919436573980
-0.01828305050730705300
0.03921192884445190400
0.01652244850993156400
0.02183609083294868500
-0.00617106864228844640
0.02410595677793026000
0.01618461310863494900
0.01511017698794603300
-0.00952011346817016600
0.00589012540876865390
-0.04178004339337348900
0.00071650120662525296
-0.00794162042438983920
-0.01461507659405469900
-0.02213371917605400100
-0.00973383896052837370
-0.03638845682144165000
-0.01472365297377109500
-0.00185419910121709110
-0.02864503674209117900
0.01981781050562858600
0.03738807141780853300
-0.00475289253517985340
0.03307070955634117100
0.01176102180033922200
0.00575039489194750790
-0.00624645361676812170
0.04981019347906112700
0.00671159010380506520
-0.00970724597573280330
-0.03865639492869377100
-0.00598487304523587230
-0.00173560227267444130
-0.01012801006436348000
-0.04619687795639038100
0.03163298591971397400
-0.04673662781715393100
-0.02221630513668060300
-0.02501056157052516900
-0.01107061561197042500
0.00160644913557916880
-0.00400552060455083850
0.00885277613997459410
-0.00848880130797624590
-0.03266174346208572400
0.01036338228732347500
0.00180256133899092670
0.05693872272968292200
0.01164512708783149700
0.00024093905813060701
0.01527422200888395300
-0.01668186858296394300
-0.03764205053448677100
0.01085356809198856400
0.00361435301601886750
0.01017929706722497900
-0.04353823885321617100
0.00624511763453483580
-0.01173017080873251000
-0.00220866943709552290
-0.00268926657736301420
0.01753671653568744700
0.01685528643429279300
0.00542802689597010610
0.00646926369518041610
0.00221353629603981970
0.01160947047173976900
0.00320694362744688990
0.02036690339446067800
-0.02286761999130249000
0.01332315709441900300
-0.00718726823106408120
-0.02226360887289047200
-0.03193322941660881000
0.03671608120203018200
0.01668946444988250700
-0.02600626461207866700
-0.02167564444243907900
0.03482250124216079700
0.01873263902962207800
0.00400306843221187590
-0.00771921826526522640
0.00036805242416448891
0.00226501422002911570
-0.01975581608712673200
-0.00467967381700873370
0.01321019046008586900
-0.00272360933013260360
-0.02837160043418407400
0.01686405763030052200
0.02452284842729568500
0.01547693740576505700
-0.01126135513186454800
0.00167020515073090790
0.01945301517844200100
-0.01230774633586406700
-0.01991904340684413900
0.01200417615473270400
0.01180302817374467800
-0.01738648861646652200
0.01830033585429191600
-0.02541803754866123200
-0.02322147972881794000
-0.01889358647167682600
-0.03843365237116813700
-0.00756766926497220990
-0.03583272174000740100
0.01553893089294433600
0.04001224040985107400
0.00781496241688728330
0.01554759033024311100
0.02425418980419635800
-0.03957550227642059300
0.00686372164636850360
-0.00963700748980045320
-0.00657062930986285210
0.03108159825205802900
-0.04129131138324737500
0.00318983499892055990
-0.02093026600778102900
-0.01969549804925918600
-0.01778988912701606800
-0.00715270079672336580
0.02948646992444992100
0.00891053583472967150
-0.01572779379785060900
0.02023387141525745400
-0.00727114267647266390
-0.01592922769486904100
0.02522406913340091700
0.01544666383415460600
0.01354474667459726300
-0.01669408939778804800
-0.01761533692479133600
-0.00792031083256006240
-0.00394182978197932240
0.04379343986511230500
0.00220040837302803990
-0.00181071215774863960
-0.01645713113248348200
-0.00081376021262258291
0.02218123897910118100
-0.00299819419160485270
-0.00987892597913742070
0.01359186973422765700
0.00521808583289384840
-0.00168384576682001350
0.02067078277468681300
0.01047763321548700300
-0.00938046816736459730
-0.01050076074898243000
0.00342264631763100620
-0.01831876672804355600
-0.00302946916781365870
-0.03516881912946701000
0.01801243796944618200
0.01199966203421354300
-0.01027302816510200500
0.01301107928156852700
-0.00169643876142799850
-0.00904184114187955860
0.00791934411972761150
-0.02684405259788036300
0.02735621295869350400
0.00995028764009475710
0.00592841487377882000
-0.00322023709304630760
0.02982872538268566100
-0.01441101171076297800
-0.01628974452614784200
-0.00574325211346149440
0.02801046520471572900
0.01843120902776718100
-0.00840193778276443480
-0.01060716435313224800
0.00076627754606306553
0.01160525064915418600
0.00093668152112513781
-0.00745719484984874730
0.00797786470502614970
-0.03837203979492187500
-0.02151519805192947400
-0.02676168084144592300
-0.00514595676213502880
0.01139636803418397900
-0.01433926355093717600
0.00877059344202280040
0.01056873891502618800
-0.01868343725800514200
0.01036433503031730700
-0.00643826369196176530
0.00831645261496305470
0.00084078492363914847
0.01020304020494222600
-0.03840066865086555500
0.03637619316577911400
0.01524187996983528100
0.00602890504524111750
-0.00879698246717453000
0.01236341521143913300
-0.03088894113898277300
0.00223873625509440900
0.02018652297556400300
0.02891927398741245300
-0.00720587326213717460
0.00914980843663215640
0.00695304619148373600
0.00907179154455661770
0.00349644129164516930
-0.04434392228722572300
0.00011866422573802993
-0.02618020772933960000
-0.00157660897821187970
-0.00802237540483474730
-0.01243980694562196700
-0.01029807608574628800
0.04025897383689880400
-0.03820075094699859600
0.01791337691247463200
0.01400146540254354500
-0.01329291518777608900
-0.01186955627053976100
0.01103047002106905000
0.03195918351411819500
0.01410283707082271600
0.01502595283091068300
0.03787309303879737900
0.02047686651349067700
0.01091722492128610600
-0.00175870268139988180
-0.00839501060545444490
-0.04020325466990470900
0.02132362499833107000
-0.00966218765825033190
-0.01350803859531879400
-0.00890709180384874340
0.01733790524303913100
0.04879896715283393900
0.04092344269156456000
0.00446257553994655610
0.03070505522191524500
-0.00268709007650613780
0.00448480201885104180
-0.00117775727994740010
-0.00391680374741554260
0.00538671109825372700
0.01400348637253046000
0.02429819479584693900
0.02408049628138542200
-0.00533370487391948700
-0.00279953447170555590
-0.02186715789139270800
-0.02362408861517906200
0.02270454913377761800
0.00090292189270257950
-0.00766360806301236150
-0.05005317181348800700
0.02852389216423034700
-0.00266736978664994240
0.00863389205187559130
0.04940267279744148300
-0.00610901368781924250
-0.01331017445772886300
0.01485684141516685500
0.03006014786660671200
-0.00777682103216648100
0.00890911836177110670
0.00384241063147783280
0.01804346591234207200
0.02005944773554801900
0.02060985192656517000
0.01365230325609445600
0.00577388750389218330
-0.02585788629949092900
-0.01060557924211025200
-0.01484705042093992200
-0.03495377674698829700
-0.01664694212377071400
0.02502624131739139600
0.00675687566399574280
0.03027647547423839600
0.02265439555048942600
0.01185125112533569300
0.01733669266104698200
-0.02908810973167419400
-0.01275467500090599100
0.04679024592041969300
0.00714972009882330890
0.02961050346493721000
0.04323541745543479900
0.01824463531374931300
0.01057290006428957000
0.00411343993619084360
-0.02287172898650169400
0.01987549476325511900
-0.00773876020684838290
-0.02907844446599483500
0.03362029045820236200
-0.00154180522076785560
-0.00639618095010519030
0.02270844206213951100
-0.04435666278004646300
0.00798544660210609440
0.00318582472391426560
0.01090370304882526400
0.00115859496872872110
-0.00289854896254837510
-0.00268643908202648160
-0.01097251847386360200
-0.01098860800266265900
0.02193046361207962000
0.01246354822069406500
-0.01362856663763523100
0.00326575967483222480
0.00118400214705616240
-0.00444792537018656730
-0.01491877064108848600
0.01554655004292726500
-0.01010054536163806900
0.02200452610850334200
0.00770621513947844510
0.00467880675569176670
-0.01111604738980531700
-0.00433254754170775410
0.00337265990674495700
0.01272848807275295300
-0.00916357245296239850
0.01670653000473976100
-0.00496564107015728950
0.00544943148270249370
-0.01483757607638835900
0.02333623543381691000
0.02168682962656021100
-0.03060127794742584200
-0.01805893518030643500
0.02091769874095916700
0.02292821928858757000
-0.02969853952527046200
0.00047267859918065369
-0.00258941878564655780
0.00787810143083333970
-0.02807269617915153500
-0.00264253257773816590
-0.04512181878089904800
-0.00072053243638947606
0.01869936473667621600
-0.00209404109045863150
-0.00480914721265435220
0.00097518676193431020
0.00009683811367722228
-0.04796022921800613400
0.01807598583400249500
-0.01111852005124092100
0.00777491973713040350
-0.02199430018663406400
0.00800044462084770200
0.02933863922953605700
-0.00428170943632721900
0.00908195693045854570
0.03234108909964561500
-0.01339054200798273100
0.00104094750713557000
-0.02759627252817153900
-0.00449503399431705470
-0.00312446011230349540
0.05250754952430725100
0.02361878380179405200
-0.00119014689698815350
-0.00282510905526578430
0.01930489949882030500
0.00326068070717155930
-0.04137912020087242100
-0.01106620021164417300
0.01392559055238962200
-0.00996410194784402850
0.00447695795446634290
0.05070429667830467200
0.01892383210361003900
0.01213509496301412600
-0.01916502416133880600
-0.02888937108218669900
0.01106283999979496000
-0.00118632451631128790
0.01441227272152900700
-0.01102065108716487900
0.01824514754116535200
0.01817692816257476800
-0.01053751353174448000
-0.01798665337264537800
-0.00022009214444551617
-0.04203777760267257700
0.00748440390452742580
0.01190684176981449100
0.00720164272934198380
0.01940509304404258700
0.02249838225543499000
-0.00078740570461377501
-0.00046999155892990530
-0.03724953532218933100
-0.01607650890946388200
0.00445824069902300830
-0.02457480318844318400
-0.02155383490025997200
0.02598557807505130800
0.02362884767353534700
0.01947562396526336700
-0.00648396415635943410
-0.02318490669131279000
0.02150534093379974400
0.02565112151205539700
0.00251710647717118260
0.03730904683470726000
-0.01308301184326410300
-0.00459337001666426660
-0.00515143573284149170
0.02653429470956325500
0.00801440514624118800
0.02777018398046493500
0.00638391543179750440
-0.00278807361610233780
-0.01342678256332874300
-0.01346248295158147800
-0.08295385539531707800
-0.01343747042119503000
-0.01019298471510410300
-0.00133652542717754840
0.01611051894724369000
0.01667994819581508600
0.00089883455075323582
-0.02708488702774047900
-0.02785090543329715700
-0.00386847043409943580
-0.02618519030511379200
-0.01697345264256000500
0.00139918480999767780
0.00280299573205411430
0.00789381936192512510
-0.00052121753105893731
0.02248912677168846100
-0.00357260787859559060
0.02309089526534080500
0.00189785531256347890
0.00679548829793930050
0.04292857646942138700
-0.00747677776962518690
0.02517301030457019800
-0.00802980177104473110
-0.00603744341060519220
0.01291289180517196700
0.03795425593852996800
0.00741309672594070430
-0.01985973864793777500
-0.01418952737003564800
0.01250337064266204800
0.00839814450591802600
0.00171417067758738990
-0.00344293680973351000
-0.00106648262590169910
-0.04200260341167450000
0.03272227570414543200
0.01507766637951135600
0.02732688561081886300
-0.01689428649842739100
-0.00468820100650191310
0.00073446152964606881
0.04291539639234542800
0.00740732392296195030
-0.01235144957900047300
-0.00327678397297859190
-0.04716998338699340800
0.01386489532887935600
-0.02971863560378551500
0.01680109091103076900
0.00580627005547285080
-0.01343179307878017400
0.02974172495305538200
-0.00954666174948215480
-0.00787360407412052150
0.04486394673585891700
0.05063264816999435400
0.00221281615085899830
-0.00076614163117483258
-0.00334165454842150210
-0.07129051536321640000
0.01462769694626331300
-0.05603932216763496400
-0.01833261363208293900
-0.00289780413731932640
0.00528089189901947980
-0.00498907826840877530
-0.00391375133767724040
-0.03125298395752906800
-0.03772500529885292100
-0.01955944299697876000
0.00644201133400201800
-0.02378546260297298400
0.00954115204513072970
-0.01405661925673484800
0.01450046151876449600
-0.00172445538919419050
0.01586525142192840600
0.01955805532634258300
0.04290774092078208900
0.04054398834705352800
-0.01946843601763248400
-0.00743066472932696340
-0.01320122741162776900
0.00683828769251704220
0.00125952321104705330
-0.03010797314345836600
0.03714883700013160700
0.01351468078792095200
-0.01144550833851099000
-0.00032122718403115869
-0.02993436343967914600
0.00070723937824368477
0.02761521562933921800
-0.00423048855736851690
0.03726242110133171100
0.02730175480246543900
0.00137582316529005770
-0.03003484196960926100
0.04037025198340416000
0.00442141387611627580
0.02155361138284206400
-0.02710180170834064500
0.00200976058840751650
-0.02254882082343101500
-0.00538631109520792960
-0.03108000382781028700
0.03773181512951850900
-0.02872571907937526700
-0.00902761146426200870
-0.01015657186508178700
0.01159250829368829700
0.00729789957404136660
0.01141051389276981400
0.03591493517160415600
-0.00891890376806259160
0.01444994471967220300
-0.01813290640711784400
-0.01015950646251440000
0.00270798266865313050
0.00697633903473615650
-0.01039707381278276400
0.03535940125584602400
0.00368065992370247840
0.00477196089923381810
-0.01497109327465295800
0.00131025793962180610
0.01856762170791626000
-0.01845413073897361800
-0.01845693588256835900
0.03247874602675437900
-0.02502666041254997300
-0.01840768009424209600
0.00814874377101659770
0.00053179037058725953
0.03011137992143631000
0.02095862105488777200
0.04151850938796997100
0.01775013655424118000
-0.02752526476979255700
0.03359336778521537800
0.00825369171798229220
0.01233216281980276100
0.01578854583203792600
-0.00574394967406988140
-0.02153668925166130100
-0.01075404696166515400
-0.02146070636808872200
-0.02202323637902736700
-0.05240834504365921000
0.03622049838304519700
0.01668612472712993600
0.04019036516547203100
-0.00833113305270671840
0.02808646298944950100
-0.00455242348834872250
0.01738930307328701000
-0.02878034673631191300
-0.02704283967614173900
-0.00714082922786474230
0.04328033700585365300
-0.01881773397326469400
0.01824432797729969000
0.03391656279563903800
0.01295897923409938800
0.03104835748672485400
-0.00303060980513691900
0.00845879968255758290
0.02801797911524772600
0.03364058956503868100
0.05709421634674072300
-0.01673230342566967000
-0.00963219907134771350
-0.00114372093230485920
-0.02648421749472618100
-0.01510450989007949800
0.01365865301340818400
-0.00344006018713116650
-0.03558289632201194800
0.00066267210058867931
0.00544969039037823680
-0.01203933358192443800
0.01709124259650707200
-0.00711735850200057030
0.00447489740327000620
0.00010699965787352994
0.03058544173836708100
0.04549157619476318400
0.01606790348887443500
-0.03833222761750221300
0.02512373588979244200
-0.02229052782058715800
0.00343486270867288110
-0.00799408368766307830
0.00204509985633194450
-0.00842443387955427170
0.00482750963419675830
0.02389488928020000500
-0.04096974059939384500
-0.02296709641814231900
-0.03678182885050773600
-0.01551225781440734900
-0.00521835824474692340
-0.02133493870496749900
0.00239268713630735870
-0.05359514430165290800
0.02029217593371868100
0.00522105209529399870
-0.00386138912290334700
-0.04506583511829376200
0.02784860506653785700
-0.02108687162399292000
-0.00195151881780475380
0.01387442741543054600
0.03314220160245895400
0.00978033337742090230
0.04078516364097595200
0.02306559868156909900
0.03316625952720642100
0.02218137122690677600
0.01433747075498104100
0.00735740317031741140
0.00053476047469303012
0.00161498039960861210
-0.00834770314395427700
0.01371825672686100000
-0.03743927925825119000
0.02956043928861618000
0.04068494960665702800
-0.00745613221079111100
-0.02315122075378894800
0.01858708448708057400
-0.00347075983881950380
-0.00122181815095245840
-0.00738114863634109500
0.02202856354415416700
-0.00189307029359042640
0.02484386600553989400
0.04590056836605072000
0.01126805599778890600
-0.02379004471004009200
-0.05358012765645980800
-0.01896038278937339800
-0.02052838727831840500
0.00786902848631143570
-0.00336398463696241380
-0.06034937873482704200
-0.00283857202157378200
-0.04304452985525131200
-0.00482293218374252320
0.02570014260709285700
-0.00728096207603812220
-0.02563043497502803800
0.01555793266743421600
-0.05411445721983909600
-0.03659234941005706800
-0.02542530372738838200
-0.01526478119194507600
0.00618268875405192380
0.01056750491261482200
0.02730404585599899300
-0.00554930977523326870
-0.01221354026347398800
-0.00287349871359765530
0.03267344832420349100
0.00518780574202537540
0.05097515508532524100
0.01978654041886329700
0.02251495420932769800
-0.00156564754433929920
-0.03447411581873893700
-0.00269412156194448470
0.00548678683117032050
0.01393111515790224100
0.00065132963936775923
0.03645759448409080500
0.00420287717133760450
-0.00005000692908652127
0.04250118136405944800
0.04371223971247673000
0.01619125902652740500
0.00940211955457925800
0.01584529317915439600
-0.01497417595237493500
0.01513258088380098300
0.01642450131475925400
0.01009030174463987400
0.01065726391971111300
-0.01924395747482776600
-0.06645014137029647800
-0.03660542145371437100
0.01304808910936117200
0.01568778976798057600
0.03607678040862083400
0.00365221477113664150
0.01698626391589641600
-0.04344694688916206400
0.01237190049141645400
-0.03320254385471344000
0.00061065179761499166
0.00468301540240645410
0.02654952183365821800
-0.02357410266995430000
0.01549401320517063100
0.02748215198516845700
-0.00138975377194583420
0.01130306348204612700
-0.01251241564750671400
0.01228770334273576700
-0.00106098712421953680
0.03562838211655616800
-0.00009243517706636339
0.00417876616120338440
-0.02587990835309028600
0.03343949466943740800
0.01925419084727764100
-0.02557910233736038200
-0.02644327469170093500
0.00651892507448792460
0.00877800956368446350
0.00748703069984912870
-0.00963604915887117390
-0.01279831957072019600
0.01146577578037977200
-0.02180748432874679600
-0.02873447909951210000
0.00747952470555901530
-0.00478848069906234740
0.00849162600934505460
0.05269741639494895900
-0.01826597005128860500
-0.00908273737877607350
0.00551377329975366590
-0.01703029870986938500
0.01122823450714349700
0.00553342700004577640
-0.00182885548565536740
0.00387225160375237460
-0.00051509344484657049
0.00745859788730740550
-0.01991390436887741100
0.00265822326764464380
0.00729545159265398980
-0.00147778412792831660
-0.00715560605749487880
-0.00145150290336459880
-0.02139083854854106900
0.03210133686661720300
0.01300796587020158800
-0.02606947720050811800
-0.03959187865257263200
-0.00813567265868186950
0.05560226738452911400
-0.01028572022914886500
-0.02029613591730594600
0.04319166019558906600
0.03734811767935752900
-0.02668693847954273200
0.01874679699540138200
-0.05518823489546775800
-0.02762495726346969600
-0.04594599455595016500
-0.00311692897230386730
0.00862957630306482320
0.00858256127685308460
-0.00463558733463287350
-0.02861023694276809700
0.00321608781814575200
0.00383422337472438810
-0.02420868910849094400
0.00749604543671011920
-0.00808528438210487370
0.03552646934986114500
-0.01232319977134466200
0.00054380716755986214
0.00022760087449569255
-0.01470808871090412100
0.01806127652525901800
0.02544997259974479700
-0.00526169780641794200
0.01937860809266567200
0.00887053273618221280
0.00027386419242247939
-0.00312960962764918800
0.00167838705237954850
-0.01237508002668619200
0.01513774134218692800
-0.01595564745366573300
-0.01822647824883461000
-0.01022591907531023000
-0.02309594117105007200
-0.03152063116431236300
-0.00282612745650112630
-0.02428634651005268100
0.03290615975856781000
0.00182346685323864220
0.00360917695797979830
-0.02306457981467247000
0.04090058803558349600
-0.03614453598856926000
-0.00894745159894227980
0.01989466883242130300
-0.01752153597772121400
0.00276795891113579270
-0.01345202233642339700
-0.01629528403282165500
-0.02322783321142196700
0.01880143769085407300
0.01284742821007967000
-0.00124005938414484260
-0.05328196659684181200
-0.00913835875689983370
0.00749137159436941150
-0.01900279708206653600
0.00628399522975087170
0.01558172516524791700
0.03995030000805854800
0.03771083429455757100
-0.04684074223041534400
-0.01797387376427650500
-0.05457555875182151800
-0.00242685247212648390
-0.00135299121029675010
0.00615966646000742910
0.00499827368184924130
-0.00942375697195529940
-0.00002731936729105655
0.01747877337038517000
0.02257445082068443300
-0.02218441665172576900
0.02893781661987304700
0.01914862170815467800
-0.03198018297553062400
-0.02977002784609794600
0.03245359659194946300
-0.02234760113060474400
-0.01194915454834699600
0.02542595192790031400
-0.01478508207947015800
-0.00402429746463894840
-0.01255279220640659300
-0.03820199146866798400
0.01037961151450872400
-0.01834383234381675700
0.00369528867304325100
-0.01261526066809892700
0.02393696084618568400
0.04099278151988983200
0.02394276112318038900
-0.00713099399581551550
-0.03441329300403595000
-0.01224088761955499600
-0.02746611833572387700
0.01118770241737365700
-0.01887427270412445100
-0.01430388074368238400
0.03945037722587585400
0.02683240547776222200
-0.01062343828380107900
-0.03395350649952888500
0.01553336530923843400
-0.01558823324739933000
0.01967929489910602600
-0.01043001562356948900
0.02094840444624424000
-0.00434382306411862370
-0.04126480221748352100
-0.00470365211367607120
-0.02339893020689487500
-0.00076976470882073045
0.00692418217658996580
0.01617526821792125700
0.02132931165397167200
0.01076876651495695100
-0.02108439803123474100
-0.00701325060799717900
0.01496537867933511700
-0.04854495823383331300
0.03420896083116531400
0.01047620456665754300
0.02193477191030979200
0.00756366038694977760
-0.03869920596480369600
0.01641790755093097700
-0.01757795922458171800
-0.00802180171012878420
-0.04346838966012001000
0.01087370049208402600
0.00309449527412652970
-0.03840301558375358600
-0.02308689802885055500
-0.01992542296648025500
0.02766377478837966900
-0.02375108376145362900
0.01322454027831554400
-0.01840993948280811300
0.00434800097718834880
-0.01081181596964597700
0.01114058587700128600
-0.02366224490106105800
0.02380124665796756700
0.02312935329973697700
-0.00221552769653499130
-0.02384569868445396400
-0.03495886921882629400
-0.00525354035198688510
0.00142171198967844250
0.01332115381956100500
-0.03037041425704956100
-0.01759947091341018700
-0.02255497872829437300
-0.01121158245950937300
-0.03317152336239814800
-0.02615267410874366800
0.04021076485514640800
-0.04066995531320571900
-0.03164822608232498200
0.02510698884725570700
-0.02740624174475669900
0.00825389660894870760
-0.01728570088744163500
0.01322775986045599000
-0.01228016242384910600
0.01827092655003070800
0.00255361874587833880
-0.00728068780153989790
0.01682447269558906600
0.01354652084410190600
-0.01192063279449939700
-0.00907898414880037310
-0.00612920010462403300
0.03697144985198974600
0.03962671756744384800
0.02525426447391510000
-0.00317116058431565760
-0.01908952184021472900
-0.00567174330353736880
-0.03550086170434951800
-0.01290649175643920900
0.02715669199824333200
-0.00686489650979638100
0.02764225378632545500
0.02403289452195167500
0.03575366362929344200
0.01781828887760639200
-0.01135473325848579400
-0.01142344903200864800
0.04267026484012603800
0.01471354719251394300
0.00030884373700246215
0.03599839285016059900
-0.00748687656596302990
-0.02750982157886028300
-0.00863528344780206680
0.07376348972320556600
0.01989557780325412800
-0.04334625974297523500
-0.01491537224501371400
-0.00004701908619608730
0.04959437623620033300
0.01739605702459812200
0.01526873372495174400
0.03555235266685485800
0.00908978004008531570
0.03970767185091972400
-0.03554112091660499600
-0.04037881270051002500
-0.02515796944499015800
-0.01768519543111324300
-0.02306840941309928900
0.00270105083473026750
-0.02621449157595634500
-0.01415639184415340400
-0.03115681931376457200
0.03828862681984901400
-0.00985841825604438780
0.00757824815809726720
-0.00604547141119837760
0.02054858766496181500
-0.05284731090068817100
0.00276616238988935950
0.01664888486266136200
0.00168905255850404500
-0.01036208868026733400
0.01175438426434993700
-0.00582792190834879880
0.00985790789127349850
0.00983759481459856030
0.03013064339756965600
-0.00500661367550492290
-0.00134064548183232550
0.03029301017522811900
0.02687669172883033800
0.01411586906760931000
-0.00984065327793359760
0.06154177337884903000
0.00154034059960395100
0.00505841616541147230
0.00844562612473964690
-0.04714358225464820900
-0.03381507843732833900
0.01420057937502861000
-0.02689154446125030500
-0.00002188264807045925
-0.03441806137561798100
0.00500666117295622830
-0.01609010063111782100
0.01339903101325035100
0.00280144624412059780
0.02262878976762294800
0.02959682047367095900
-0.03133312240242958100
-0.00872608181089162830
0.00953493081033229830
0.02050381340086460100
0.02885861694812774700
0.01827789284288883200
0.02747524157166481000
-0.01406391430646181100
-0.02287072874605655700
0.02252788469195365900
-0.01293292269110679600
0.00952513795346021650
0.00253507611341774460
0.02006256021559238400
0.00726875243708491330
-0.00498804077506065370
-0.06302750855684280400
0.00470351753756403920
0.01076709292829036700
0.01452386658638715700
0.01276559196412563300
-0.01725574955344200100
0.02233388647437095600
-0.00460734171792864800
-0.05316282063722610500
-0.01412664353847503700
-0.01622060500085353900
0.00456108013167977330
-0.06473507732152938800
-0.01410319469869136800
-0.01874691620469093300
0.00452551618218421940
0.00525685260072350500
-0.00111216877121478320
-0.03499389439821243300
-0.00138812838122248650
-0.02960465848445892300
0.03621738776564598100
0.00844326429069042210
-0.00489827757701277730
0.01444388553500175500
0.02382577583193779000
-0.02013892121613025700
-0.01396046951413154600
-0.03393305838108062700
0.02936012111604213700
-0.00308239320293068890
0.02104452811181545300
-0.03034026362001895900
-0.00227086432278156280
0.00749743171036243440
0.01814398355782032000
0.02447455376386642500
-0.00521763833239674570
0.00544504309073090550
-0.02851011231541633600
0.00598344998434185980
0.02099191956222057300
-0.01925815455615520500
-0.02404279820621013600
0.03780043870210647600
-0.01387427188456058500
0.00165012991055846210
0.01408777106553316100
0.01583636179566383400
0.01439748425036668800
-0.02322443574666976900
0.02323565818369388600
-0.03519639000296592700
0.01899344287812709800
0.03602614998817443800
-0.00260929972864687440
0.02155578881502151500
-0.06590211391448974600
-0.00416768062859773640
-0.02047103084623813600
-0.00640335865318775180
-0.01481797173619270300
0.00079430924961343408
0.00323457410559058190
0.00128896068781614300
0.00174052943475544450
0.04278712347149848900
0.02526032552123069800
-0.01189487148076295900
0.04680775105953216600
0.04372734203934669500
0.03766350075602531400
-0.01610987633466720600
0.03313566744327545200
-0.05095909535884857200
-0.02776827290654182400
0.02448829077184200300
0.02533023059368133500
0.06516435742378234900
0.00186607276555150750
-0.03190443292260170000
-0.01093053072690963700
-0.01490875612944364500
0.01983992382884025600
-0.00151387916412204500
0.01963993720710277600
-0.00714048836380243300
0.00980036705732345580
0.01950732618570327800
-0.00499170226976275440
-0.01564198359847068800
-0.02327508293092250800
0.03426161408424377400
-0.01682309806346893300
-0.01927977241575717900
0.00743549456819891930
-0.00898600835353136060
0.02090279199182987200
-0.01998295634984970100
0.02067145518958568600
-0.01971001736819744100
-0.00799433793872594830
0.00806611403822898860
0.01694866269826889000
0.03893198817968368500
-0.01259579602628946300
-0.00568094989284873010
-0.01277767308056354500
-0.03278870880603790300
-0.01952257938683033000
-0.00653972802683711050
-0.00068044388899579644
0.02545760944485664400
-0.01571884192526340500
-0.00604955945163965230
-0.04450670257210731500
0.02952833101153373700
-0.03134799376130104100
-0.00639298977330327030
-0.00068683642894029617
0.00847639609128236770
-0.02465151064097881300
-0.01313003711402416200
-0.00292096147313714030
-0.00318772648461163040
0.00885075982660055160
0.00789698399603366850
0.01431779097765684100
0.02812069468200206800
-0.00396310351788997650
0.00633259303867816930
0.00967311393469572070
-0.00784822739660739900
-0.01468171458691358600
0.00857209414243698120
-0.00009933183901011944
-0.02175417169928550700
-0.01178379636257886900
-0.01311594527214765500
-0.01026400178670883200
-0.03072637692093849200
0.00838457327336072920
-0.00243053282611072060
-0.04523130878806114200
0.03326469287276268000
-0.01579238660633564000
-0.00307054328732192520
0.00324173551052808760
-0.03089444898068904900
0.05754770338535308800
0.00432348903268575670
0.01651155389845371200
-0.05081009864807128900
-0.00292147207073867320
0.02825351431965827900
-0.01540065277367830300
-0.00770352361723780630
-0.01067709270864725100
0.00564396940171718600
-0.01586705818772316000
-0.00032740843016654253
0.00972217693924903870
0.01002421136945486100
-0.01981732621788978600
-0.00758322793990373610
-0.00154282932635396720
-0.05969926714897155800
0.03395281732082366900
0.00370327802374958990
0.00843023043125867840
-0.02267319336533546400
0.03238335996866226200
-0.04008375480771064800
-0.01008108258247375500
-0.00620557321235537530
0.01040526013821363400
0.01636107265949249300
-0.03655438125133514400
0.00954145286232233050
-0.01226566080003976800
-0.01312984060496091800
-0.00695308484137058260
-0.01974007114768028300
-0.02011423185467720000
0.01664654351770877800
0.00606906553730368610
-0.03352846577763557400
0.01279767788946628600
0.01163452398031950000
0.03817416355013847400
0.01527183316648006400
0.01768743619322776800
0.03258881345391273500
-0.01318609900772571600
0.01027629710733890500
-0.03201705217361450200
0.01480157859623432200
-0.01271939929574728000
-0.00293650943785905840
0.02914025261998176600
-0.00192667334340512750
0.01917978003621101400
-0.01709739863872528100
0.02644696459174156200
-0.01439268514513969400
0.01601142250001430500
0.05170924961566925000
0.03202759101986885100
0.04349522292613983200
-0.02193086780607700300
-0.02914954349398613000
-0.00352068152278661730
-0.03080860339105129200
0.01203032955527305600
-0.00772902136668562890
-0.00428770668804645540
0.01293947268277406700
0.01178082451224327100
-0.04074607416987419100
0.02234822325408458700
-0.00367988459765911100
-0.01560887228697538400
0.03266773000359535200
-0.02181266248226165800
-0.02509698085486888900
-0.02014445327222347300
0.01861639320850372300
0.00959025509655475620
0.03280216827988624600
-0.00537045998498797420
0.00518205435946583750
-0.00288141355849802490
-0.00577072333544492720
-0.00932306703180074690
-0.03914880007505416900
-0.00970304850488901140
-0.00268236221745610240
0.01341688167303800600
0.01084650866687297800
-0.02816159836947917900
0.01205766573548317000
-0.00994292087852954860
0.04260468855500221300
0.01163814030587673200
-0.02056350372731685600
0.02279786206781864200
-0.00757169909775257110
0.01517356839030981100
-0.02526884898543357800
-0.00716649647802114490
0.02693751081824302700
0.02403154037892818500
0.01546250935643911400
-0.04047230631113052400
0.03486739844083786000
-0.01323275733739137600
0.03520401939749717700
-0.00876311305910348890
0.01260022725909948300
0.00737640680745244030
-0.02215737849473953200
-0.01844472065567970300
0.01587096229195594800
0.00244412128813564780
-0.02827590331435203600
0.01280483230948448200
0.00172058783937245610
0.02869011647999286700
-0.01735487952828407300
-0.03399652615189552300
0.00745239900425076480
-0.01838121749460697200
0.02870549075305461900
0.01273740828037262000
-0.01109855994582176200
-0.03382225707173347500
-0.01164568122476339300
-0.00816394854336977010
0.03738590329885482800
0.00800291541963815690
-0.00003501156243146397
0.01478872727602720300
-0.02294945716857910200
-0.01797200553119182600
-0.00272522214800119400
0.00667626829817891120
-0.01628558896481990800
-0.01158731710165739100
0.06167753413319587700
-0.00435973424464464190
0.01520694512873888000
-0.04652300477027893100
-0.00421557296067476270
0.00105791375972330570
-0.00858379993587732320
0.04155665636062622100
-0.00293684354983270170
0.02389247901737690000
-0.02583163976669311500
0.01759588159620761900
0.01075493264943361300
0.02461314946413040200
0.02916371263563633000
-0.00104129931423813100
-0.02609098330140113800
0.02030680142343044300
0.00288392207585275170
-0.02981462329626083400
0.01648434996604919400
-0.01184428855776786800
0.00321693532168865200
-0.00840840209275484090
-0.00651243794709444050
0.02658522129058837900
-0.00475440826267004010
0.00489478651434183120
-0.01017468329519033400
0.01191596128046512600
-0.02684894576668739300
-0.02312722243368625600
-0.01671771705150604200
-0.00914554297924041750
-0.00256948987953364850
0.02521465159952640500
0.01822464354336261700
0.00774739077314734460
-0.03140700608491897600
0.06107590720057487500
0.00803514756262302400
-0.02643140964210033400
0.01089753117412328700
0.00376408151350915430
-0.01747271046042442300
0.04754350706934928900
0.02141736820340156600
-0.00427109049633145330
-0.00124294753186404710
-0.02137251570820808400
-0.00624836562201380730
0.01851259171962738000
-0.01552942022681236300
-0.00322674517519772050
0.01041605230420827900
-0.03662053123116493200
0.05338843911886215200
-0.00475074630230665210
0.00011684733181027696
0.01991241239011287700
0.01124233845621347400
-0.01879583857953548400
0.03020644001662731200
0.00677994824945926670
-0.00193405011668801310
0.01356854382902383800
0.02709974907338619200
0.00453305663540959360
0.00200254260562360290
0.00829129293560981750
0.01951040141284465800
0.02223191410303115800
0.00550198368728160860
0.00178510718978941440
0.03227250277996063200
0.00496873119845986370
-0.01534249819815158800
-0.01449640188366174700
0.01151475310325622600
-0.01126811094582080800
0.03196873888373374900
-0.00053952191956341267
-0.04654949158430099500
-0.00007846688822610304
0.04236175119876861600
-0.01392859127372503300
-0.00705270934849977490
-0.01383445132523775100
0.04040158167481422400
0.03309135138988494900
0.01218548510223627100
0.00715816486626863480
0.01653859019279480000
-0.00142433913424611090
0.03739721700549125700
0.03043608367443084700
0.02761138230562210100
0.02313114516437053700
0.00802903622388839720
-0.01527529768645763400
-0.00926152430474758150
0.02600834146142005900
0.02479511126875877400
-0.04119069129228591900
0.01819929853081703200
-0.00925002712756395340
-0.00413394439965486530
-0.00206629955209791660
-0.01362925767898559600
0.00157270673662424090
0.00483541749417781830
0.00295413541607558730
-0.01037326455116272000
-0.01132897473871707900
-0.01453004963696003000
0.02213894948363304100
-0.00915194209665060040
-0.03759529814124107400
-0.00325748557224869730
0.01568239741027355200
0.01413774024695158000
-0.01437420025467872600
0.00347462343052029610
-0.02445190772414207500
-0.01228061784058809300
-0.00593538302928209300
-0.06001903489232063300
-0.01664983853697776800
-0.04564497992396354700
-0.00534312659874558450
-0.00320573919452726840
0.02477945573627948800
-0.00575302401557564740
-0.01987496018409729000
-0.02831500582396984100
0.02448609843850135800
0.02200948260724544500
-0.00218188809230923650
0.02866028062999248500
-0.06801966577768325800
0.03382340446114540100
-0.03585568442940712000
0.00243206578306853770
-0.01205378677695989600
-0.02848786115646362300
0.00126551790162920950
0.00754659855738282200
0.00142477103509008880
0.00280437432229518890
-0.01106100622564554200
-0.02979828976094722700
0.02518259547650814100
0.05051679909229278600
-0.01011768449097871800
0.00693875644356012340
-0.00584243191406130790
-0.00162486138287931680
0.00108111917506903410
0.02254993654787540400
0.00411212677136063580
0.02689109183847904200
-0.00950165838003158570
0.00813481118530035020
-0.03902692347764968900
0.00740943662822246550
0.00177640910260379310
0.00754235871136188510
-0.01229584217071533200
-0.00047406728845089674
0.02260113693773746500
-0.02276247180998325300
-0.02039810828864574400
-0.01394496206194162400
-0.02371708489954471600
0.00617901608347892760
0.01250726077705621700
-0.02228401042520999900
0.01917264610528945900
-0.01208923198282718700
-0.00117758568376302720
-0.01390884816646575900
0.01658363454043865200
0.03453928977251052900
-0.03009655885398387900
0.01884574629366397900
-0.01653884537518024400
0.02575384639203548400
0.01405707001686096200
0.00424931850284338000
0.00605910411104559900
0.00001583789344294928
0.05287343636155128500
0.02854766696691513100
0.02642402984201908100
0.00588014815002679820
-0.02424761839210987100
-0.02290404029190540300
0.03725543245673179600
-0.01854277215898037000
0.03238483145833015400
-0.00892212800681591030
-0.02517818100750446300
-0.01922554150223732000
-0.02309968136250972700
0.03167225047945976300
0.01727076433598995200
-0.05417827516794204700
-0.04596566408872604400
0.00325280893594026570
0.03137914091348648100
0.00984539929777383800
0.00100533629301935430
0.04519873484969139100
0.01469153817743063000
0.03799904137849807700
-0.02174887806177139300
-0.00681008864194154740
-0.00291150622069835660
-0.02833030559122562400
0.01393801905214786500
0.02907738648355007200
0.00805948860943317410
-0.01454890519380569500
0.00843996740877628330
0.03343915194272995000
-0.01830581016838550600
0.00523536792024970050
-0.03487570211291313200
0.00473028933629393580
-0.01496048830449581100
-0.00320491776801645760
-0.00585540570318698880
-0.01287042070180177700
-0.00002452049193379935
0.00928193051367998120
-0.04620486870408058200
0.01053885743021965000
-0.04202543944120407100
0.00914966594427824020
0.04642992466688156100
0.01720395684242248500
-0.04595495387911796600
0.00912415236234664920
-0.02627200074493885000
-0.02138611488044261900
-0.00317146885208785530
0.02245293185114860500
-0.02609120681881904600
-0.01574949361383914900
0.00206959852948784830
-0.04645073786377906800
-0.02553891949355602300
0.00171626696828752760
-0.00774329667910933490
0.00622503831982612610
-0.00936240144073963170
-0.00576668651774525640
0.00743598397821187970
-0.00293764821253716950
-0.00120749080087989570
0.02921812795102596300
-0.00037291651824489236
-0.00966868642717599870
-0.01971886120736599000
-0.01108333375304937400
0.01336993742734193800
-0.02444989979267120400
-0.02447156980633735700
0.00453160936012864110
0.02966729365289211300
0.01843118481338024100
0.01829470135271549200
0.01372673455625772500
0.02688852883875370000
0.04481225833296775800
0.02370204403996467600
0.00705548515543341640
0.02109995111823082000
-0.05240067467093467700
0.02751526422798633600
0.00646667694672942160
-0.00489881867542862890
-0.00234596594236791130
0.00236522476188838480
0.02988782525062561000
-0.00946152862161397930
-0.00394841516390442850
-0.01742208003997802700
0.00038867205148562789
0.02437780052423477200
-0.00874631386250257490
-0.01996211707592010500
-0.01700293458998203300
0.01229233201593160600
0.04915221780538559000
-0.02369122020900249500
0.00703483633697032930
-0.00195733108557760720
-0.00421411124989390370
0.00979282427579164510
-0.00097949185874313116
-0.05644486844539642300
0.00731948250904679300
-0.02719937264919281000
-0.03909577429294586200
-0.03835973888635635400
-0.01083725877106189700
-0.00106083997525274750
-0.00631710933521389960
0.00811134278774261470
0.02425932511687278700
-0.01747036352753639200
-0.01257316861301660500
0.00079672585707157850
-0.00304002570919692520
0.01044273748993873600
-0.00679805176332592960
-0.00633789645507931710
-0.01703403517603874200
-0.00637900736182928090
0.01514851953834295300
-0.01306220889091491700
0.01468034088611602800
-0.00742497574537992480
-0.00653676735237240790
0.01460622902959585200
0.02525892294943332700
0.04222720116376876800
-0.01109076663851738000
0.02006367966532707200
0.01138645224273204800
0.01910495199263095900
0.03583577647805213900
0.00518795568495988850
-0.01805046759545803100
0.01452213898301124600
-0.00421754736453294750
-0.01177219953387975700
0.02034176513552665700
0.00017811676661949605
-0.01575602218508720400
0.03824405744671821600
0.01113656722009182000
-0.01629705727100372300
-0.02616969682276248900
0.01299363095313310600
-0.00237867911346256730
0.01097923889756202700
0.01478385925292968800
0.03211779519915580700
0.00605531688779592510
-0.00645836209878325460
0.00661833398044109340
-0.01804711297154426600
-0.00037606916157528758
-0.00731849996373057370
0.02560848556458950000
0.03292209655046463000
-0.00192453130148351190
-0.00438428111374378200
0.00630283914506435390
-0.00154658744577318430
-0.00942894909530878070
-0.02306473627686500500
-0.01619510725140571600
-0.01029473915696144100
-0.03399297222495079000
-0.02194078080356121100
-0.00856566801667213440
0.00155672978144139050
0.02266642078757286100
-0.00948154740035533910
-0.00062462041387334466
0.03576456010341644300
-0.02670456841588020300
0.00603408599272370340
0.02473443932831287400
0.01401847787201404600
-0.02039230428636074100
-0.02787177078425884200
-0.00610481714829802510
-0.01481787860393524200
0.00863179191946983340
-0.00320694688707590100
0.01757740415632724800
0.00031411566305905581
-0.02623639442026615100
0.02253623679280281100
-0.00270741432905197140
-0.03509354591369628900
-0.01490996405482292200
-0.00699028326198458670
-0.01760881021618843100
0.01668835058808326700
0.04330410435795784000
-0.06577353924512863200
0.01345190033316612200
-0.01206472422927618000
0.03792221844196319600
-0.03997721895575523400
-0.00844420865178108220
-0.05147731676697731000
-0.03048505634069442700
0.00009172223508358002
-0.03278674185276031500
0.00753213139250874520
-0.00648818071931600570
-0.00872518680989742280
-0.00123742932919412850
0.00101548002567142250
0.05638182163238525400
0.00296893878839910030
-0.02563597261905670200
-0.04723121225833892800
-0.03229498863220214800
-0.00929209496825933460
-0.01332606095820665400
-0.02258427254855632800
-0.06482217460870742800
-0.00530860247090458870
-0.02595535479485988600
0.01417209859937429400
-0.01642022095620632200
-0.01866672746837139100
0.02257471159100532500
0.00807516090571880340
0.01126148737967014300
0.00591731444001197810
0.01598387956619262700
-0.00333843100816011430
0.06155178323388099700
-0.03897543251514434800
-0.02093634009361267100
0.00299828639253973960
0.00361875141970813270
-0.02443962916731834400
0.00915901828557252880
0.02656136266887188000
0.02037075906991958600
-0.03649815171957016000
-0.01870149746537208600
0.00951877981424331670
0.01995283551514148700
-0.02145994082093238800
0.05732806026935577400
0.00202280259691178800
0.03656024485826492300
-0.00934630632400512700
-0.01226708944886922800
-0.01055032014846801800
-0.02755940519273281100
-0.00313018052838742730
0.02184949070215225200
0.00252593355253338810
0.02860939130187034600
0.00829478446394205090
-0.01801083050668239600
-0.02591838501393795000
0.02514408901333808900
-0.02263434231281280500
0.01642172411084175100
0.00748209049925208090
0.01995778270065784500
-0.01564718037843704200
-0.00405891193076968190
0.01261607836931943900
0.01722560822963714600
0.01438998803496360800
-0.00360159017145633700
0.01386270578950643500
0.00712087797001004220
-0.00549430772662162780
-0.00118178222328424450
-0.00083310413174331188
0.00766154984012246130
0.00808069854974746700
-0.00568101881071925160
0.00615350017324090000
-0.02080421522259712200
0.00920471921563148500
0.00175230472814291720
0.02330617606639862100
0.02589326724410057100
0.01712239347398281100
-0.02888983860611915600
0.01277986541390419000
0.03076067566871643100
0.00551539612933993340
-0.02017841860651969900
-0.01312928833067417100
-0.01407559309154748900
0.01883597113192081500
0.01137391198426485100
-0.01952540874481201200
-0.00159509410150349140
0.01735429279506206500
-0.01791077107191085800
0.01184968743473291400
-0.02960911951959133100
0.01499469578266143800
0.01162099558860063600
-0.01244822330772876700
-0.00306469853967428210
-0.02250904776155948600
-0.01521659921854734400
0.03103675134479999500
0.01217278838157653800
0.02075616084039211300
-0.02252740971744060500
-0.01936825364828109700
-0.00577669730409979820
0.00634650839492678640
-0.00897128321230411530
0.03263420239090919500
-0.00363300833851099010
-0.00086971686687320471
-0.01464799046516418500
-0.01116161420941352800
0.00058969121892005205
-0.00985082983970642090
-0.00488211959600448610
0.00690954318270087240
-0.02776586636900901800
0.01782322674989700300
0.04301908984780311600
0.00934827420860528950
0.00585684133693575860
-0.03816036507487297100
0.02359797619283199300
0.01460677757859230000
-0.00077821192098781466
0.01316751912236213700
0.03003560565412044500
-0.02784923277795314800
0.01586312986910343200
-0.00475662481039762500
0.00275975512340664860
0.02779242210090160400
-0.05797969922423362700
-0.00031701754778623581
-0.03774923458695411700
0.00978032965213060380
0.02760922349989414200
-0.02469224296510219600
0.00101305101998150350
0.01193026453256607100
0.04499481245875358600
-0.01781456358730793000
-0.01546186488121748000
0.02389770746231079100
0.00310327648185193540
-0.01191197987645864500
0.00958766974508762360
0.00337545434013009070
-0.00477824592962861060
0.01347762253135442700
0.01935900375247001600
-0.03766503557562828100
-0.03228035196661949200
0.04455842450261116000
-0.02025793120265007000
0.01419948879629373600
-0.01046187337487936000
-0.01548539102077484100
0.03359397128224372900
0.01021053548902273200
-0.03536701202392578100
0.01564637944102287300
0.00833467766642570500
-0.00353086902759969230
0.00092121609486639500
-0.00141540507320314650
-0.01585627347230911300
-0.00061854987870901823
-0.00090784736676141620
0.01221965253353118900
-0.00360954832285642620
0.01112928893417120000
-0.04443657770752906800
0.01831361092627048500
-0.00220410223118960860
0.04020440205931663500
-0.00707050459459424020
-0.01914588175714016000
-0.02501618862152099600
0.02513069100677967100
0.02345799468457698800
0.00067359843524172902
-0.05336847901344299300
0.00570791726931929590
0.00914187822490930560
0.04768662899732589700
-0.01533095445483923000
0.00710655143484473230
-0.02880064770579338100
0.00373557535931468010
-0.03483464941382408100
-0.03673615679144859300
0.01322786603122949600
0.00490325875580310820
-0.00921126548200845720
0.01540426723659038500
-0.00261571770533919330
-0.01566046290099620800
-0.00263021397404372690
-0.00704672327265143390
0.02860679104924202000
-0.01500464230775833100
-0.00247651408426463600
0.01818373985588550600
0.00720228208228945730
0.02287656441330909700
0.02035717293620109600
0.01081192027777433400
0.00663854787126183510
0.01765287294983863800
0.02401917427778244000
0.04057294875383377100
0.01323299389332532900
-0.01437657326459884600
0.02423170767724514000
-0.04180438816547393800
-0.03526593372225761400
-0.01100352499634027500
-0.01113140303641557700
0.02952946163713932000
0.00906707905232906340
0.00937385298311710360
-0.02378620021045208000
-0.01517578400671482100
0.00294675701297819610
0.00226483540609478950
-0.02845849283039569900
0.00109220668673515320
-0.04879380390048027000
-0.01227789744734764100
-0.02117743156850338000
-0.01717517897486686700
-0.00075235147960484028
0.03023021854460239400
0.02203551866114139600
-0.01498364564031362500
0.00788050424307584760
-0.01336790714412927600
0.02045757137238979300
0.02209203317761421200
0.00153597048483788970
0.00463621504604816440
-0.01599256508052349100
0.02594494260847568500
-0.00884582567960023880
-0.00469304481521248820
-0.00965946540236473080
0.00996575597673654560
0.02247926779091358200
0.00935191195458173750
-0.01915636658668518100
0.00291109643876552580
0.03120733238756656600
0.01443229615688324000
0.00411636661738157270
-0.02497467398643493700
-0.02147961780428886400
-0.02301781252026557900
0.00128554902039468290
-0.00113748398143798110
-0.00320625747554004190
0.01533326413482427600
-0.02417535707354545600
0.00454346742480993270
0.01488933619111776400
-0.01306092366576194800
0.00618491880595684050
-0.01263783872127533000
-0.00007635782094439492
-0.02943531423807144200
-0.03008029796183109300
-0.01115274056792259200
-0.01681650616228580500
-0.01390256546437740300
0.03023287281394004800
-0.00628462899476289750
-0.01937599480152130100
0.05240707099437713600
0.00106747727841138840
0.03142651170492172200
-0.00564599828794598580
-0.01042404491454362900
-0.01112760324031114600
0.01823066733777523000
0.01421478576958179500
0.03821166604757309000
-0.02802963368594646500
-0.02928077988326549500
-0.00095402001170441508
-0.00403857324272394180
0.00759966671466827390
0.03646410629153251600
-0.01103805750608444200
-0.00499931816011667250
0.01549721322953701000
0.01849549449980258900
-0.02987562678754329700
0.04779258370399475100
0.00610685162246227260
0.00081362429773434997
0.02702089957892894700
-0.02856768295168876600
-0.02899454906582832300
-0.03894835337996482800
-0.01443917490541935000
0.02053608931601047500
-0.01067699491977691700
0.03366827219724655200
-0.00796447508037090300
0.00877815671265125270
0.00049664260586723685
-0.00314258597791194920
-0.03474352508783340500
-0.02390567585825920100
0.00345536298118531700
0.01010776776820421200
-0.00164373591542243960
-0.01935830339789390600
0.00607506139203906060
-0.02296558395028114300
-0.00138291507028043270
0.02766328305006027200
-0.05616192519664764400
-0.01566230505704879800
-0.02734108455479145100
0.03484370931982994100
0.01273366343230009100
-0.04015189409255981400
-0.00290672667324543000
0.03443627804517746000
-0.03954338282346725500
-0.02610180526971817000
-0.01576199941337108600
0.01738883368670940400
0.03120452910661697400
0.02836067229509353600
0.00529513414949178700
0.00402836035937070850
0.00606881454586982730
-0.00913056544959545140
0.00679227337241172790
-0.00570765510201454160
-0.00395119236782193180
0.02487131766974926000
0.05121840909123420700
0.01175130903720855700
-0.00685621006414294240
-0.02361088246107101400
-0.02135328389704227400
0.01315251737833023100
0.03302856162190437300
0.01493484899401664700
0.00481480266898870470
0.02895567566156387300
0.01318113598972559000
0.03209323808550834700
0.01355181820690631900
0.04031082987785339400
0.01822300814092159300
-0.04553844407200813300
0.03393534198403358500
0.02501512132585048700
-0.02572429180145263700
-0.00828602164983749390
0.00959811639040708540
0.01843338273465633400
-0.03848187625408172600
-0.01882352493703365300
0.01747054606676101700
-0.04234405606985092200
0.00003252147871535271
-0.00935851875692605970
-0.01748699322342872600
0.01717151701450347900
-0.01009043492376804400
-0.00335704418830573560
-0.00541270477697253230
-0.03888266533613205000
0.00118527084123343230
0.00753693748265504840
-0.01359785255044698700
-0.01457987725734710700
0.03650366514921188400
0.00138159596826881170
0.00070340541424229741
-0.04158870503306388900
0.01179350633174181000
-0.02894653938710689500
0.01448605768382549300
-0.01909622177481651300
0.00214946735650300980
0.02236837148666381800
0.01252272352576255800
0.00335525139234960080
-0.01912150718271732300
0.00182105612475425000
-0.01547956839203834500
0.02823653817176818800
0.01344166230410337400
0.00530233094468712810
0.01345365773886442200
-0.00136719364672899250
0.00970210134983062740
-0.00579800130799412730
-0.02116687409579753900
0.00739413173869252200
0.00341548118740320210
-0.00503898039460182190
0.00259418040513992310
-0.00687936600297689440
0.02989730611443519600
-0.00318450038321316240
0.00047244172310456634
-0.02922059595584869400
-0.01029173005372285800
0.01931163109838962600
-0.01110231503844261200
-0.02395479194819927200
-0.00755685800686478610
0.01147806551307439800
-0.01879842393100261700
-0.01139222644269466400
0.01401878707110881800
0.00820554979145526890
0.00761598907411098480
0.02539197914302349100
-0.00089496385771781206
0.01280098222196102100
-0.01544150151312351200
-0.00032631933572702110
0.00218551768921315670
0.00216008094139397140
0.00735893752425909040
0.05451558157801628100
0.01008896436542272600
-0.01526562683284282700
0.02070907689630985300
-0.00008496686496073380
-0.00675566727295517920
-0.02058641612529754600
0.00666495179757475850
0.04403284192085266100
0.01651409082114696500
-0.00482897320762276650
-0.00775113329291343690
-0.02251382358372211500
-0.01762057654559612300
-0.00456805340945720670
0.03324965015053749100
0.01410913653671741500
0.00597131345421075820
-0.00716378120705485340
-0.02345178276300430300
0.01472245901823043800
-0.02500867471098899800
-0.04251240193843841600
-0.00446204328909516330
-0.02903927117586135900
-0.00414708210155367850
-0.01619320549070835100
0.00243054935708642010
-0.00825376529246568680
-0.00284567847847938540
0.00608917046338319780
-0.01282297633588314100
-0.00375862210057675840
-0.00902766268700361250
0.00616927118971943860
0.05158597975969314600
0.01173090375959873200
-0.01536986045539379100
-0.00759328622370958330
-0.00942692160606384280
0.01531141996383667000
0.00649240193888545040
0.00670880684629082680
0.01359048113226890600
-0.01927892304956913000
-0.00388018786907196040
-0.00676609668880701070
0.00094556389376521111
-0.00493873190134763720
0.00570969469845294950
-0.02231725864112377200
-0.02041277475655078900
-0.00947768893092870710
0.01122029870748519900
0.02512156590819358800
-0.03093654476106166800
0.04413357749581337000
0.00642301281914114950
-0.01542641036212444300
0.02350235171616077400
-0.00551585387438535690
-0.07031078636646270800
0.03132627531886100800
0.00438460381701588630
-0.00076610059477388859
0.00436058454215526580
0.00767919560894370080
0.04402888193726539600
-0.01455563958734273900
0.01897273771464824700
0.05303980782628059400
-0.02431926503777504000
0.02589839138090610500
0.01443220209330320400
0.01283418759703636200
-0.01647299528121948200
-0.03271159902215004000
0.01599613949656486500
0.01974483393132686600
0.03345766291022300700
0.01061405427753925300
-0.03480619564652442900
-0.01107023283839225800
0.01673967391252517700
-0.02170606143772602100
-0.03727149218320846600
0.01022557634860277200
0.00015832886856514961
0.01684236712753772700
0.02329066395759582500
0.00220332760363817210
-0.01885798946022987400
0.00249233515933156010
-0.01449139136821031600
-0.01761055923998355900
-0.04407113790512085000
0.02756353281438350700
0.02531287074089050300
0.00345866265706717970
-0.00031665351707488298
-0.00464527867734432220
-0.00397292058914899830
-0.00064303161343559623
0.00021772187028545886
-0.02023530751466751100
0.00817035045474767680
-0.01634367555379867600
0.01386129483580589300
-0.00033605506177991629
0.00472755776718258860
0.01107934489846229600
-0.04929851740598678600
0.03231720626354217500
0.01542228553444147100
-0.00596830109134316440
0.01959343068301677700
-0.00733644608408212660
0.01938482560217380500
0.00920715369284152980
-0.00098234182223677635
0.06506299227476120000
0.00354388006962835790
0.02691147848963737500
-0.01599331945180892900
0.01982699334621429400
-0.00271229469217360020
-0.01349933911114931100
-0.03802757337689399700
0.02269035950303077700
0.01632972247898578600
-0.01104158908128738400
0.01756437309086322800
-0.00489370990544557570
-0.01416001748293638200
-0.01576473191380500800
-0.01615472510457038900
0.00498084258288145070
0.00451818853616714480
0.01476519927382469200
0.04357759654521942100
-0.03479477763175964400
-0.01990335434675216700
-0.02578713372349739100
0.00903249718248844150
0.00493864761665463450
0.01019850652664899800
0.02590956166386604300
0.00099054956808686256
0.00824224296957254410
0.03420133888721466100
0.02666221372783184100
0.02660910785198211700
-0.00150364439468830820
0.02788829617202282000
-0.00359377916902303700
0.01128961611539125400
0.01685532741248607600
0.01422147825360298200
-0.04090293869376182600
0.01840713247656822200
0.00613058730959892270
0.02083459123969078100
-0.03309357166290283200
-0.04213286563754081700
0.00922408513724803920
0.02677320875227451300
0.05132938921451568600
-0.04338478669524192800
-0.02507100254297256500
0.03037703409790992700
0.02494286559522151900
0.02977841906249523200
-0.01410151459276676200
-0.04269661009311676000
-0.06198640540242195100
0.00642987666651606560
0.01904962770640850100
0.01133131887763738600
0.04401303455233573900
0.01012709271162748300
-0.00519259972497820850
-0.03435904905200004600
0.01412679348140955000
-0.03852269053459167500
-0.01483051199465990100
0.00193492218386381860
-0.03156348690390586900
-0.00599760003387928010
-0.02654246799647808100
0.01010055933147668800
-0.00469094468280673030
0.01136054471135139500
-0.01338286697864532500
0.00571882445365190510
-0.02525781653821468400
-0.02787154540419578600
-0.05718225240707397500
0.03011474199593067200
-0.00855132099241018300
0.00269888713955879210
0.01544068567454814900
-0.02119036950170993800
-0.01909166015684604600
-0.01368356682360172300
0.00009906199557008222
-0.00900039076805114750
-0.00340781360864639280
0.00525915250182151790
-0.00032354745781049132
0.00353341782465577130
0.01250051893293857600
0.00154372130054980520
0.01900840178132057200
0.03271059319376945500
-0.02126721851527690900
0.01201444212347269100
0.01333921495825052300
-0.00957684963941574100
-0.01643015630543232000
-0.01108242943882942200
0.05559231340885162400
-0.00205431110225617890
0.02018401399254798900
0.00181924679782241580
-0.01831791549921035800
0.01946278847754001600
-0.02397540956735611000
-0.01654702797532081600
-0.01924082823097705800
0.01290911529213190100
-0.00948458630591630940
-0.01303201634436845800
0.01688753254711628000
-0.00866648834198713300
-0.00627482309937477110
-0.01030181534588336900
-0.00033443432766944170
-0.01023142971098423000
-0.02211197279393672900
-0.01662565767765045200
-0.01873359084129333500
0.03179902583360672000
-0.03555897995829582200
0.03237463533878326400
0.02985542081296443900
0.00406690314412117000
0.00122693262528628110
-0.02898045256733894300
0.01707731373608112300
-0.01548783946782350500
-0.02537164464592933700
0.03843114897608757000
-0.00960382074117660520
-0.00764493085443973540
0.01501421630382537800
-0.03845587372779846200
0.00465425709262490270
-0.00550420256331563000
-0.01015046983957290600
-0.02525419555604457900
-0.03211132436990737900
-0.03446217998862266500
-0.02632517740130424500
-0.00730290776118636130
0.00417269114404916760
-0.02570897899568080900
-0.02206214144825935400
-0.01132662873715162300
0.02635523490607738500
-0.00399861391633749010
-0.01337738893926143600
-0.01858624629676342000
0.01410401053726673100
0.02915928512811660800
-0.00244379253126680850
0.00212124711833894250
-0.01446924731135368300
-0.01747273840010166200
-0.03959817439317703200
-0.00630543660372495650
-0.00234299688600003720
-0.02278136461973190300
0.02740626595914363900
-0.00489387800917029380
-0.00060940242838114500
0.01573359593749046300
0.01413594000041484800
0.01613560505211353300
-0.03822835534811019900
-0.04191963747143745400
-0.00773776927962899210
-0.02668021060526371000
-0.00028078653849661350
0.00563861709088087080
0.00255150091834366320
-0.01837085001170635200
-0.00254862383008003230
0.00819419696927070620
0.00435700500383973120
-0.00475481990724802020
-0.01366547681391239200
-0.04266985878348350500
0.04052715748548507700
-0.01411115564405918100
0.00993644725531339650
0.02971380017697811100
-0.00866290740668773650
-0.00764649687334895130
-0.00050148897571489215
-0.01694251410663127900
-0.01311365608125925100
-0.03436516970396041900
-0.00298089114949107170
0.00295610423199832440
0.00837789103388786320
0.02309388108551502200
-0.00416252342984080310
-0.01855629868805408500
-0.03837832808494567900
0.01150939706712961200
0.03046470507979393000
-0.00813654251396656040
-0.02687948569655418400
-0.00615752395242452620
-0.03229098767042160000
-0.02460091002285480500
-0.01277034729719162000
-0.02326573617756366700
-0.00671821041032671930
-0.02308103255927562700
-0.02976261824369430500
0.00849531497806310650
0.00856020394712686540
0.00092643470270559192
-0.01506403274834156000
-0.01236981246620416600
0.00115936866495758300
0.00075774959987029433
-0.00934504810720682140
-0.01717013493180275000
0.00841901265084743500
-0.02986517176032066300
0.00928580854088068010
-0.00600215652957558630
0.00172411801759153600
-0.01439494546502828600
0.01864695362746715500
0.00883045326918363570
-0.03464170172810554500
-0.01217561773955822000
-0.03535191342234611500
0.01218685135245323200
-0.02760293334722518900
-0.03022470325231552100
-0.00249763415195047860
0.00684152403846383090
-0.01849105022847652400
0.01656123809516429900
0.02252678759396076200
-0.00188264658208936450
0.00115582288708537820
0.02483563683927059200
-0.03918550163507461500
0.02125613950192928300
0.00080735929077491164
-0.03437993302941322300
-0.01032835990190506000
0.06174826249480247500
0.00620784098282456400
0.00363619066774845120
-0.00806758180260658260
0.02882079407572746300
0.00397817883640527730
0.01086412370204925500
-0.02765000425279140500
-0.02189579047262668600
-0.01702428422868251800
0.02127988450229167900
0.00412450311705470090
0.00994149129837751390
0.00650657201185822490
-0.04289846867322921800
-0.02374211698770523100
-0.01930977217853069300
0.01473229192197322800
0.00133601378183811900
0.04130853712558746300
-0.03194651007652282700
0.01231532264500856400
0.00367295788601040840
0.02091022022068500500
0.03165272623300552400
-0.00130331434775143860
0.00355298700742423530
-0.02389853261411190000
0.01914921961724758100
-0.01828116551041603100
0.02030137926340103100
0.01255349814891815200
0.00574841024354100230
-0.01766368001699447600
-0.02076144330203533200
-0.01212996989488601700
-0.00331114558503031730
0.01152016874402761500
0.01287476532161235800
0.02305316925048828100
0.01949222199618816400
0.00377685180865228180
-0.01575781404972076400
0.01128340419381856900
-0.01947279460728168500
0.02609157375991344500
-0.00670662103220820430
-0.01698119193315506000
-0.00542343640699982640
0.00829548202455043790
0.00905469711869955060
0.02671825326979160300
-0.01057697180658578900
-0.04677760973572731000
-0.01833977922797203100
-0.00797549728304147720
0.00654243864119052890
0.01420838572084903700
0.04495362937450408900
-0.02161250635981559800
-0.02349303849041461900
0.00847363844513893130
0.00742331799119710920
-0.01766521669924259200
-0.04537228494882583600
0.01096929330378770800
0.04492232948541641200
-0.02704137377440929400
0.01998053491115570100
0.00015833068755455315
0.00666953437030315400
-0.01792041398584842700
-0.05028387159109115600
0.00891246180981397630
-0.01614070869982242600
-0.02769527584314346300
-0.00049221981316804886
-0.02900712192058563200
-0.02974515967071056400
-0.00535309920087456700
0.02300422824919223800
0.03237277641892433200
-0.02502334862947464000
-0.01537008024752140000
-0.01639109291136264800
-0.01422632858157157900
-0.01602165773510932900
-0.00748814595863223080
0.01451355963945388800
-0.00164884561672806740
0.01060862373560667000
0.00628293305635452270
-0.00631695427000522610
0.00781868025660514830
0.00646456098183989520
-0.02361800335347652400
-0.02497083134949207300
-0.00148935872130095960
0.02854673564434051500
0.02011378109455108600
-0.01086233463138341900
0.01320958416908979400
-0.01561675779521465300
-0.01083052065223455400
-0.01603129506111145000
0.02133464999496936800
0.01678751222789287600
-0.02182204090058803600
0.03592034801840782200
-0.00556037668138742450
0.00812671985477209090
-0.02054013498127460500
-0.00452632224187254910
0.04105440154671669000
0.01387576013803482100
-0.01236361265182495100
0.01488259900361299500
-0.00809538457542657850
0.02070907317101955400
-0.00428641773760318760
-0.04763447865843772900
0.01770811900496482800
0.02607941627502441400
-0.00763188349083065990
0.00819027982652187350
0.00351856881752610210
0.01088841445744037600
-0.00485441926866769790
0.00384990312159061430
-0.00599641539156436920
-0.01044289115816354800
-0.00399718247354030610
-0.03249499574303627000
-0.00880000088363885880
-0.00205276533961296080
-0.00742794480174779890
-0.01163231208920478800
-0.03802336007356643700
-0.02017566561698913600
-0.01430733129382133500
-0.00900074839591979980
-0.01035302225500345200
-0.01409885380417108500
-0.00047431091661565006
-0.00658132787793874740
-0.01166078355163335800
0.02491005323827266700
0.01245307736098766300
0.03325440362095832800
0.04389863088726997400
0.00090139271924272180
0.01269808970391750300
0.00101339339744299650
0.01116725429892540000
0.01338456477969884900
-0.01598094962537288700
0.04943823814392089800
-0.04909227415919303900
-0.00934350583702325820
0.00095475791022181511
-0.00045933001092635095
0.04299266263842582700
-0.00733456015586853030
0.01883485913276672400
0.00186917115934193130
0.03096473775804042800
-0.00698906788602471350
-0.00706696975976228710
0.01005367934703826900
0.01770032197237014800
0.02940861508250236500
-0.02773860283195972400
0.00569982593879103660
-0.00546750659123063090
-0.02288694493472576100
-0.04066653177142143200
0.00815560109913349150
0.06005145609378814700
0.00578532833606004710
0.01953228190541267400
0.00975928828120231630
0.03516635298728942900
-0.01883656717836856800
0.02503089420497417400
-0.00687407469376921650
0.02897156588733196300
0.01644315198063850400
-0.00255511584691703320
0.00281886477023363110
0.04212447255849838300
-0.03416706994175910900
-0.03537780791521072400
-0.00688518164679408070
-0.00155434687621891500
-0.00448040710762143140
0.00194022315554320810
-0.00378202623687684540
-0.00127162318676710130
-0.01936775632202625300
-0.02322988398373127000
0.00296293897554278370
0.00577959232032299040
-0.01432361640036106100
-0.01576785184442997000
-0.00490780919790267940
0.02944187447428703300
0.01549917273223400100
0.00375136430375278000
0.01184633187949657400
0.00693518295884132390
0.02815581858158111600
0.00186029204633086920
0.00065310019999742508
-0.01710490509867668200
0.01365465484559536000
-0.00763403810560703280
0.01825116574764251700
0.00138589704874902960
-0.01791064068675041200
-0.03442671522498130800
0.03161619231104850800
0.00726527441293001170
-0.00852790195494890210
-0.01078428607434034300
-0.02458591014146804800
-0.00304487696848809720
-0.00928201619535684590
-0.01268473826348781600
-0.03326693549752235400
-0.00784583669155836110
0.02198983542621135700
-0.00363497086800634860
-0.02534758113324642200
0.02121599949896335600
0.00781653728336095810
-0.00661917123943567280
0.03439691290259361300
0.03270607814192771900
0.01762654073536396000
-0.00711950054392218590
-0.02924051508307457000
-0.00140250043477863070
-0.02456399053335189800
-0.00727540487423539160
0.01659459248185157800
0.04847713187336921700
0.00302855763584375380
0.01104830484837293600
-0.03152631223201751700
0.02773592807352542900
0.00259599392302334310
-0.00248488644137978550
-0.01794779486954212200
-0.01827398501336574600
0.05487339571118354800
-0.00550404330715537070
-0.00231358478777110580
0.00136406405363231900
0.01552149001508951200
0.00193827389739453790
-0.00784710608422756200
-0.02989373542368412000
-0.04939697310328483600
-0.00082431343616917729
-0.01035485137253999700
-0.00322769000194966790
-0.00572295254096388820
-0.00812980812042951580
0.03781727328896522500
-0.03527415543794632000
0.01101702079176902800
0.00179574335925281050
-0.01140963099896907800
-0.01486568991094827700
0.02219738252460956600
-0.02619968727231025700
-0.00322645460255444050
0.02334168925881385800
0.00118331308476626870
-0.02931430563330650300
0.00370313390158116820
0.02729907631874084500
0.02415184304118156400
0.01191519014537334400
0.00324308057315647600
-0.01811762526631355300
-0.00853605661541223530
-0.00450704153627157210
0.00829863268882036210
0.01468167267739772800
0.01217294856905937200
-0.04292481392621994000
-0.02263057790696620900
0.04744088649749755900
-0.01594822295010089900
0.03556105867028236400
-0.00028942100470885634
0.01479618437588214900
0.00330526405014097690
0.03662128373980522200
-0.02170416526496410400
-0.01119393017143011100
0.01608738303184509300
-0.01195203233510255800
0.00858808867633342740
-0.00035892464802600443
-0.03408700227737426800
-0.03357762470841407800
-0.01587835885584354400
0.00927556306123733520
-0.00289050349965691570
-0.05549826100468635600
0.00991072785109281540
0.01771267503499984700
0.01186504308134317400
-0.03405540436506271400
0.00963914208114147190
0.00305386423133313660
-0.00687383906915783880
-0.01407930906862020500
-0.00572147080674767490
0.02364025637507438700
-0.00449072942137718200
-0.03675805032253265400
0.01316551771014928800
0.00960545055568218230
-0.04184327647089958200
0.01081774383783340500
-0.01326616853475570700
-0.01588380709290504500
0.00741071673110127450
0.00339633412659168240
0.01131369080394506500
-0.06269825994968414300
0.01915295980870723700
0.02239041402935981800
0.01087189465761184700
0.01037288270890712700
0.01455059275031089800
-0.01060517970472574200
-0.01089803129434585600
0.01444263011217117300
-0.00379926664754748340
-0.01335655804723501200
-0.00080207764403894544
0.02238342538475990300
0.02684860303997993500
0.04285959899425506600
-0.00932662002742290500
0.00853651762008666990
-0.01725475862622261000
0.00542853586375713350
0.04629981145262718200
-0.00845587253570556640
-0.02103349380195140800
0.04217424988746643100
0.00812570471316576000
-0.01981583237648010300
-0.00820605736225843430
0.02822738140821456900
0.01229082699865102800
-0.01574718952178955100
-0.00570165831595659260
0.01408893801271915400
-0.01918284408748149900
-0.00509263388812541960
-0.01625566184520721400
-0.01452188752591610000
0.03379017487168312100
0.00814234651625156400
-0.00055399601114913821
-0.00703656766563653950
0.03055828623473644300
-0.01191722415387630500
-0.01153258606791496300
0.00533260591328144070
0.02577819116413593300
0.00220448826439678670
0.04945631325244903600
-0.01703167892992496500
0.01159040909260511400
-0.01241028215736150700
0.01634768769145011900
0.02373385615646839100
-0.00140306353569030760
0.00809252355247735980
0.00971047952771186830
-0.01288467086851596800
0.05647503212094306900
-0.03793266788125038100
-0.01723663881421089200
-0.00261821504682302470
0.01274594198912382100
0.02066529542207717900
0.00500376289710402490
-0.01988476328551769300
-0.02624320238828659100
-0.00663528637960553170
-0.00767665961757302280
0.01641021296381950400
0.01038862857967615100
-0.00946822389960289000
0.01526745408773422200
0.02814436517655849500
0.01155652664601802800
-0.04795891046524047900
-0.03209743276238441500
-0.01072350423783063900
0.02049730531871318800
0.01704943925142288200
-0.03800123184919357300
0.00179479236248880620
-0.01245804224163293800
0.02857249043881893200
0.05084424465894699100
-0.01852710172533989000
-0.01242878567427396800
0.00593318976461887360
0.03649698570370674100
-0.05063281580805778500
0.02109991945326328300
0.01356890425086021400
-0.01576760038733482400
-0.00433402089402079580
0.01166753377765417100
0.00312368758022785190
0.00388513668440282340
0.01111252699047327000
0.00834838859736919400
-0.02985948324203491200
-0.03434977680444717400
0.04771127551794052100
-0.01561744604259729400
0.00532686244696378710
-0.00730268796905875210
-0.02584985457360744500
-0.00572956819087266920
-0.00131083035375922920
-0.01982107572257518800
-0.00498320441693067550
-0.01554826181381940800
0.02049482613801956200
0.00226479838602244850
-0.01827265135943889600
-0.02019021287560463000
0.01847906596958637200
-0.01535082422196865100
0.00081663718447089195
0.00269343331456184390
0.01059336308389902100
0.00368200521916151050
0.02531649544835090600
-0.00529651949182152750
-0.03141013905405998200
0.01218242663890123400
0.00895016919821500780
0.01953419111669063600
0.04190693795680999800
0.04644183814525604200
-0.00881688948720693590
-0.03253643959760665900
-0.01055211201310157800
0.01678748428821563700
-0.00874843541532754900
0.00407829601317644120
0.01611058227717876400
0.00232225307263433930
0.00535695767030119900
-0.01678833737969398500
0.01286751031875610400
0.00911763310432434080
-0.01257302705198526400
-0.03953866288065910300
0.05947912111878395100
-0.00399765372276306150
0.01388833299279213000
0.01297954842448234600
-0.02663717605173587800
0.02138110809028148700
-0.00488065555691719060
-0.04644197970628738400
0.03384166583418846100
0.02523448877036571500
0.00580016290768980980
0.01338488142937421800
-0.01254423800855875000
0.00884789694100618360
0.02785989642143249500
0.00731820613145828250
0.00454237032681703570
-0.03755815699696540800
-0.00243263109587132930
0.00387316220439970490
0.00475280452519655230
0.00677341734990477560
0.02825338765978813200
-0.00368869770318269730
-0.03266790136694908100
0.00725479982793331150
-0.00175649952143430710
-0.01358930580317974100
0.04562573134899139400
-0.00586473150178790090
-0.03820946067571640000
0.00207413895986974240
0.00495498254895210270
0.02785287424921989400
-0.01677250675857067100
-0.01305278576910495800
0.01026117056608200100
-0.00760374125093221660
-0.01540761068463325500
-0.00677431607618927960
-0.02375671826303005200
0.03981797397136688200
-0.02246869169175624800
0.04798955842852592500
0.00841424334794282910
-0.00124218955170363190
0.00158796343021094800
-0.00987655390053987500
-0.02895634807646274600
-0.00970591418445110320
-0.02475023642182350200
0.00837482605129480360
0.00039587853825651109
-0.00271218852140009400
0.01108138542622327800
-0.00360374595038592820
0.00127852696459740400
-0.02149514295160770400
0.02766148746013641400
0.04036069661378860500
-0.05992497876286506700
0.00865290313959121700
-0.01878658123314380600
0.01997552812099456800
0.03870839998126030000
-0.01924141123890876800
-0.03605479001998901400
-0.00559575809165835380
0.00262274476699531080
-0.01961244083940982800
-0.01334235444664955100
-0.01417652331292629200
0.01920897699892520900
0.07267285138368606600
0.04530895128846168500
0.00330472877249121670
0.00691724428907036780
-0.01157372631132602700
-0.01370202470570802700
-0.02772593498229980500
-0.03757303953170776400
-0.01386269554495811500
-0.01228884141892194700
0.01593912951648235300
-0.07500079274177551300
0.01394131034612655600
-0.00649996800348162650
-0.02025142498314380600
-0.02469707280397415200
0.00885413773357868190
0.02343999408185482000
0.02717089839279651600
-0.02693751081824302700
0.00024075985129456967
-0.02081186138093471500
-0.03403496369719505300
0.01866563223302364300
-0.02398252487182617200
-0.02578490413725376100
0.04363779351115226700
-0.00447865854948759080
0.04941008239984512300
0.01130087487399578100
0.03786351904273033100
0.00497380737215280530
0.02625994756817817700
0.01012495439499616600
-0.00316388928331434730
-0.02068558521568775200
-0.02305400185286998700
-0.03789437562227249100
0.02658886276185512500
-0.00753265758976340290
-0.01621819101274013500
0.02692424505949020400
0.00929673481732606890
-0.01415568869560957000
0.02898292616009712200
0.00187032052781432870
-0.02459420636296272300
0.01147284917533397700
0.00940112955868244170
-0.00342976232059299950
0.02665076963603496600
-0.01300753001123666800
0.00187668530270457270
0.02094063349068164800
0.00715136807411909100
0.00018511270172894001
0.00503465253859758380
-0.01162446942180395100
0.01636548154056072200
0.00545565411448478700
-0.00543207069858908650
-0.02757256664335727700
-0.00820938963443040850
-0.00462229875847697260
-0.04018038511276245100
0.01473143976181745500
-0.00847300607711076740
-0.01316660456359386400
-0.00827923044562339780
-0.00999363791197538380
-0.01813512109220027900
0.01012620609253644900
0.00344738434068858620
0.01440521050244569800
0.00887157861143350600
-0.03165755420923233000
-0.01965554989874362900
0.03354493901133537300
0.03757937625050544700
0.00017784940428100526
-0.02448556758463382700
0.02370255440473556500
0.01630292832851409900
-0.00962113402783870700
-0.02179513312876224500
-0.04865547642111778300
-0.00002446506550768390
-0.03017787449061870600
0.01609989441931247700
0.02292439714074134800
0.01207536179572343800
-0.00680427718907594680
-0.00542313186451792720
-0.05145460367202758800
-0.00872164312750101090
0.02542017214000225100
0.01398102752864360800
-0.01699911616742610900
-0.02622311562299728400
-0.02000840567052364300
0.01654293201863765700
0.00201603653840720650
-0.03149422630667686500
-0.01737412624061107600
-0.01107692718505859400
-0.03446824848651886000
0.00622343271970748900
0.02107446826994419100
-0.01338779833167791400
0.00600397586822509770
0.02771517075598239900
0.04048624634742736800
0.03364215791225433300
-0.00567825511097908020
0.01773299463093280800
-0.02677303180098533600
0.01307363249361515000
0.00031512105488218367
0.03036857768893241900
0.00712232477962970730
0.00811918918043375020
0.01733648031949996900
-0.02492108941078186000
-0.00978465471416711810
-0.01481331419199705100
-0.00734546035528182980
0.02408252656459808300
0.02845094166696071600
-0.00354435620829463010
-0.00237320805899798870
0.01074279844760894800
0.00950896553695201870
0.02833668701350688900
-0.01804238930344581600
-0.01165890041738748600
0.00340070319361984730
-0.02104856073856353800
0.04379631578922271700
-0.00374843319877982140
-0.00484442943707108500
0.00304110697470605370
-0.00720202876254916190
-0.02362067997455596900
-0.00533866509795188900
0.03767837956547737100
0.00917398463934659960
0.01384828891605138800
0.02664317749440670000
0.01004840899258852000
0.00066975678782910109
0.00584871741011738780
-0.03138305246829986600
0.00318619236350059510
0.02807213924825191500
-0.01329805608838796600
0.01091433316469192500
-0.00539272883906960490
-0.01429984066635370300
-0.00268954946659505370
-0.02243311330676078800
-0.01329254265874624300
0.01251506432890892000
-0.01746094040572643300
-0.00842014607042074200
-0.02097073942422866800
0.04009766131639480600
-0.01130515616387128800
-0.04650226980447769200
-0.03752106428146362300
0.00106384686660021540
0.03781451284885406500
-0.00437580328434705730
-0.00421165954321622850
-0.02543637529015541100
0.01048639602959156000
-0.02803591080009937300
0.00653760181739926340
-0.00507368613034486770
-0.02729091607034206400
-0.01369877438992261900
-0.02311133220791816700
-0.01979448646306991600
0.01254555210471153300
0.00764926057308912280
-0.02240368910133838700
0.02461061812937259700
-0.01006320584565401100
0.01859998703002929700
-0.00984139926731586460
-0.01145550515502691300
-0.00902377255260944370
0.00869712047278881070
0.00718746986240148540
0.02158209681510925300
0.03568520769476890600
-0.00027375103672966361
0.02940480783581733700
-0.00362883647903800010
0.02905428223311901100
-0.01278963219374418300
-0.00178263010457158090
-0.01207782328128814700
-0.02234064228832721700
-0.06469041854143142700
-0.00350114260800182820
0.00787746533751487730
0.01922594197094440500
-0.01137342769652605100
-0.02514747343957424200
-0.01311554480344057100
-0.03112763725221157100
0.01846062950789928400
0.02947372756898403200
0.01788930408656597100
0.03515923023223877000
0.00917689129710197450
0.02787639014422893500
0.00396864907816052440
0.01920285262167453800
0.01149643491953611400
0.02008675225079059600
0.00527441129088401790
0.00165199930779635910
-0.00764588592574000360
0.02238599956035614000
-0.01837432198226451900
-0.01702397689223289500
0.01597920805215835600
-0.00464584073051810260
0.00405313400551676750
-0.00495603866875171660
-0.01632692292332649200
-0.00958868954330682750
-0.01368797756731510200
-0.01850249804556369800
0.00334274675697088240
0.01238598395138979000
-0.01651474274694919600
-0.00742531241849064830
-0.00599805824458599090
0.06099779903888702400
-0.03583648055791854900
-0.03701844811439514200
-0.04311579838395118700
0.00044348556548357010
0.01448383182287216200
-0.02359743788838386500
-0.01163432933390140500
0.00433020247146487240
-0.03540395200252533000
-0.00701224058866500850
0.05631347373127937300
0.02384738065302372000
0.03230482712388038600
0.00260827899910509590
0.00524980248883366580
0.00210515782237052920
0.02010934986174106600
0.00228607631288468840
-0.01464632619172334700
-0.01175208296626806300
0.02483838796615600600
0.02185513079166412400
0.05009404942393302900
0.00917414482682943340
-0.01071472372859716400
0.02603686228394508400
0.01883179135620594000
0.02085552178323268900
0.03533689677715301500
-0.02848100848495960200
0.00753534212708473210
0.04972478747367858900
0.00199401681311428550
0.00530730560421943660
-0.01202249061316251800
0.00902946107089519500
-0.02922100760042667400
0.04958747699856758100
0.00169156410265713930
0.03290914371609687800
0.01181980036199092900
0.00953989848494529720
0.02713002078235149400
0.01065697614103555700
0.03287960216403007500
0.01281746476888656600
-0.02782711572945118000
0.00037710150354541838
-0.00526507198810577390
-0.01022784318774938600
0.01615769416093826300
0.01269653625786304500
-0.05259603634476661700
-0.02336777560412883800
0.00833877455443143840
-0.00594706274569034580
-0.00363018410280346870
0.00589077593758702280
-0.01915056817233562500
-0.02582440711557865100
0.01336281839758157700
-0.01901479251682758300
-0.02370748110115528100
0.01556438393890857700
0.03496563807129859900
-0.01955192722380161300
-0.00162152945995330810
-0.01266657654196023900
-0.02686805278062820400
0.02630282193422317500
-0.00023219242575578392
0.03917826339602470400
-0.04502390325069427500
0.02081349492073059100
0.04352026805281639100
0.02742900885641574900
0.00602588802576065060
0.00402178941294550900
0.00874156970530748370
0.00950384140014648440
-0.03367713838815689100
0.02627605758607387500
0.00189279322512447830
0.03415936604142189000
-0.00258379383012652400
-0.01346467807888984700
-0.00131413899362087250
-0.04128895699977874800
-0.00434019649401307110
-0.03099384345114231100
0.00273512373678386210
-0.00890003703534603120
-0.01807051151990890500
0.02653861045837402300
0.03505771234631538400
0.02286638319492340100
0.02271644212305545800
-0.03500960022211074800
-0.01009232364594936400
-0.00262174359522759910
-0.00664842221885919570
-0.03846339508891105700
0.02663930132985115100
-0.01175983622670173600
-0.01792715117335319500
0.02031702920794487000
-0.01036263536661863300
-0.00987269263714551930
0.01632439717650413500
-0.01030442211776971800
0.04366385191679000900
-0.01003387011587619800
0.01341554895043373100
-0.00471622031182050700
0.01463775709271431000
-0.03889528661966323900
0.01116542704403400400
0.01615525595843792000
0.01246016379445791200
0.02023930661380291000
0.01058414205908775300
0.03925016149878501900
0.00975478719919919970
0.03955152258276939400
0.00320254778489470480
-0.00771101517602801320
0.00086773437215015292
-0.00973708555102348330
0.01092929113656282400
0.05765849351882934600
0.00001895025525300298
-0.01018517278134822800
0.01596034877002239200
-0.04321546107530593900
-0.01376978214830160100
0.01209629513323307000
0.02879478223621845200
-0.00116586685180664060
0.01471977028995752300
-0.01966346427798271200
0.00091902905842289329
0.04871150851249694800
0.00878104660660028460
0.00233702943660318850
-0.00451585976406931880
0.00398930720984935760
0.01357965730130672500
-0.03217869997024536100
0.02859093435108661700
-0.00651383772492408750
0.01302787102758884400
0.01205311715602874800
-0.00168737967032939200
-0.00669059483334422110
-0.00047219198313541710
0.02774110995233058900
0.00078629760537296534
0.03132008761167526200
0.01469064969569444700
0.00325127248652279380
0.00297937984578311440
-0.00416375137865543370
0.00152752164285629990
0.05146323889493942300
-0.00722444476559758190
-0.02507896535098552700
0.02343329973518848400
0.01312419865280389800
0.03503257036209106400
0.04299036040902137800
-0.00130800053011626010
-0.04086105898022651700
0.02674866281449794800
0.01694355159997940100
-0.01785914041101932500
-0.01587123237550258600
-0.02819942310452461200
-0.00335968774743378160
0.02506760694086551700
0.00459888949990272520
-0.01132044382393360100
0.01538035739213228200
0.00576350837945938110
-0.00604042876511812210
0.01920359954237937900
0.00434807315468788150
-0.01911719888448715200
-0.03482560068368911700
0.00557824037969112400
-0.00855648517608642580
-0.05253042653203010600
-0.01281244494020938900
-0.01192838978022337000
0.01830163598060607900
-0.02519851177930831900
-0.00941170379519462590
0.02528310008347034500
-0.03392380848526954700
0.00014674691192340106
0.02897212095558643300
-0.04673231020569801300
-0.00955313630402088170
0.00581358885392546650
0.02657228708267211900
-0.06231946498155593900
0.00375362043268978600
-0.04704327136278152500
-0.01351086609065532700
-0.01060852035880088800
0.01131199207156896600
0.02137411572039127300
0.00829989463090896610
0.00056038104230538011
0.02848413400352001200
0.02175789698958396900
-0.00923554878681898120
-0.03578842431306839000
-0.00794156454503536220
-0.01345504168421030000
0.03822899982333183300
-0.00591686693951487540
0.02037940360605716700
0.00119145982898771760
0.01834927126765251200
0.04218515753746032700
0.02755038253962993600
0.01093827094882726700
-0.02256855368614196800
0.04133537784218788100
0.01734465733170509300
-0.03393086045980453500
0.03794238343834877000
-0.00024173335987143219
0.02331936545670032500
0.01017876900732517200
0.02582485787570476500
0.01411278173327446000
0.02339417673647403700
0.03666417673230171200
0.02549541369080543500
0.05819048359990119900
0.01206287648528814300
0.04760890826582908600
-0.01901353150606155400
-0.00955917127430439000
0.00905755162239074710
0.02476561069488525400
-0.02861464023590087900
-0.01815409213304519700
-0.00730150658637285230
0.01777218841016292600
0.03155914694070816000
-0.00371637102216482160
0.01051447261124849300
-0.00064388045575469732
-0.00525012519210577010
-0.01099153887480497400
-0.01156655605882406200
-0.02222401648759841900
-0.00613926816731691360
-0.02259875088930130000
0.00577294081449508670
-0.00332306325435638430
-0.03347031399607658400
0.01509716734290123000
0.00377767626196146010
0.02964731864631176000
-0.00704675167798995970
0.05142058432102203400
0.01968630589544773100
0.04671729356050491300
-0.06041972339153289800
0.03069199807941913600
-0.02257485501468181600
0.01747414655983448000
0.01516929548233747500
-0.01657376624643802600
-0.03063463605940341900
0.00301267649047076700
-0.00425096647813916210
-0.04838635399937629700
-0.01129977311939001100
-0.01732739433646202100
0.04459121078252792400
-0.00168117263820022340
-0.00009905041224556044
-0.02979518659412860900
0.01072129048407077800
