0.00234071956947445870
-0.00457914872094988820
-0.04878162965178489700
0.03417245298624038700
0.04631261155009269700
-0.01855414547026157400
-0.01077034324407577500
0.05977958813309669500
0.17167496681213379000
0.11911275982856750000
-0.01945552602410316500
0.08168022334575653100
0.16922190785408020000
0.21549895405769348000
0.10328715294599533000
0.04335974901914596600
0.09721450507640838600
0.18803070485591888000
0.15330509841442108000
0.08421950787305831900
0.02762928791344165800
0.03120758198201656300
0.05602342635393142700
0.05476514622569084200
0.02675935439765453300
0.03336394578218460100
0.06115294620394706700
0.00053963466780260205
-0.06987199187278747600
-0.07087817788124084500
0.05210436508059501600
0.10358805209398270000
0.01712162792682647700
-0.07782108336687088000
-0.08384241908788681000
0.05662827938795089700
0.11142376810312271000
0.02262060716748237600
-0.05688586086034774800
-0.08135747909545898400
0.00531777832657098770
0.08744896203279495200
0.04979284107685089100
-0.04485196620225906400
-0.07120036333799362200
-0.00465353624895215030
0.05504828691482543900
0.05410626158118248000
-0.01012947503477335000
-0.02341664582490921000
0.03937985748052597000
0.02142944186925888100
-0.04584151506423950200
-0.06295316666364669800
-0.01242097467184066800
0.05034102872014045700
-0.02386301942169666300
-0.05616051331162452700
-0.03446412459015846300
0.02374308928847312900
0.00426404131576418880
-0.01912330649793148000
-0.01455186493694782300
0.04437749087810516400
0.06700190156698226900
-0.00134766323026269670
-0.02254634723067283600
0.02879837341606617000
0.05946788936853408800
0.06098602339625358600
-0.01500157453119754800
0.02587538026273250600
0.04646573215723037700
0.02801674790680408500
-0.04186268150806427000
-0.02877224236726760900
-0.02455006539821624800
0.02617092244327068300
0.04401722922921180700
0.02105266042053699500
0.03034352697432041200
0.05091369524598121600
0.10095327347517014000
0.08713857084512710600
0.00236474652774631980
0.04622447118163108800
0.07925783842802047700
0.07361210882663726800
0.02632799930870533000
-0.03197998180985450700
0.02353260852396488200
0.02870040386915206900
0.02142971940338611600
0.01008970662951469400
-0.03484144061803817700
0.01806494779884815200
0.00217224238440394400
-0.02058446034789085400
-0.01086260750889778100
-0.02931274287402629900
-0.00468084216117858890
-0.02518740855157375300
0.00972709804773330690
-0.00039096391992643476
-0.00151730806101113560
-0.02856143563985824600
0.01927559822797775300
0.04279021546244621300
0.00520250247791409490
-0.04244327172636985800
-0.01952368207275867500
0.06527611613273620600
0.04059022665023803700
-0.06448198854923248300
-0.03235648572444915800
0.04980687424540519700
0.09471318870782852200
-0.03844825923442840600
-0.07156655937433242800
-0.03591873124241828900
0.09759386628866195700
0.06584871560335159300
-0.02188850194215774500
-0.05952289700508117700
-0.00016446482914034277
0.02122305147349834400
-0.00802452396601438520
-0.04395976662635803200
-0.04733570292592048600
-0.04137945175170898400
0.00935391895473003390
-0.04687148332595825200
-0.07358374446630477900
-0.07352631539106369000
-0.03818850219249725300
-0.01399102807044982900
-0.07536125183105468800
-0.07042786478996276900
-0.08867798000574111900
-0.03995635733008384700
-0.04757745563983917200
-0.09225506335496902500
-0.11025299131870270000
-0.06258612126111984300
-0.01233123335987329500
-0.05159028619527816800
-0.09362199902534484900
-0.05361656844615936300
-0.01489131804555654500
0.03354050964117050200
-0.00443988572806119920
-0.00739738252013921740
-0.00812843162566423420
0.00122996524441987280
0.04474255070090293900
-0.00482351332902908330
-0.04363774880766868600
-0.00873040221631526950
0.01369539927691221200
0.04223914444446563700
-0.01589812152087688400
-0.06758093833923339800
-0.06445334106683731100
0.02911245450377464300
0.07932872325181961100
-0.00242466432973742490
-0.06163740903139114400
-0.05797892808914184600
0.01473398879170417800
0.07039181888103485100
-0.00282405968755483630
-0.06236814707517623900
-0.04916639253497123700
0.03219548612833023100
0.05619081854820251500
0.02350942231714725500
-0.01587935350835323300
-0.05279486626386642500
-0.06178972125053405800
-0.01196820661425590500
0.04731709510087966900
0.01542820595204830200
-0.05359367653727531400
-0.06352135539054870600
-0.01806149818003177600
0.10748235881328583000
0.01434794720262289000
-0.03542492166161537200
-0.05597158148884773300
-0.02528767287731170700
0.09117948263883590700
0.04644514620304107700
-0.01663403399288654300
-0.03178779780864715600
-0.01467346865683794000
0.07220643758773803700
0.08375183492898941000
0.04610439762473106400
0.01612619496881961800
0.00462226942181587220
0.02463030070066452000
0.01315031480044126500
0.01945775933563709300
-0.00594866974279284480
-0.00842918828129768370
0.01949276961386203800
0.00515421293675899510
-0.01285961363464593900
-0.01125184260308742500
-0.01201556902378797500
-0.01086861919611692400
0.01458297297358512900
-0.00237853499129414560
-0.00845917686820030210
-0.02370675839483737900
-0.01748475059866905200
0.00723148183897137640
0.00340396631509065630
-0.00046260628732852638
-0.02544846013188362100
-0.00796293932944536210
0.02524485252797603600
0.01824681833386421200
-0.01490926556289196000
-0.03427340835332870500
-0.02018881216645240800
-0.03882739320397377000
-0.05250253155827522300
-0.05167892947793006900
-0.02796772867441177400
-0.02798792906105518300
-0.05401692911982536300
-0.05387224256992340100
-0.04057409986853599500
-0.01212920807301998100
-0.05458889529109001200
-0.06138302013278007500
-0.06790230423212051400
-0.00713486876338720320
0.03580706566572189300
-0.06567109376192092900
-0.04892964288592338600
-0.00922085624188184740
0.02561086229979991900
0.03246535733342170700
-0.02822267636656761200
0.00280687748454511170
0.04425622895359993000
0.02668641880154609700
0.02038728818297386200
-0.00647004693746566770
-0.01549940556287765500
-0.01853394508361816400
0.02964344061911106100
0.05860393866896629300
0.01388312876224517800
-0.04031244665384292600
-0.08951365202665329000
0.05751188099384307900
0.08980758488178253200
0.01298192422837019000
-0.09744392335414886500
-0.05091352015733718900
0.06107921525835990900
0.08404149860143661500
-0.05432462692260742200
-0.04240581393241882300
0.01984853670001030000
0.08265509456396102900
0.04075660184025764500
-0.03332910314202308700
0.01050341501832008400
0.05721976608037948600
0.02020141109824180600
-0.01792356558144092600
-0.03305542841553688000
-0.01795633696019649500
0.01881182380020618400
0.02364446222782135000
0.02367488294839859000
0.00367195717990398410
0.01471509411931037900
0.01448102667927742000
0.01933401450514793400
0.03504977002739906300
-0.01216537971049547200
-0.02047740295529365500
-0.03669138625264167800
-0.02726180106401443500
-0.01511094346642494200
-0.01194894779473543200
-0.03799770399928093000
-0.03187565878033638000
-0.03344626724720001200
-0.01271233707666397100
-0.01091747917234897600
-0.04519360139966011000
-0.04180777817964553800
-0.05949537828564643900
-0.03853609412908554100
-0.01057984866201877600
0.00466243736445903780
0.04128191620111465500
0.04820482432842254600
0.04478389024734497100
0.02421239390969276400
0.05939821153879165600
0.07582414150238037100
0.06944415718317031900
0.04916662722826004000
0.03278969600796699500
0.02272941358387470200
0.00876417942345142360
0.00601143669337034230
-0.02411510981619358100
-0.01441875286400318100
-0.04506576433777809100
-0.05165304616093635600
-0.02837025560438633000
-0.01142543833702802700
-0.03339575603604316700
-0.04623877257108688400
-0.03470518440008163500
-0.01631966046988964100
-0.00214094924740493300
0.01906584762036800400
-0.01332362461835146000
-0.03118068538606166800
-0.06513267755508422900
-0.01147769764065742500
0.02722406946122646300
0.00154752365779131650
-0.02779261767864227300
-0.05240485817193985000
-0.02535555884242057800
0.03622720018029213000
0.04426763951778411900
-0.00464976252987980840
-0.05970298498868942300
-0.03001923486590385400
0.02419118769466877000
0.03453250601887702900
0.00205016485415399070
-0.01863392442464828500
-0.02102410048246383700
0.04535226151347160300
0.03085630573332309700
0.02828165702521801000
0.01476013194769620900
-0.00834912154823541640
0.03955186903476715100
0.02671900764107704200
-0.00672556459903717040
-0.03204276785254478500
0.00638248817995190620
0.02159176766872406000
0.02118133939802646600
0.01123448554426431700
-0.00195711315609514710
-0.00557775236666202550
0.01321224030107259800
-0.00474767945706844330
0.01208022236824035600
-0.00549401436001062390
0.02846673876047134400
-0.00093802396440878510
-0.02768875472247600600
-0.03366240486502647400
0.00315886107273399830
0.02717976830899715400
-0.01534342393279075600
-0.01900857314467430100
-0.02549103088676929500
0.00457190442830324170
0.02609475702047348000
-0.00920141022652387620
0.02058011479675769800
0.04941228404641151400
0.03238228708505630500
0.03054138831794261900
0.09541877359151840200
0.09320338815450668300
0.08625753223896026600
0.05955775827169418300
0.00886598043143749240
0.07259456068277359000
0.04043054580688476600
0.00974575616419315340
-0.01744663901627063800
-0.01666584052145481100
-0.03312634676694870000
-0.06780346482992172200
-0.07993823289871215800
-0.05347090587019920300
-0.01930563338100910200
-0.04669157043099403400
-0.07300227880477905300
-0.05043376237154007000
-0.01969310082495212600
0.01104375533759594000
-0.01679900847375392900
-0.02442071773111820200
-0.03216244280338287400
-0.01801171340048313100
-0.00472730537876486780
-0.02914370782673358900
-0.02587005868554115300
-0.02145898900926113100
0.01049156486988067600
0.00514729693531990050
-0.01610991917550563800
-0.03029047697782516500
-0.01314548123627901100
-0.00602379441261291500
-0.00153862161096185450
-0.02580593898892402600
-0.04128906875848770100
-0.01203830353915691400
0.00343653792515397070
-0.00860926695168018340
-0.04020271822810173000
-0.02918560989201068900
0.02004454284906387300
0.02288031764328479800
0.02706100977957248700
0.03283947333693504300
0.07375940680503845200
0.06539559364318847700
0.02781026251614093800
-0.04898157715797424300
-0.00152078841347247360
0.02139475755393505100
0.09196420013904571500
0.05425335839390754700
-0.06219390034675598100
-0.06809086352586746200
-0.04584858566522598300
0.06995841860771179200
0.07483725994825363200
-0.01692523621022701300
-0.05346131697297096300
-0.03128358349204063400
0.02930882200598716700
0.04723768681287765500
-0.00318158767186105250
-0.01859301514923572500
-0.03269885107874870300
0.02434214763343334200
0.01074230857193470000
0.01066158711910247800
-0.02016402781009674100
-0.05680481716990470900
-0.06764006614685058600
-0.06618027389049530000
-0.04014383628964424100
-0.04818437993526458700
-0.06467959284782409700
-0.06528782099485397300
-0.06760843843221664400
-0.02491779811680316900
-0.02468513324856758100
-0.03291246667504310600
-0.06305378675460815400
-0.02639335393905639600
-0.01805362850427627600
0.01897302828729152700
0.00874183047562837600
0.01658006384968757600
0.03339305147528648400
0.03046599030494689900
0.05198022723197937000
0.08036172389984130900
0.09574370831251144400
0.06493628025054931600
0.04204005002975463900
0.01937562413513660400
0.01492922008037567100
0.03529119119048118600
0.02013451978564262400
0.00326488888822495940
-0.01308399811387062100
-0.00929159391671419140
0.04682696610689163200
0.09467884898185730000
0.04794001951813697800
-0.03256814181804657000
-0.05856151133775711100
0.00548253627493977550
0.11092502623796463000
0.07680843770503997800
-0.04898050799965858500
-0.08919545263051986700
-0.02452207915484905200
0.08888427168130874600
0.10570553690195084000
-0.04275598749518394500
-0.08881047368049621600
-0.03976816684007644700
0.07381458580493927000
0.08461314439773559600
